digraph Tree {
node [shape=box, style="filled, rounded", color="black", fontname="helvetica"] ;
edge [fontname="helvetica"] ;
0 [label=<Glucose &le; 130.5<br/>gini = 0.452<br/>samples = 391<br/>value = [402, 212]<br/>class = 0>, fillcolor="#f3c3a1"] ;
1 [label=<Glucose &le; 101.5<br/>gini = 0.323<br/>samples = 270<br/>value = [335, 85]<br/>class = 0>, fillcolor="#eca16b"] ;
0 -> 1 [labeldistance=2.5, labelangle=45, headlabel="True"] ;
2 [label=<BMI &le; 29.45<br/>gini = 0.105<br/>samples = 113<br/>value = [169, 10]<br/>class = 0>, fillcolor="#e78845"] ;
1 -> 2 ;
3 [label=<gini = 0.0<br/>samples = 54<br/>value = [92, 0]<br/>class = 0>, fillcolor="#e58139"] ;
2 -> 3 ;
4 [label=<BMI &le; 30.05<br/>gini = 0.203<br/>samples = 59<br/>value = [77, 10]<br/>class = 0>, fillcolor="#e89153"] ;
2 -> 4 ;
5 [label=<SkinThickness &le; 32.0<br/>gini = 0.48<br/>samples = 5<br/>value = [3, 2]<br/>class = 0>, fillcolor="#f6d5bd"] ;
4 -> 5 ;
6 [label=<Pregnancies &le; 6.5<br/>gini = 0.5<br/>samples = 4<br/>value = [2, 2]<br/>class = 0>, fillcolor="#ffffff"] ;
5 -> 6 ;
7 [label=<gini = 0.0<br/>samples = 2<br/>value = [2, 0]<br/>class = 0>, fillcolor="#e58139"] ;
6 -> 7 ;
8 [label=<gini = 0.0<br/>samples = 2<br/>value = [0, 2]<br/>class = 1>, fillcolor="#399de5"] ;
6 -> 8 ;
9 [label=<gini = 0.0<br/>samples = 1<br/>value = [1, 0]<br/>class = 0>, fillcolor="#e58139"] ;
5 -> 9 ;
10 [label=<DiabetesPedigreeFunction &le; 0.215<br/>gini = 0.176<br/>samples = 54<br/>value = [74, 8]<br/>class = 0>, fillcolor="#e88f4e"] ;
4 -> 10 ;
11 [label=<gini = 0.0<br/>samples = 9<br/>value = [11, 0]<br/>class = 0>, fillcolor="#e58139"] ;
10 -> 11 ;
12 [label=<Age &le; 51.0<br/>gini = 0.2<br/>samples = 45<br/>value = [63, 8]<br/>class = 0>, fillcolor="#e89152"] ;
10 -> 12 ;
13 [label=<SkinThickness &le; 18.5<br/>gini = 0.163<br/>samples = 43<br/>value = [61, 6]<br/>class = 0>, fillcolor="#e88d4c"] ;
12 -> 13 ;
14 [label=<gini = 0.0<br/>samples = 10<br/>value = [14, 0]<br/>class = 0>, fillcolor="#e58139"] ;
13 -> 14 ;
15 [label=<BloodPressure &le; 79.0<br/>gini = 0.201<br/>samples = 33<br/>value = [47, 6]<br/>class = 0>, fillcolor="#e89152"] ;
13 -> 15 ;
16 [label=<SkinThickness &le; 21.5<br/>gini = 0.159<br/>samples = 28<br/>value = [42, 4]<br/>class = 0>, fillcolor="#e78d4c"] ;
15 -> 16 ;
17 [label=<gini = 0.0<br/>samples = 1<br/>value = [0, 1]<br/>class = 1>, fillcolor="#399de5"] ;
16 -> 17 ;
18 [label=<DiabetesPedigreeFunction &le; 0.264<br/>gini = 0.124<br/>samples = 27<br/>value = [42, 3]<br/>class = 0>, fillcolor="#e78a47"] ;
16 -> 18 ;
19 [label=<BMI &le; 33.4<br/>gini = 0.5<br/>samples = 2<br/>value = [1, 1]<br/>class = 0>, fillcolor="#ffffff"] ;
18 -> 19 ;
20 [label=<gini = 0.0<br/>samples = 1<br/>value = [0, 1]<br/>class = 1>, fillcolor="#399de5"] ;
19 -> 20 ;
21 [label=<gini = 0.0<br/>samples = 1<br/>value = [1, 0]<br/>class = 0>, fillcolor="#e58139"] ;
19 -> 21 ;
22 [label=<DiabetesPedigreeFunction &le; 0.501<br/>gini = 0.089<br/>samples = 25<br/>value = [41, 2]<br/>class = 0>, fillcolor="#e68743"] ;
18 -> 22 ;
23 [label=<gini = 0.0<br/>samples = 14<br/>value = [24, 0]<br/>class = 0>, fillcolor="#e58139"] ;
22 -> 23 ;
24 [label=<DiabetesPedigreeFunction &le; 0.547<br/>gini = 0.188<br/>samples = 11<br/>value = [17, 2]<br/>class = 0>, fillcolor="#e89050"] ;
22 -> 24 ;
25 [label=<gini = 0.0<br/>samples = 1<br/>value = [0, 1]<br/>class = 1>, fillcolor="#399de5"] ;
24 -> 25 ;
26 [label=<SkinThickness &le; 31.0<br/>gini = 0.105<br/>samples = 10<br/>value = [17, 1]<br/>class = 0>, fillcolor="#e78845"] ;
24 -> 26 ;
27 [label=<gini = 0.0<br/>samples = 5<br/>value = [12, 0]<br/>class = 0>, fillcolor="#e58139"] ;
26 -> 27 ;
28 [label=<Glucose &le; 94.0<br/>gini = 0.278<br/>samples = 5<br/>value = [5, 1]<br/>class = 0>, fillcolor="#ea9a61"] ;
26 -> 28 ;
29 [label=<Pregnancies &le; 1.5<br/>gini = 0.444<br/>samples = 3<br/>value = [2, 1]<br/>class = 0>, fillcolor="#f2c09c"] ;
28 -> 29 ;
30 [label=<gini = 0.0<br/>samples = 2<br/>value = [2, 0]<br/>class = 0>, fillcolor="#e58139"] ;
29 -> 30 ;
31 [label=<gini = 0.0<br/>samples = 1<br/>value = [0, 1]<br/>class = 1>, fillcolor="#399de5"] ;
29 -> 31 ;
32 [label=<gini = 0.0<br/>samples = 2<br/>value = [3, 0]<br/>class = 0>, fillcolor="#e58139"] ;
28 -> 32 ;
33 [label=<SkinThickness &le; 26.5<br/>gini = 0.408<br/>samples = 5<br/>value = [5, 2]<br/>class = 0>, fillcolor="#efb388"] ;
15 -> 33 ;
34 [label=<gini = 0.0<br/>samples = 1<br/>value = [0, 1]<br/>class = 1>, fillcolor="#399de5"] ;
33 -> 34 ;
35 [label=<Pregnancies &le; 4.5<br/>gini = 0.278<br/>samples = 4<br/>value = [5, 1]<br/>class = 0>, fillcolor="#ea9a61"] ;
33 -> 35 ;
36 [label=<gini = 0.0<br/>samples = 3<br/>value = [5, 0]<br/>class = 0>, fillcolor="#e58139"] ;
35 -> 36 ;
37 [label=<gini = 0.0<br/>samples = 1<br/>value = [0, 1]<br/>class = 1>, fillcolor="#399de5"] ;
35 -> 37 ;
38 [label=<DiabetesPedigreeFunction &le; 0.483<br/>gini = 0.5<br/>samples = 2<br/>value = [2, 2]<br/>class = 0>, fillcolor="#ffffff"] ;
12 -> 38 ;
39 [label=<gini = 0.0<br/>samples = 1<br/>value = [0, 2]<br/>class = 1>, fillcolor="#399de5"] ;
38 -> 39 ;
40 [label=<gini = 0.0<br/>samples = 1<br/>value = [2, 0]<br/>class = 0>, fillcolor="#e58139"] ;
38 -> 40 ;
41 [label=<BMI &le; 26.3<br/>gini = 0.429<br/>samples = 157<br/>value = [166, 75]<br/>class = 0>, fillcolor="#f1ba92"] ;
1 -> 41 ;
42 [label=<Age &le; 51.0<br/>gini = 0.115<br/>samples = 34<br/>value = [46, 3]<br/>class = 0>, fillcolor="#e78946"] ;
41 -> 42 ;
43 [label=<gini = 0.0<br/>samples = 29<br/>value = [42, 0]<br/>class = 0>, fillcolor="#e58139"] ;
42 -> 43 ;
44 [label=<BloodPressure &le; 87.0<br/>gini = 0.49<br/>samples = 5<br/>value = [4, 3]<br/>class = 0>, fillcolor="#f8e0ce"] ;
42 -> 44 ;
45 [label=<gini = 0.0<br/>samples = 4<br/>value = [4, 0]<br/>class = 0>, fillcolor="#e58139"] ;
44 -> 45 ;
46 [label=<gini = 0.0<br/>samples = 1<br/>value = [0, 3]<br/>class = 1>, fillcolor="#399de5"] ;
44 -> 46 ;
47 [label=<BloodPressure &le; 85.0<br/>gini = 0.469<br/>samples = 123<br/>value = [120, 72]<br/>class = 0>, fillcolor="#f5cdb0"] ;
41 -> 47 ;
48 [label=<Pregnancies &le; 5.5<br/>gini = 0.485<br/>samples = 100<br/>value = [92, 65]<br/>class = 0>, fillcolor="#f7dac5"] ;
47 -> 48 ;
49 [label=<Pregnancies &le; 0.5<br/>gini = 0.436<br/>samples = 73<br/>value = [76, 36]<br/>class = 0>, fillcolor="#f1bd97"] ;
48 -> 49 ;
50 [label=<Age &le; 23.5<br/>gini = 0.475<br/>samples = 13<br/>value = [7, 11]<br/>class = 1>, fillcolor="#b7dbf6"] ;
49 -> 50 ;
51 [label=<SkinThickness &le; 8.0<br/>gini = 0.219<br/>samples = 6<br/>value = [7, 1]<br/>class = 0>, fillcolor="#e99355"] ;
50 -> 51 ;
52 [label=<gini = 0.0<br/>samples = 1<br/>value = [0, 1]<br/>class = 1>, fillcolor="#399de5"] ;
51 -> 52 ;
53 [label=<gini = 0.0<br/>samples = 5<br/>value = [7, 0]<br/>class = 0>, fillcolor="#e58139"] ;
51 -> 53 ;
54 [label=<gini = 0.0<br/>samples = 7<br/>value = [0, 10]<br/>class = 1>, fillcolor="#399de5"] ;
50 -> 54 ;
55 [label=<BMI &le; 26.45<br/>gini = 0.39<br/>samples = 60<br/>value = [69, 25]<br/>class = 0>, fillcolor="#eeaf81"] ;
49 -> 55 ;
56 [label=<gini = 0.0<br/>samples = 1<br/>value = [0, 2]<br/>class = 1>, fillcolor="#399de5"] ;
55 -> 56 ;
57 [label=<Age &le; 29.5<br/>gini = 0.375<br/>samples = 59<br/>value = [69, 23]<br/>class = 0>, fillcolor="#eeab7b"] ;
55 -> 57 ;
58 [label=<BMI &le; 31.95<br/>gini = 0.233<br/>samples = 44<br/>value = [58.0, 9.0]<br/>class = 0>, fillcolor="#e99558"] ;
57 -> 58 ;
59 [label=<gini = 0.0<br/>samples = 17<br/>value = [26, 0]<br/>class = 0>, fillcolor="#e58139"] ;
58 -> 59 ;
60 [label=<Insulin &le; 31.5<br/>gini = 0.343<br/>samples = 27<br/>value = [32, 9]<br/>class = 0>, fillcolor="#eca471"] ;
58 -> 60 ;
61 [label=<Age &le; 25.5<br/>gini = 0.486<br/>samples = 7<br/>value = [7, 5]<br/>class = 0>, fillcolor="#f8dbc6"] ;
60 -> 61 ;
62 [label=<SkinThickness &le; 38.5<br/>gini = 0.32<br/>samples = 4<br/>value = [1, 4]<br/>class = 1>, fillcolor="#6ab6ec"] ;
61 -> 62 ;
63 [label=<gini = 0.0<br/>samples = 3<br/>value = [0, 4]<br/>class = 1>, fillcolor="#399de5"] ;
62 -> 63 ;
64 [label=<gini = 0.0<br/>samples = 1<br/>value = [1, 0]<br/>class = 0>, fillcolor="#e58139"] ;
62 -> 64 ;
65 [label=<DiabetesPedigreeFunction &le; 0.72<br/>gini = 0.245<br/>samples = 3<br/>value = [6, 1]<br/>class = 0>, fillcolor="#e9965a"] ;
61 -> 65 ;
66 [label=<DiabetesPedigreeFunction &le; 0.465<br/>gini = 0.444<br/>samples = 2<br/>value = [2, 1]<br/>class = 0>, fillcolor="#f2c09c"] ;
65 -> 66 ;
67 [label=<gini = 0.0<br/>samples = 1<br/>value = [2, 0]<br/>class = 0>, fillcolor="#e58139"] ;
66 -> 67 ;
68 [label=<gini = 0.0<br/>samples = 1<br/>value = [0, 1]<br/>class = 1>, fillcolor="#399de5"] ;
66 -> 68 ;
69 [label=<gini = 0.0<br/>samples = 1<br/>value = [4, 0]<br/>class = 0>, fillcolor="#e58139"] ;
65 -> 69 ;
70 [label=<Age &le; 24.5<br/>gini = 0.238<br/>samples = 20<br/>value = [25, 4]<br/>class = 0>, fillcolor="#e99559"] ;
60 -> 70 ;
71 [label=<gini = 0.0<br/>samples = 8<br/>value = [11, 0]<br/>class = 0>, fillcolor="#e58139"] ;
70 -> 71 ;
72 [label=<Insulin &le; 185.0<br/>gini = 0.346<br/>samples = 12<br/>value = [14, 4]<br/>class = 0>, fillcolor="#eca572"] ;
70 -> 72 ;
73 [label=<BloodPressure &le; 65.0<br/>gini = 0.231<br/>samples = 10<br/>value = [13, 2]<br/>class = 0>, fillcolor="#e99457"] ;
72 -> 73 ;
74 [label=<Pregnancies &le; 3.0<br/>gini = 0.444<br/>samples = 5<br/>value = [4, 2]<br/>class = 0>, fillcolor="#f2c09c"] ;
73 -> 74 ;
75 [label=<gini = 0.0<br/>samples = 3<br/>value = [4, 0]<br/>class = 0>, fillcolor="#e58139"] ;
74 -> 75 ;
76 [label=<gini = 0.0<br/>samples = 2<br/>value = [0, 2]<br/>class = 1>, fillcolor="#399de5"] ;
74 -> 76 ;
77 [label=<gini = 0.0<br/>samples = 5<br/>value = [9, 0]<br/>class = 0>, fillcolor="#e58139"] ;
73 -> 77 ;
78 [label=<Pregnancies &le; 4.0<br/>gini = 0.444<br/>samples = 2<br/>value = [1, 2]<br/>class = 1>, fillcolor="#9ccef2"] ;
72 -> 78 ;
79 [label=<gini = 0.0<br/>samples = 1<br/>value = [0, 2]<br/>class = 1>, fillcolor="#399de5"] ;
78 -> 79 ;
80 [label=<gini = 0.0<br/>samples = 1<br/>value = [1, 0]<br/>class = 0>, fillcolor="#e58139"] ;
78 -> 80 ;
81 [label=<BMI &le; 34.3<br/>gini = 0.493<br/>samples = 15<br/>value = [11.0, 14.0]<br/>class = 1>, fillcolor="#d5eaf9"] ;
57 -> 81 ;
82 [label=<DiabetesPedigreeFunction &le; 0.41<br/>gini = 0.26<br/>samples = 8<br/>value = [2, 11]<br/>class = 1>, fillcolor="#5dafea"] ;
81 -> 82 ;
83 [label=<gini = 0.0<br/>samples = 6<br/>value = [0, 10]<br/>class = 1>, fillcolor="#399de5"] ;
82 -> 83 ;
84 [label=<SkinThickness &le; 22.5<br/>gini = 0.444<br/>samples = 2<br/>value = [2, 1]<br/>class = 0>, fillcolor="#f2c09c"] ;
82 -> 84 ;
85 [label=<gini = 0.0<br/>samples = 1<br/>value = [0, 1]<br/>class = 1>, fillcolor="#399de5"] ;
84 -> 85 ;
86 [label=<gini = 0.0<br/>samples = 1<br/>value = [2, 0]<br/>class = 0>, fillcolor="#e58139"] ;
84 -> 86 ;
87 [label=<Age &le; 32.5<br/>gini = 0.375<br/>samples = 7<br/>value = [9, 3]<br/>class = 0>, fillcolor="#eeab7b"] ;
81 -> 87 ;
88 [label=<gini = 0.0<br/>samples = 2<br/>value = [0, 2]<br/>class = 1>, fillcolor="#399de5"] ;
87 -> 88 ;
89 [label=<DiabetesPedigreeFunction &le; 0.278<br/>gini = 0.18<br/>samples = 5<br/>value = [9, 1]<br/>class = 0>, fillcolor="#e88f4f"] ;
87 -> 89 ;
90 [label=<gini = 0.0<br/>samples = 3<br/>value = [7, 0]<br/>class = 0>, fillcolor="#e58139"] ;
89 -> 90 ;
91 [label=<BMI &le; 39.2<br/>gini = 0.444<br/>samples = 2<br/>value = [2, 1]<br/>class = 0>, fillcolor="#f2c09c"] ;
89 -> 91 ;
92 [label=<gini = 0.0<br/>samples = 1<br/>value = [2, 0]<br/>class = 0>, fillcolor="#e58139"] ;
91 -> 92 ;
93 [label=<gini = 0.0<br/>samples = 1<br/>value = [0, 1]<br/>class = 1>, fillcolor="#399de5"] ;
91 -> 93 ;
94 [label=<Age &le; 27.5<br/>gini = 0.458<br/>samples = 27<br/>value = [16.0, 29.0]<br/>class = 1>, fillcolor="#a6d3f3"] ;
48 -> 94 ;
95 [label=<gini = 0.0<br/>samples = 1<br/>value = [3, 0]<br/>class = 0>, fillcolor="#e58139"] ;
94 -> 95 ;
96 [label=<Insulin &le; 203.0<br/>gini = 0.427<br/>samples = 26<br/>value = [13, 29]<br/>class = 1>, fillcolor="#92c9f1"] ;
94 -> 96 ;
97 [label=<SkinThickness &le; 39.5<br/>gini = 0.361<br/>samples = 24<br/>value = [9, 29]<br/>class = 1>, fillcolor="#76bbed"] ;
96 -> 97 ;
98 [label=<BloodPressure &le; 67.0<br/>gini = 0.284<br/>samples = 22<br/>value = [6.0, 29.0]<br/>class = 1>, fillcolor="#62b1ea"] ;
97 -> 98 ;
99 [label=<gini = 0.0<br/>samples = 6<br/>value = [0, 9]<br/>class = 1>, fillcolor="#399de5"] ;
98 -> 99 ;
100 [label=<DiabetesPedigreeFunction &le; 0.582<br/>gini = 0.355<br/>samples = 16<br/>value = [6, 20]<br/>class = 1>, fillcolor="#74baed"] ;
98 -> 100 ;
101 [label=<SkinThickness &le; 28.0<br/>gini = 0.469<br/>samples = 10<br/>value = [6, 10]<br/>class = 1>, fillcolor="#b0d8f5"] ;
100 -> 101 ;
102 [label=<Glucose &le; 117.5<br/>gini = 0.298<br/>samples = 6<br/>value = [2, 9]<br/>class = 1>, fillcolor="#65b3eb"] ;
101 -> 102 ;
103 [label=<Glucose &le; 108.5<br/>gini = 0.444<br/>samples = 4<br/>value = [2, 4]<br/>class = 1>, fillcolor="#9ccef2"] ;
102 -> 103 ;
104 [label=<Age &le; 44.0<br/>gini = 0.32<br/>samples = 3<br/>value = [1, 4]<br/>class = 1>, fillcolor="#6ab6ec"] ;
103 -> 104 ;
105 [label=<gini = 0.0<br/>samples = 2<br/>value = [0, 4]<br/>class = 1>, fillcolor="#399de5"] ;
104 -> 105 ;
106 [label=<gini = 0.0<br/>samples = 1<br/>value = [1, 0]<br/>class = 0>, fillcolor="#e58139"] ;
104 -> 106 ;
107 [label=<gini = 0.0<br/>samples = 1<br/>value = [1, 0]<br/>class = 0>, fillcolor="#e58139"] ;
103 -> 107 ;
108 [label=<gini = 0.0<br/>samples = 2<br/>value = [0, 5]<br/>class = 1>, fillcolor="#399de5"] ;
102 -> 108 ;
109 [label=<BMI &le; 32.5<br/>gini = 0.32<br/>samples = 4<br/>value = [4, 1]<br/>class = 0>, fillcolor="#eca06a"] ;
101 -> 109 ;
110 [label=<gini = 0.0<br/>samples = 3<br/>value = [4, 0]<br/>class = 0>, fillcolor="#e58139"] ;
109 -> 110 ;
111 [label=<gini = 0.0<br/>samples = 1<br/>value = [0, 1]<br/>class = 1>, fillcolor="#399de5"] ;
109 -> 111 ;
112 [label=<gini = 0.0<br/>samples = 6<br/>value = [0, 10]<br/>class = 1>, fillcolor="#399de5"] ;
100 -> 112 ;
113 [label=<gini = 0.0<br/>samples = 2<br/>value = [3, 0]<br/>class = 0>, fillcolor="#e58139"] ;
97 -> 113 ;
114 [label=<gini = 0.0<br/>samples = 2<br/>value = [4, 0]<br/>class = 0>, fillcolor="#e58139"] ;
96 -> 114 ;
115 [label=<DiabetesPedigreeFunction &le; 0.768<br/>gini = 0.32<br/>samples = 23<br/>value = [28, 7]<br/>class = 0>, fillcolor="#eca06a"] ;
47 -> 115 ;
116 [label=<BloodPressure &le; 108.0<br/>gini = 0.225<br/>samples = 19<br/>value = [27, 4]<br/>class = 0>, fillcolor="#e99456"] ;
115 -> 116 ;
117 [label=<SkinThickness &le; 46.0<br/>gini = 0.18<br/>samples = 18<br/>value = [27, 3]<br/>class = 0>, fillcolor="#e88f4f"] ;
116 -> 117 ;
118 [label=<Insulin &le; 132.5<br/>gini = 0.069<br/>samples = 17<br/>value = [27, 1]<br/>class = 0>, fillcolor="#e68640"] ;
117 -> 118 ;
119 [label=<gini = 0.0<br/>samples = 14<br/>value = [23, 0]<br/>class = 0>, fillcolor="#e58139"] ;
118 -> 119 ;
120 [label=<DiabetesPedigreeFunction &le; 0.455<br/>gini = 0.32<br/>samples = 3<br/>value = [4, 1]<br/>class = 0>, fillcolor="#eca06a"] ;
118 -> 120 ;
121 [label=<gini = 0.0<br/>samples = 1<br/>value = [0, 1]<br/>class = 1>, fillcolor="#399de5"] ;
120 -> 121 ;
122 [label=<gini = 0.0<br/>samples = 2<br/>value = [4, 0]<br/>class = 0>, fillcolor="#e58139"] ;
120 -> 122 ;
123 [label=<gini = 0.0<br/>samples = 1<br/>value = [0, 2]<br/>class = 1>, fillcolor="#399de5"] ;
117 -> 123 ;
124 [label=<gini = 0.0<br/>samples = 1<br/>value = [0, 1]<br/>class = 1>, fillcolor="#399de5"] ;
116 -> 124 ;
125 [label=<SkinThickness &le; 37.0<br/>gini = 0.375<br/>samples = 4<br/>value = [1, 3]<br/>class = 1>, fillcolor="#7bbeee"] ;
115 -> 125 ;
126 [label=<gini = 0.0<br/>samples = 1<br/>value = [1, 0]<br/>class = 0>, fillcolor="#e58139"] ;
125 -> 126 ;
127 [label=<gini = 0.0<br/>samples = 3<br/>value = [0, 3]<br/>class = 1>, fillcolor="#399de5"] ;
125 -> 127 ;
128 [label=<Glucose &le; 157.5<br/>gini = 0.452<br/>samples = 121<br/>value = [67, 127]<br/>class = 1>, fillcolor="#a1d1f3"] ;
0 -> 128 [labeldistance=2.5, labelangle=-45, headlabel="False"] ;
129 [label=<Age &le; 62.0<br/>gini = 0.5<br/>samples = 68<br/>value = [53, 56]<br/>class = 1>, fillcolor="#f4fafe"] ;
128 -> 129 ;
130 [label=<BMI &le; 29.95<br/>gini = 0.496<br/>samples = 63<br/>value = [47, 56]<br/>class = 1>, fillcolor="#dfeffb"] ;
129 -> 130 ;
131 [label=<Glucose &le; 154.5<br/>gini = 0.358<br/>samples = 19<br/>value = [23, 7]<br/>class = 0>, fillcolor="#eda775"] ;
130 -> 131 ;
132 [label=<DiabetesPedigreeFunction &le; 0.407<br/>gini = 0.293<br/>samples = 17<br/>value = [23, 5]<br/>class = 0>, fillcolor="#eb9c64"] ;
131 -> 132 ;
133 [label=<Insulin &le; 50.0<br/>gini = 0.459<br/>samples = 9<br/>value = [9, 5]<br/>class = 0>, fillcolor="#f3c7a7"] ;
132 -> 133 ;
134 [label=<BloodPressure &le; 57.5<br/>gini = 0.494<br/>samples = 6<br/>value = [4, 5]<br/>class = 1>, fillcolor="#d7ebfa"] ;
133 -> 134 ;
135 [label=<gini = 0.0<br/>samples = 2<br/>value = [0, 3]<br/>class = 1>, fillcolor="#399de5"] ;
134 -> 135 ;
136 [label=<DiabetesPedigreeFunction &le; 0.193<br/>gini = 0.444<br/>samples = 4<br/>value = [4, 2]<br/>class = 0>, fillcolor="#f2c09c"] ;
134 -> 136 ;
137 [label=<BMI &le; 26.85<br/>gini = 0.444<br/>samples = 2<br/>value = [1, 2]<br/>class = 1>, fillcolor="#9ccef2"] ;
136 -> 137 ;
138 [label=<gini = 0.0<br/>samples = 1<br/>value = [1, 0]<br/>class = 0>, fillcolor="#e58139"] ;
137 -> 138 ;
139 [label=<gini = 0.0<br/>samples = 1<br/>value = [0, 2]<br/>class = 1>, fillcolor="#399de5"] ;
137 -> 139 ;
140 [label=<gini = 0.0<br/>samples = 2<br/>value = [3, 0]<br/>class = 0>, fillcolor="#e58139"] ;
136 -> 140 ;
141 [label=<gini = 0.0<br/>samples = 3<br/>value = [5, 0]<br/>class = 0>, fillcolor="#e58139"] ;
133 -> 141 ;
142 [label=<gini = 0.0<br/>samples = 8<br/>value = [14, 0]<br/>class = 0>, fillcolor="#e58139"] ;
132 -> 142 ;
143 [label=<gini = 0.0<br/>samples = 2<br/>value = [0, 2]<br/>class = 1>, fillcolor="#399de5"] ;
131 -> 143 ;
144 [label=<Glucose &le; 136.5<br/>gini = 0.441<br/>samples = 44<br/>value = [24, 49]<br/>class = 1>, fillcolor="#9acdf2"] ;
130 -> 144 ;
145 [label=<gini = 0.0<br/>samples = 11<br/>value = [0, 24]<br/>class = 1>, fillcolor="#399de5"] ;
144 -> 145 ;
146 [label=<BloodPressure &le; 61.0<br/>gini = 0.5<br/>samples = 33<br/>value = [24, 25]<br/>class = 1>, fillcolor="#f7fbfe"] ;
144 -> 146 ;
147 [label=<gini = 0.0<br/>samples = 5<br/>value = [0, 11]<br/>class = 1>, fillcolor="#399de5"] ;
146 -> 147 ;
148 [label=<DiabetesPedigreeFunction &le; 0.257<br/>gini = 0.465<br/>samples = 28<br/>value = [24, 14]<br/>class = 0>, fillcolor="#f4caac"] ;
146 -> 148 ;
149 [label=<DiabetesPedigreeFunction &le; 0.131<br/>gini = 0.153<br/>samples = 8<br/>value = [11, 1]<br/>class = 0>, fillcolor="#e78c4b"] ;
148 -> 149 ;
150 [label=<gini = 0.0<br/>samples = 1<br/>value = [0, 1]<br/>class = 1>, fillcolor="#399de5"] ;
149 -> 150 ;
151 [label=<gini = 0.0<br/>samples = 7<br/>value = [11, 0]<br/>class = 0>, fillcolor="#e58139"] ;
149 -> 151 ;
152 [label=<Age &le; 35.5<br/>gini = 0.5<br/>samples = 20<br/>value = [13, 13]<br/>class = 0>, fillcolor="#ffffff"] ;
148 -> 152 ;
153 [label=<DiabetesPedigreeFunction &le; 0.373<br/>gini = 0.305<br/>samples = 11<br/>value = [13, 3]<br/>class = 0>, fillcolor="#eb9e67"] ;
152 -> 153 ;
154 [label=<DiabetesPedigreeFunction &le; 0.314<br/>gini = 0.375<br/>samples = 3<br/>value = [1, 3]<br/>class = 1>, fillcolor="#7bbeee"] ;
153 -> 154 ;
155 [label=<gini = 0.0<br/>samples = 1<br/>value = [1, 0]<br/>class = 0>, fillcolor="#e58139"] ;
154 -> 155 ;
156 [label=<gini = 0.0<br/>samples = 2<br/>value = [0, 3]<br/>class = 1>, fillcolor="#399de5"] ;
154 -> 156 ;
157 [label=<gini = 0.0<br/>samples = 8<br/>value = [12, 0]<br/>class = 0>, fillcolor="#e58139"] ;
153 -> 157 ;
158 [label=<gini = 0.0<br/>samples = 9<br/>value = [0, 10]<br/>class = 1>, fillcolor="#399de5"] ;
152 -> 158 ;
159 [label=<gini = 0.0<br/>samples = 5<br/>value = [6, 0]<br/>class = 0>, fillcolor="#e58139"] ;
129 -> 159 ;
160 [label=<DiabetesPedigreeFunction &le; 0.307<br/>gini = 0.275<br/>samples = 53<br/>value = [14, 71]<br/>class = 1>, fillcolor="#60b0ea"] ;
128 -> 160 ;
161 [label=<Pregnancies &le; 8.5<br/>gini = 0.494<br/>samples = 16<br/>value = [8, 10]<br/>class = 1>, fillcolor="#d7ebfa"] ;
160 -> 161 ;
162 [label=<Insulin &le; 35.0<br/>gini = 0.459<br/>samples = 13<br/>value = [5, 9]<br/>class = 1>, fillcolor="#a7d3f3"] ;
161 -> 162 ;
163 [label=<gini = 0.0<br/>samples = 3<br/>value = [0, 3]<br/>class = 1>, fillcolor="#399de5"] ;
162 -> 163 ;
164 [label=<Age &le; 37.5<br/>gini = 0.496<br/>samples = 10<br/>value = [5, 6]<br/>class = 1>, fillcolor="#deeffb"] ;
162 -> 164 ;
165 [label=<DiabetesPedigreeFunction &le; 0.27<br/>gini = 0.494<br/>samples = 8<br/>value = [5, 4]<br/>class = 0>, fillcolor="#fae6d7"] ;
164 -> 165 ;
166 [label=<Glucose &le; 167.0<br/>gini = 0.32<br/>samples = 5<br/>value = [1, 4]<br/>class = 1>, fillcolor="#6ab6ec"] ;
165 -> 166 ;
167 [label=<Glucose &le; 164.0<br/>gini = 0.5<br/>samples = 2<br/>value = [1, 1]<br/>class = 0>, fillcolor="#ffffff"] ;
166 -> 167 ;
168 [label=<gini = 0.0<br/>samples = 1<br/>value = [0, 1]<br/>class = 1>, fillcolor="#399de5"] ;
167 -> 168 ;
169 [label=<gini = 0.0<br/>samples = 1<br/>value = [1, 0]<br/>class = 0>, fillcolor="#e58139"] ;
167 -> 169 ;
170 [label=<gini = 0.0<br/>samples = 3<br/>value = [0, 3]<br/>class = 1>, fillcolor="#399de5"] ;
166 -> 170 ;
171 [label=<gini = 0.0<br/>samples = 3<br/>value = [4, 0]<br/>class = 0>, fillcolor="#e58139"] ;
165 -> 171 ;
172 [label=<gini = 0.0<br/>samples = 2<br/>value = [0, 2]<br/>class = 1>, fillcolor="#399de5"] ;
164 -> 172 ;
173 [label=<Pregnancies &le; 12.0<br/>gini = 0.375<br/>samples = 3<br/>value = [3, 1]<br/>class = 0>, fillcolor="#eeab7b"] ;
161 -> 173 ;
174 [label=<gini = 0.0<br/>samples = 2<br/>value = [3, 0]<br/>class = 0>, fillcolor="#e58139"] ;
173 -> 174 ;
175 [label=<gini = 0.0<br/>samples = 1<br/>value = [0, 1]<br/>class = 1>, fillcolor="#399de5"] ;
173 -> 175 ;
176 [label=<Pregnancies &le; 5.5<br/>gini = 0.163<br/>samples = 37<br/>value = [6, 61]<br/>class = 1>, fillcolor="#4ca7e8"] ;
160 -> 176 ;
177 [label=<Age &le; 24.5<br/>gini = 0.059<br/>samples = 18<br/>value = [1, 32]<br/>class = 1>, fillcolor="#3fa0e6"] ;
176 -> 177 ;
178 [label=<Age &le; 23.5<br/>gini = 0.219<br/>samples = 4<br/>value = [1, 7]<br/>class = 1>, fillcolor="#55abe9"] ;
177 -> 178 ;
179 [label=<gini = 0.0<br/>samples = 3<br/>value = [0, 7]<br/>class = 1>, fillcolor="#399de5"] ;
178 -> 179 ;
180 [label=<gini = 0.0<br/>samples = 1<br/>value = [1, 0]<br/>class = 0>, fillcolor="#e58139"] ;
178 -> 180 ;
181 [label=<gini = 0.0<br/>samples = 14<br/>value = [0, 25]<br/>class = 1>, fillcolor="#399de5"] ;
177 -> 181 ;
182 [label=<BloodPressure &le; 92.0<br/>gini = 0.251<br/>samples = 19<br/>value = [5, 29]<br/>class = 1>, fillcolor="#5baee9"] ;
176 -> 182 ;
183 [label=<Pregnancies &le; 6.5<br/>gini = 0.17<br/>samples = 18<br/>value = [3, 29]<br/>class = 1>, fillcolor="#4da7e8"] ;
182 -> 183 ;
184 [label=<DiabetesPedigreeFunction &le; 0.479<br/>gini = 0.5<br/>samples = 2<br/>value = [2, 2]<br/>class = 0>, fillcolor="#ffffff"] ;
183 -> 184 ;
185 [label=<gini = 0.0<br/>samples = 1<br/>value = [0, 2]<br/>class = 1>, fillcolor="#399de5"] ;
184 -> 185 ;
186 [label=<gini = 0.0<br/>samples = 1<br/>value = [2, 0]<br/>class = 0>, fillcolor="#e58139"] ;
184 -> 186 ;
187 [label=<BMI &le; 28.05<br/>gini = 0.069<br/>samples = 16<br/>value = [1, 27]<br/>class = 1>, fillcolor="#40a1e6"] ;
183 -> 187 ;
188 [label=<BMI &le; 26.0<br/>gini = 0.278<br/>samples = 3<br/>value = [1, 5]<br/>class = 1>, fillcolor="#61b1ea"] ;
187 -> 188 ;
189 [label=<gini = 0.0<br/>samples = 2<br/>value = [0, 5]<br/>class = 1>, fillcolor="#399de5"] ;
188 -> 189 ;
190 [label=<gini = 0.0<br/>samples = 1<br/>value = [1, 0]<br/>class = 0>, fillcolor="#e58139"] ;
188 -> 190 ;
191 [label=<gini = 0.0<br/>samples = 13<br/>value = [0, 22]<br/>class = 1>, fillcolor="#399de5"] ;
187 -> 191 ;
192 [label=<gini = 0.0<br/>samples = 1<br/>value = [2, 0]<br/>class = 0>, fillcolor="#e58139"] ;
182 -> 192 ;
}