digraph Tree {
node [shape=box, style="filled, rounded", color="black", fontname="helvetica"] ;
edge [fontname="helvetica"] ;
0 [label=<Age &le; 28.5<br/>gini = 0.444<br/>samples = 383<br/>value = [410, 204]<br/>class = 0>, fillcolor="#f2c09c"] ;
1 [label=<SkinThickness &le; 5.0<br/>gini = 0.289<br/>samples = 185<br/>value = [240, 51]<br/>class = 0>, fillcolor="#eb9c63"] ;
0 -> 1 [labeldistance=2.5, labelangle=45, headlabel="True"] ;
2 [label=<Pregnancies &le; 3.5<br/>gini = 0.488<br/>samples = 37<br/>value = [33, 24]<br/>class = 0>, fillcolor="#f8ddc9"] ;
1 -> 2 ;
3 [label=<Pregnancies &le; 1.5<br/>gini = 0.408<br/>samples = 25<br/>value = [25, 10]<br/>class = 0>, fillcolor="#efb388"] ;
2 -> 3 ;
4 [label=<Age &le; 24.5<br/>gini = 0.245<br/>samples = 12<br/>value = [12, 2]<br/>class = 0>, fillcolor="#e9965a"] ;
3 -> 4 ;
5 [label=<BloodPressure &le; 26.0<br/>gini = 0.375<br/>samples = 7<br/>value = [6, 2]<br/>class = 0>, fillcolor="#eeab7b"] ;
4 -> 5 ;
6 [label=<gini = 0.0<br/>samples = 1<br/>value = [0, 1]<br/>class = 1>, fillcolor="#399de5"] ;
5 -> 6 ;
7 [label=<DiabetesPedigreeFunction &le; 0.268<br/>gini = 0.245<br/>samples = 6<br/>value = [6, 1]<br/>class = 0>, fillcolor="#e9965a"] ;
5 -> 7 ;
8 [label=<gini = 0.0<br/>samples = 3<br/>value = [3, 0]<br/>class = 0>, fillcolor="#e58139"] ;
7 -> 8 ;
9 [label=<DiabetesPedigreeFunction &le; 0.336<br/>gini = 0.375<br/>samples = 3<br/>value = [3, 1]<br/>class = 0>, fillcolor="#eeab7b"] ;
7 -> 9 ;
10 [label=<gini = 0.0<br/>samples = 1<br/>value = [0, 1]<br/>class = 1>, fillcolor="#399de5"] ;
9 -> 10 ;
11 [label=<gini = 0.0<br/>samples = 2<br/>value = [3, 0]<br/>class = 0>, fillcolor="#e58139"] ;
9 -> 11 ;
12 [label=<gini = 0.0<br/>samples = 5<br/>value = [6, 0]<br/>class = 0>, fillcolor="#e58139"] ;
4 -> 12 ;
13 [label=<BMI &le; 27.15<br/>gini = 0.472<br/>samples = 13<br/>value = [13, 8]<br/>class = 0>, fillcolor="#f5cfb3"] ;
3 -> 13 ;
14 [label=<BloodPressure &le; 58.0<br/>gini = 0.153<br/>samples = 7<br/>value = [11, 1]<br/>class = 0>, fillcolor="#e78c4b"] ;
13 -> 14 ;
15 [label=<Age &le; 22.5<br/>gini = 0.278<br/>samples = 3<br/>value = [5, 1]<br/>class = 0>, fillcolor="#ea9a61"] ;
14 -> 15 ;
16 [label=<gini = 0.0<br/>samples = 1<br/>value = [0, 1]<br/>class = 1>, fillcolor="#399de5"] ;
15 -> 16 ;
17 [label=<gini = 0.0<br/>samples = 2<br/>value = [5, 0]<br/>class = 0>, fillcolor="#e58139"] ;
15 -> 17 ;
18 [label=<gini = 0.0<br/>samples = 4<br/>value = [6, 0]<br/>class = 0>, fillcolor="#e58139"] ;
14 -> 18 ;
19 [label=<DiabetesPedigreeFunction &le; 0.845<br/>gini = 0.346<br/>samples = 6<br/>value = [2, 7]<br/>class = 1>, fillcolor="#72b9ec"] ;
13 -> 19 ;
20 [label=<Age &le; 23.5<br/>gini = 0.219<br/>samples = 5<br/>value = [1, 7]<br/>class = 1>, fillcolor="#55abe9"] ;
19 -> 20 ;
21 [label=<Age &le; 21.5<br/>gini = 0.444<br/>samples = 2<br/>value = [1, 2]<br/>class = 1>, fillcolor="#9ccef2"] ;
20 -> 21 ;
22 [label=<gini = 0.0<br/>samples = 1<br/>value = [0, 2]<br/>class = 1>, fillcolor="#399de5"] ;
21 -> 22 ;
23 [label=<gini = 0.0<br/>samples = 1<br/>value = [1, 0]<br/>class = 0>, fillcolor="#e58139"] ;
21 -> 23 ;
24 [label=<gini = 0.0<br/>samples = 3<br/>value = [0, 5]<br/>class = 1>, fillcolor="#399de5"] ;
20 -> 24 ;
25 [label=<gini = 0.0<br/>samples = 1<br/>value = [1, 0]<br/>class = 0>, fillcolor="#e58139"] ;
19 -> 25 ;
26 [label=<DiabetesPedigreeFunction &le; 0.456<br/>gini = 0.463<br/>samples = 12<br/>value = [8, 14]<br/>class = 1>, fillcolor="#aad5f4"] ;
2 -> 26 ;
27 [label=<BMI &le; 31.4<br/>gini = 0.48<br/>samples = 7<br/>value = [6, 4]<br/>class = 0>, fillcolor="#f6d5bd"] ;
26 -> 27 ;
28 [label=<gini = 0.0<br/>samples = 4<br/>value = [5, 0]<br/>class = 0>, fillcolor="#e58139"] ;
27 -> 28 ;
29 [label=<DiabetesPedigreeFunction &le; 0.346<br/>gini = 0.32<br/>samples = 3<br/>value = [1, 4]<br/>class = 1>, fillcolor="#6ab6ec"] ;
27 -> 29 ;
30 [label=<gini = 0.0<br/>samples = 2<br/>value = [0, 4]<br/>class = 1>, fillcolor="#399de5"] ;
29 -> 30 ;
31 [label=<gini = 0.0<br/>samples = 1<br/>value = [1, 0]<br/>class = 0>, fillcolor="#e58139"] ;
29 -> 31 ;
32 [label=<DiabetesPedigreeFunction &le; 0.649<br/>gini = 0.278<br/>samples = 5<br/>value = [2, 10]<br/>class = 1>, fillcolor="#61b1ea"] ;
26 -> 32 ;
33 [label=<gini = 0.0<br/>samples = 3<br/>value = [0, 9]<br/>class = 1>, fillcolor="#399de5"] ;
32 -> 33 ;
34 [label=<DiabetesPedigreeFunction &le; 0.918<br/>gini = 0.444<br/>samples = 2<br/>value = [2, 1]<br/>class = 0>, fillcolor="#f2c09c"] ;
32 -> 34 ;
35 [label=<gini = 0.0<br/>samples = 1<br/>value = [2, 0]<br/>class = 0>, fillcolor="#e58139"] ;
34 -> 35 ;
36 [label=<gini = 0.0<br/>samples = 1<br/>value = [0, 1]<br/>class = 1>, fillcolor="#399de5"] ;
34 -> 36 ;
37 [label=<BMI &le; 30.95<br/>gini = 0.204<br/>samples = 148<br/>value = [207, 27]<br/>class = 0>, fillcolor="#e89153"] ;
1 -> 37 ;
38 [label=<BMI &le; 23.0<br/>gini = 0.035<br/>samples = 71<br/>value = [110, 2]<br/>class = 0>, fillcolor="#e5833d"] ;
37 -> 38 ;
39 [label=<DiabetesPedigreeFunction &le; 0.662<br/>gini = 0.208<br/>samples = 11<br/>value = [15, 2]<br/>class = 0>, fillcolor="#e89253"] ;
38 -> 39 ;
40 [label=<gini = 0.0<br/>samples = 9<br/>value = [13, 0]<br/>class = 0>, fillcolor="#e58139"] ;
39 -> 40 ;
41 [label=<Age &le; 22.0<br/>gini = 0.5<br/>samples = 2<br/>value = [2, 2]<br/>class = 0>, fillcolor="#ffffff"] ;
39 -> 41 ;
42 [label=<gini = 0.0<br/>samples = 1<br/>value = [2, 0]<br/>class = 0>, fillcolor="#e58139"] ;
41 -> 42 ;
43 [label=<gini = 0.0<br/>samples = 1<br/>value = [0, 2]<br/>class = 1>, fillcolor="#399de5"] ;
41 -> 43 ;
44 [label=<gini = 0.0<br/>samples = 60<br/>value = [95, 0]<br/>class = 0>, fillcolor="#e58139"] ;
38 -> 44 ;
45 [label=<Glucose &le; 169.0<br/>gini = 0.326<br/>samples = 77<br/>value = [97, 25]<br/>class = 0>, fillcolor="#eca16c"] ;
37 -> 45 ;
46 [label=<BloodPressure &le; 92.0<br/>gini = 0.232<br/>samples = 70<br/>value = [97, 15]<br/>class = 0>, fillcolor="#e99458"] ;
45 -> 46 ;
47 [label=<BloodPressure &le; 51.0<br/>gini = 0.199<br/>samples = 67<br/>value = [95, 12]<br/>class = 0>, fillcolor="#e89152"] ;
46 -> 47 ;
48 [label=<SkinThickness &le; 46.0<br/>gini = 0.5<br/>samples = 3<br/>value = [2, 2]<br/>class = 0>, fillcolor="#ffffff"] ;
47 -> 48 ;
49 [label=<gini = 0.0<br/>samples = 2<br/>value = [0, 2]<br/>class = 1>, fillcolor="#399de5"] ;
48 -> 49 ;
50 [label=<gini = 0.0<br/>samples = 1<br/>value = [2, 0]<br/>class = 0>, fillcolor="#e58139"] ;
48 -> 50 ;
51 [label=<Insulin &le; 133.5<br/>gini = 0.175<br/>samples = 64<br/>value = [93, 10]<br/>class = 0>, fillcolor="#e88f4e"] ;
47 -> 51 ;
52 [label=<DiabetesPedigreeFunction &le; 0.197<br/>gini = 0.087<br/>samples = 42<br/>value = [63, 3]<br/>class = 0>, fillcolor="#e68742"] ;
51 -> 52 ;
53 [label=<BloodPressure &le; 68.0<br/>gini = 0.245<br/>samples = 7<br/>value = [12, 2]<br/>class = 0>, fillcolor="#e9965a"] ;
52 -> 53 ;
54 [label=<gini = 0.0<br/>samples = 1<br/>value = [0, 1]<br/>class = 1>, fillcolor="#399de5"] ;
53 -> 54 ;
55 [label=<SkinThickness &le; 30.5<br/>gini = 0.142<br/>samples = 6<br/>value = [12, 1]<br/>class = 0>, fillcolor="#e78c49"] ;
53 -> 55 ;
56 [label=<Glucose &le; 98.0<br/>gini = 0.5<br/>samples = 2<br/>value = [1, 1]<br/>class = 0>, fillcolor="#ffffff"] ;
55 -> 56 ;
57 [label=<gini = 0.0<br/>samples = 1<br/>value = [1, 0]<br/>class = 0>, fillcolor="#e58139"] ;
56 -> 57 ;
58 [label=<gini = 0.0<br/>samples = 1<br/>value = [0, 1]<br/>class = 1>, fillcolor="#399de5"] ;
56 -> 58 ;
59 [label=<gini = 0.0<br/>samples = 4<br/>value = [11, 0]<br/>class = 0>, fillcolor="#e58139"] ;
55 -> 59 ;
60 [label=<Insulin &le; 9.0<br/>gini = 0.038<br/>samples = 35<br/>value = [51, 1]<br/>class = 0>, fillcolor="#e6833d"] ;
52 -> 60 ;
61 [label=<Age &le; 21.5<br/>gini = 0.165<br/>samples = 8<br/>value = [10, 1]<br/>class = 0>, fillcolor="#e88e4d"] ;
60 -> 61 ;
62 [label=<gini = 0.0<br/>samples = 1<br/>value = [0, 1]<br/>class = 1>, fillcolor="#399de5"] ;
61 -> 62 ;
63 [label=<gini = 0.0<br/>samples = 7<br/>value = [10, 0]<br/>class = 0>, fillcolor="#e58139"] ;
61 -> 63 ;
64 [label=<gini = 0.0<br/>samples = 27<br/>value = [41, 0]<br/>class = 0>, fillcolor="#e58139"] ;
60 -> 64 ;
65 [label=<BMI &le; 32.6<br/>gini = 0.307<br/>samples = 22<br/>value = [30, 7]<br/>class = 0>, fillcolor="#eb9e67"] ;
51 -> 65 ;
66 [label=<Glucose &le; 151.0<br/>gini = 0.375<br/>samples = 4<br/>value = [2, 6]<br/>class = 1>, fillcolor="#7bbeee"] ;
65 -> 66 ;
67 [label=<gini = 0.0<br/>samples = 3<br/>value = [0, 6]<br/>class = 1>, fillcolor="#399de5"] ;
66 -> 67 ;
68 [label=<gini = 0.0<br/>samples = 1<br/>value = [2, 0]<br/>class = 0>, fillcolor="#e58139"] ;
66 -> 68 ;
69 [label=<Age &le; 21.5<br/>gini = 0.067<br/>samples = 18<br/>value = [28, 1]<br/>class = 0>, fillcolor="#e68640"] ;
65 -> 69 ;
70 [label=<BMI &le; 35.6<br/>gini = 0.278<br/>samples = 3<br/>value = [5, 1]<br/>class = 0>, fillcolor="#ea9a61"] ;
69 -> 70 ;
71 [label=<gini = 0.0<br/>samples = 1<br/>value = [0, 1]<br/>class = 1>, fillcolor="#399de5"] ;
70 -> 71 ;
72 [label=<gini = 0.0<br/>samples = 2<br/>value = [5, 0]<br/>class = 0>, fillcolor="#e58139"] ;
70 -> 72 ;
73 [label=<gini = 0.0<br/>samples = 15<br/>value = [23, 0]<br/>class = 0>, fillcolor="#e58139"] ;
69 -> 73 ;
74 [label=<DiabetesPedigreeFunction &le; 0.619<br/>gini = 0.48<br/>samples = 3<br/>value = [2, 3]<br/>class = 1>, fillcolor="#bddef6"] ;
46 -> 74 ;
75 [label=<gini = 0.0<br/>samples = 2<br/>value = [0, 3]<br/>class = 1>, fillcolor="#399de5"] ;
74 -> 75 ;
76 [label=<gini = 0.0<br/>samples = 1<br/>value = [2, 0]<br/>class = 0>, fillcolor="#e58139"] ;
74 -> 76 ;
77 [label=<gini = 0.0<br/>samples = 7<br/>value = [0, 10]<br/>class = 1>, fillcolor="#399de5"] ;
45 -> 77 ;
78 [label=<Age &le; 62.5<br/>gini = 0.499<br/>samples = 198<br/>value = [170, 153]<br/>class = 0>, fillcolor="#fcf2eb"] ;
0 -> 78 [labeldistance=2.5, labelangle=-45, headlabel="False"] ;
79 [label=<Glucose &le; 157.5<br/>gini = 0.5<br/>samples = 186<br/>value = [153, 149]<br/>class = 0>, fillcolor="#fefcfa"] ;
78 -> 79 ;
80 [label=<Age &le; 40.5<br/>gini = 0.48<br/>samples = 152<br/>value = [147, 98]<br/>class = 0>, fillcolor="#f6d5bd"] ;
79 -> 80 ;
81 [label=<Age &le; 36.5<br/>gini = 0.45<br/>samples = 98<br/>value = [104, 54]<br/>class = 0>, fillcolor="#f2c2a0"] ;
80 -> 81 ;
82 [label=<DiabetesPedigreeFunction &le; 0.798<br/>gini = 0.479<br/>samples = 70<br/>value = [68, 45]<br/>class = 0>, fillcolor="#f6d4bc"] ;
81 -> 82 ;
83 [label=<Age &le; 34.5<br/>gini = 0.449<br/>samples = 60<br/>value = [64, 33]<br/>class = 0>, fillcolor="#f2c29f"] ;
82 -> 83 ;
84 [label=<BMI &le; 41.05<br/>gini = 0.418<br/>samples = 50<br/>value = [59.0, 25.0]<br/>class = 0>, fillcolor="#f0b68d"] ;
83 -> 84 ;
85 [label=<BMI &le; 26.35<br/>gini = 0.369<br/>samples = 45<br/>value = [59, 19]<br/>class = 0>, fillcolor="#edaa79"] ;
84 -> 85 ;
86 [label=<gini = 0.0<br/>samples = 5<br/>value = [13, 0]<br/>class = 0>, fillcolor="#e58139"] ;
85 -> 86 ;
87 [label=<BMI &le; 35.75<br/>gini = 0.414<br/>samples = 40<br/>value = [46, 19]<br/>class = 0>, fillcolor="#f0b58b"] ;
85 -> 87 ;
88 [label=<Glucose &le; 99.5<br/>gini = 0.452<br/>samples = 33<br/>value = [36, 19]<br/>class = 0>, fillcolor="#f3c4a2"] ;
87 -> 88 ;
89 [label=<SkinThickness &le; 9.5<br/>gini = 0.165<br/>samples = 6<br/>value = [10, 1]<br/>class = 0>, fillcolor="#e88e4d"] ;
88 -> 89 ;
90 [label=<DiabetesPedigreeFunction &le; 0.386<br/>gini = 0.444<br/>samples = 2<br/>value = [2, 1]<br/>class = 0>, fillcolor="#f2c09c"] ;
89 -> 90 ;
91 [label=<gini = 0.0<br/>samples = 1<br/>value = [0, 1]<br/>class = 1>, fillcolor="#399de5"] ;
90 -> 91 ;
92 [label=<gini = 0.0<br/>samples = 1<br/>value = [2, 0]<br/>class = 0>, fillcolor="#e58139"] ;
90 -> 92 ;
93 [label=<gini = 0.0<br/>samples = 4<br/>value = [8, 0]<br/>class = 0>, fillcolor="#e58139"] ;
89 -> 93 ;
94 [label=<Glucose &le; 122.5<br/>gini = 0.483<br/>samples = 27<br/>value = [26, 18]<br/>class = 0>, fillcolor="#f7d8c2"] ;
88 -> 94 ;
95 [label=<Insulin &le; 96.0<br/>gini = 0.48<br/>samples = 15<br/>value = [8, 12]<br/>class = 1>, fillcolor="#bddef6"] ;
94 -> 95 ;
96 [label=<DiabetesPedigreeFunction &le; 0.49<br/>gini = 0.49<br/>samples = 11<br/>value = [8, 6]<br/>class = 0>, fillcolor="#f8e0ce"] ;
95 -> 96 ;
97 [label=<Glucose &le; 119.5<br/>gini = 0.469<br/>samples = 6<br/>value = [3, 5]<br/>class = 1>, fillcolor="#b0d8f5"] ;
96 -> 97 ;
98 [label=<Pregnancies &le; 2.5<br/>gini = 0.408<br/>samples = 5<br/>value = [2, 5]<br/>class = 1>, fillcolor="#88c4ef"] ;
97 -> 98 ;
99 [label=<gini = 0.0<br/>samples = 1<br/>value = [2, 0]<br/>class = 0>, fillcolor="#e58139"] ;
98 -> 99 ;
100 [label=<gini = 0.0<br/>samples = 4<br/>value = [0, 5]<br/>class = 1>, fillcolor="#399de5"] ;
98 -> 100 ;
101 [label=<gini = 0.0<br/>samples = 1<br/>value = [1, 0]<br/>class = 0>, fillcolor="#e58139"] ;
97 -> 101 ;
102 [label=<Age &le; 33.0<br/>gini = 0.278<br/>samples = 5<br/>value = [5, 1]<br/>class = 0>, fillcolor="#ea9a61"] ;
96 -> 102 ;
103 [label=<gini = 0.0<br/>samples = 3<br/>value = [4, 0]<br/>class = 0>, fillcolor="#e58139"] ;
102 -> 103 ;
104 [label=<BloodPressure &le; 66.0<br/>gini = 0.5<br/>samples = 2<br/>value = [1, 1]<br/>class = 0>, fillcolor="#ffffff"] ;
102 -> 104 ;
105 [label=<gini = 0.0<br/>samples = 1<br/>value = [0, 1]<br/>class = 1>, fillcolor="#399de5"] ;
104 -> 105 ;
106 [label=<gini = 0.0<br/>samples = 1<br/>value = [1, 0]<br/>class = 0>, fillcolor="#e58139"] ;
104 -> 106 ;
107 [label=<gini = 0.0<br/>samples = 4<br/>value = [0, 6]<br/>class = 1>, fillcolor="#399de5"] ;
95 -> 107 ;
108 [label=<Glucose &le; 129.5<br/>gini = 0.375<br/>samples = 12<br/>value = [18, 6]<br/>class = 0>, fillcolor="#eeab7b"] ;
94 -> 108 ;
109 [label=<Pregnancies &le; 4.0<br/>gini = 0.208<br/>samples = 7<br/>value = [15, 2]<br/>class = 0>, fillcolor="#e89253"] ;
108 -> 109 ;
110 [label=<gini = 0.0<br/>samples = 4<br/>value = [9, 0]<br/>class = 0>, fillcolor="#e58139"] ;
109 -> 110 ;
111 [label=<Age &le; 30.5<br/>gini = 0.375<br/>samples = 3<br/>value = [6, 2]<br/>class = 0>, fillcolor="#eeab7b"] ;
109 -> 111 ;
112 [label=<gini = 0.0<br/>samples = 1<br/>value = [0, 2]<br/>class = 1>, fillcolor="#399de5"] ;
111 -> 112 ;
113 [label=<gini = 0.0<br/>samples = 2<br/>value = [6, 0]<br/>class = 0>, fillcolor="#e58139"] ;
111 -> 113 ;
114 [label=<Pregnancies &le; 5.0<br/>gini = 0.49<br/>samples = 5<br/>value = [3, 4]<br/>class = 1>, fillcolor="#cee6f8"] ;
108 -> 114 ;
115 [label=<Age &le; 31.0<br/>gini = 0.48<br/>samples = 4<br/>value = [3, 2]<br/>class = 0>, fillcolor="#f6d5bd"] ;
114 -> 115 ;
116 [label=<gini = 0.0<br/>samples = 2<br/>value = [3, 0]<br/>class = 0>, fillcolor="#e58139"] ;
115 -> 116 ;
117 [label=<gini = 0.0<br/>samples = 2<br/>value = [0, 2]<br/>class = 1>, fillcolor="#399de5"] ;
115 -> 117 ;
118 [label=<gini = 0.0<br/>samples = 1<br/>value = [0, 2]<br/>class = 1>, fillcolor="#399de5"] ;
114 -> 118 ;
119 [label=<gini = 0.0<br/>samples = 7<br/>value = [10, 0]<br/>class = 0>, fillcolor="#e58139"] ;
87 -> 119 ;
120 [label=<gini = 0.0<br/>samples = 5<br/>value = [0, 6]<br/>class = 1>, fillcolor="#399de5"] ;
84 -> 120 ;
121 [label=<Insulin &le; 80.5<br/>gini = 0.473<br/>samples = 10<br/>value = [5, 8]<br/>class = 1>, fillcolor="#b5daf5"] ;
83 -> 121 ;
122 [label=<Pregnancies &le; 0.5<br/>gini = 0.469<br/>samples = 7<br/>value = [5, 3]<br/>class = 0>, fillcolor="#f5cdb0"] ;
121 -> 122 ;
123 [label=<gini = 0.0<br/>samples = 1<br/>value = [0, 1]<br/>class = 1>, fillcolor="#399de5"] ;
122 -> 123 ;
124 [label=<DiabetesPedigreeFunction &le; 0.667<br/>gini = 0.408<br/>samples = 6<br/>value = [5, 2]<br/>class = 0>, fillcolor="#efb388"] ;
122 -> 124 ;
125 [label=<Pregnancies &le; 8.5<br/>gini = 0.48<br/>samples = 5<br/>value = [3, 2]<br/>class = 0>, fillcolor="#f6d5bd"] ;
124 -> 125 ;
126 [label=<Glucose &le; 89.5<br/>gini = 0.444<br/>samples = 3<br/>value = [1, 2]<br/>class = 1>, fillcolor="#9ccef2"] ;
125 -> 126 ;
127 [label=<gini = 0.0<br/>samples = 1<br/>value = [1, 0]<br/>class = 0>, fillcolor="#e58139"] ;
126 -> 127 ;
128 [label=<gini = 0.0<br/>samples = 2<br/>value = [0, 2]<br/>class = 1>, fillcolor="#399de5"] ;
126 -> 128 ;
129 [label=<gini = 0.0<br/>samples = 2<br/>value = [2, 0]<br/>class = 0>, fillcolor="#e58139"] ;
125 -> 129 ;
130 [label=<gini = 0.0<br/>samples = 1<br/>value = [2, 0]<br/>class = 0>, fillcolor="#e58139"] ;
124 -> 130 ;
131 [label=<gini = 0.0<br/>samples = 3<br/>value = [0, 5]<br/>class = 1>, fillcolor="#399de5"] ;
121 -> 131 ;
132 [label=<BloodPressure &le; 95.0<br/>gini = 0.375<br/>samples = 10<br/>value = [4, 12]<br/>class = 1>, fillcolor="#7bbeee"] ;
82 -> 132 ;
133 [label=<BloodPressure &le; 69.0<br/>gini = 0.26<br/>samples = 8<br/>value = [2, 11]<br/>class = 1>, fillcolor="#5dafea"] ;
132 -> 133 ;
134 [label=<BloodPressure &le; 61.0<br/>gini = 0.48<br/>samples = 4<br/>value = [2, 3]<br/>class = 1>, fillcolor="#bddef6"] ;
133 -> 134 ;
135 [label=<gini = 0.0<br/>samples = 2<br/>value = [0, 3]<br/>class = 1>, fillcolor="#399de5"] ;
134 -> 135 ;
136 [label=<gini = 0.0<br/>samples = 2<br/>value = [2, 0]<br/>class = 0>, fillcolor="#e58139"] ;
134 -> 136 ;
137 [label=<gini = 0.0<br/>samples = 4<br/>value = [0, 8]<br/>class = 1>, fillcolor="#399de5"] ;
133 -> 137 ;
138 [label=<BMI &le; 28.0<br/>gini = 0.444<br/>samples = 2<br/>value = [2, 1]<br/>class = 0>, fillcolor="#f2c09c"] ;
132 -> 138 ;
139 [label=<gini = 0.0<br/>samples = 1<br/>value = [2, 0]<br/>class = 0>, fillcolor="#e58139"] ;
138 -> 139 ;
140 [label=<gini = 0.0<br/>samples = 1<br/>value = [0, 1]<br/>class = 1>, fillcolor="#399de5"] ;
138 -> 140 ;
141 [label=<DiabetesPedigreeFunction &le; 0.55<br/>gini = 0.32<br/>samples = 28<br/>value = [36, 9]<br/>class = 0>, fillcolor="#eca06a"] ;
81 -> 141 ;
142 [label=<DiabetesPedigreeFunction &le; 0.267<br/>gini = 0.188<br/>samples = 23<br/>value = [34, 4]<br/>class = 0>, fillcolor="#e89050"] ;
141 -> 142 ;
143 [label=<BMI &le; 33.95<br/>gini = 0.077<br/>samples = 13<br/>value = [24, 1]<br/>class = 0>, fillcolor="#e68641"] ;
142 -> 143 ;
144 [label=<gini = 0.0<br/>samples = 11<br/>value = [22, 0]<br/>class = 0>, fillcolor="#e58139"] ;
143 -> 144 ;
145 [label=<BMI &le; 35.65<br/>gini = 0.444<br/>samples = 2<br/>value = [2, 1]<br/>class = 0>, fillcolor="#f2c09c"] ;
143 -> 145 ;
146 [label=<gini = 0.0<br/>samples = 1<br/>value = [0, 1]<br/>class = 1>, fillcolor="#399de5"] ;
145 -> 146 ;
147 [label=<gini = 0.0<br/>samples = 1<br/>value = [2, 0]<br/>class = 0>, fillcolor="#e58139"] ;
145 -> 147 ;
148 [label=<Pregnancies &le; 2.0<br/>gini = 0.355<br/>samples = 10<br/>value = [10, 3]<br/>class = 0>, fillcolor="#eda774"] ;
142 -> 148 ;
149 [label=<gini = 0.0<br/>samples = 1<br/>value = [0, 1]<br/>class = 1>, fillcolor="#399de5"] ;
148 -> 149 ;
150 [label=<Insulin &le; 43.5<br/>gini = 0.278<br/>samples = 9<br/>value = [10, 2]<br/>class = 0>, fillcolor="#ea9a61"] ;
148 -> 150 ;
151 [label=<Age &le; 37.5<br/>gini = 0.375<br/>samples = 7<br/>value = [6, 2]<br/>class = 0>, fillcolor="#eeab7b"] ;
150 -> 151 ;
152 [label=<gini = 0.0<br/>samples = 1<br/>value = [0, 1]<br/>class = 1>, fillcolor="#399de5"] ;
151 -> 152 ;
153 [label=<Pregnancies &le; 7.5<br/>gini = 0.245<br/>samples = 6<br/>value = [6, 1]<br/>class = 0>, fillcolor="#e9965a"] ;
151 -> 153 ;
154 [label=<gini = 0.0<br/>samples = 4<br/>value = [5, 0]<br/>class = 0>, fillcolor="#e58139"] ;
153 -> 154 ;
155 [label=<BloodPressure &le; 75.0<br/>gini = 0.5<br/>samples = 2<br/>value = [1, 1]<br/>class = 0>, fillcolor="#ffffff"] ;
153 -> 155 ;
156 [label=<gini = 0.0<br/>samples = 1<br/>value = [0, 1]<br/>class = 1>, fillcolor="#399de5"] ;
155 -> 156 ;
157 [label=<gini = 0.0<br/>samples = 1<br/>value = [1, 0]<br/>class = 0>, fillcolor="#e58139"] ;
155 -> 157 ;
158 [label=<gini = 0.0<br/>samples = 2<br/>value = [4, 0]<br/>class = 0>, fillcolor="#e58139"] ;
150 -> 158 ;
159 [label=<DiabetesPedigreeFunction &le; 1.155<br/>gini = 0.408<br/>samples = 5<br/>value = [2, 5]<br/>class = 1>, fillcolor="#88c4ef"] ;
141 -> 159 ;
160 [label=<BMI &le; 39.05<br/>gini = 0.278<br/>samples = 4<br/>value = [1, 5]<br/>class = 1>, fillcolor="#61b1ea"] ;
159 -> 160 ;
161 [label=<gini = 0.0<br/>samples = 2<br/>value = [0, 4]<br/>class = 1>, fillcolor="#399de5"] ;
160 -> 161 ;
162 [label=<SkinThickness &le; 18.5<br/>gini = 0.5<br/>samples = 2<br/>value = [1, 1]<br/>class = 0>, fillcolor="#ffffff"] ;
160 -> 162 ;
163 [label=<gini = 0.0<br/>samples = 1<br/>value = [1, 0]<br/>class = 0>, fillcolor="#e58139"] ;
162 -> 163 ;
164 [label=<gini = 0.0<br/>samples = 1<br/>value = [0, 1]<br/>class = 1>, fillcolor="#399de5"] ;
162 -> 164 ;
165 [label=<gini = 0.0<br/>samples = 1<br/>value = [1, 0]<br/>class = 0>, fillcolor="#e58139"] ;
159 -> 165 ;
166 [label=<BMI &le; 27.85<br/>gini = 0.5<br/>samples = 54<br/>value = [43.0, 44.0]<br/>class = 1>, fillcolor="#fafdfe"] ;
80 -> 166 ;
167 [label=<BMI &le; 26.6<br/>gini = 0.165<br/>samples = 13<br/>value = [20, 2]<br/>class = 0>, fillcolor="#e88e4d"] ;
166 -> 167 ;
168 [label=<gini = 0.0<br/>samples = 8<br/>value = [13, 0]<br/>class = 0>, fillcolor="#e58139"] ;
167 -> 168 ;
169 [label=<BMI &le; 27.05<br/>gini = 0.346<br/>samples = 5<br/>value = [7, 2]<br/>class = 0>, fillcolor="#eca572"] ;
167 -> 169 ;
170 [label=<gini = 0.0<br/>samples = 1<br/>value = [0, 1]<br/>class = 1>, fillcolor="#399de5"] ;
169 -> 170 ;
171 [label=<Pregnancies &le; 7.0<br/>gini = 0.219<br/>samples = 4<br/>value = [7, 1]<br/>class = 0>, fillcolor="#e99355"] ;
169 -> 171 ;
172 [label=<gini = 0.0<br/>samples = 1<br/>value = [0, 1]<br/>class = 1>, fillcolor="#399de5"] ;
171 -> 172 ;
173 [label=<gini = 0.0<br/>samples = 3<br/>value = [7, 0]<br/>class = 0>, fillcolor="#e58139"] ;
171 -> 173 ;
174 [label=<Glucose &le; 111.5<br/>gini = 0.457<br/>samples = 41<br/>value = [23, 42]<br/>class = 1>, fillcolor="#a5d3f3"] ;
166 -> 174 ;
175 [label=<Insulin &le; 27.0<br/>gini = 0.494<br/>samples = 16<br/>value = [15, 12]<br/>class = 0>, fillcolor="#fae6d7"] ;
174 -> 175 ;
176 [label=<BloodPressure &le; 87.5<br/>gini = 0.488<br/>samples = 11<br/>value = [8, 11]<br/>class = 1>, fillcolor="#c9e4f8"] ;
175 -> 176 ;
177 [label=<DiabetesPedigreeFunction &le; 0.664<br/>gini = 0.391<br/>samples = 8<br/>value = [4, 11]<br/>class = 1>, fillcolor="#81c1ee"] ;
176 -> 177 ;
178 [label=<Glucose &le; 74.5<br/>gini = 0.49<br/>samples = 4<br/>value = [4, 3]<br/>class = 0>, fillcolor="#f8e0ce"] ;
177 -> 178 ;
179 [label=<gini = 0.0<br/>samples = 1<br/>value = [3, 0]<br/>class = 0>, fillcolor="#e58139"] ;
178 -> 179 ;
180 [label=<BMI &le; 37.45<br/>gini = 0.375<br/>samples = 3<br/>value = [1, 3]<br/>class = 1>, fillcolor="#7bbeee"] ;
178 -> 180 ;
181 [label=<Age &le; 48.0<br/>gini = 0.5<br/>samples = 2<br/>value = [1, 1]<br/>class = 0>, fillcolor="#ffffff"] ;
180 -> 181 ;
182 [label=<gini = 0.0<br/>samples = 1<br/>value = [0, 1]<br/>class = 1>, fillcolor="#399de5"] ;
181 -> 182 ;
183 [label=<gini = 0.0<br/>samples = 1<br/>value = [1, 0]<br/>class = 0>, fillcolor="#e58139"] ;
181 -> 183 ;
184 [label=<gini = 0.0<br/>samples = 1<br/>value = [0, 2]<br/>class = 1>, fillcolor="#399de5"] ;
180 -> 184 ;
185 [label=<gini = 0.0<br/>samples = 4<br/>value = [0, 8]<br/>class = 1>, fillcolor="#399de5"] ;
177 -> 185 ;
186 [label=<gini = 0.0<br/>samples = 3<br/>value = [4, 0]<br/>class = 0>, fillcolor="#e58139"] ;
176 -> 186 ;
187 [label=<BMI &le; 38.3<br/>gini = 0.219<br/>samples = 5<br/>value = [7, 1]<br/>class = 0>, fillcolor="#e99355"] ;
175 -> 187 ;
188 [label=<gini = 0.0<br/>samples = 4<br/>value = [7, 0]<br/>class = 0>, fillcolor="#e58139"] ;
187 -> 188 ;
189 [label=<gini = 0.0<br/>samples = 1<br/>value = [0, 1]<br/>class = 1>, fillcolor="#399de5"] ;
187 -> 189 ;
190 [label=<BloodPressure &le; 100.0<br/>gini = 0.332<br/>samples = 25<br/>value = [8, 30]<br/>class = 1>, fillcolor="#6eb7ec"] ;
174 -> 190 ;
191 [label=<BloodPressure &le; 61.0<br/>gini = 0.245<br/>samples = 24<br/>value = [5, 30]<br/>class = 1>, fillcolor="#5aade9"] ;
190 -> 191 ;
192 [label=<SkinThickness &le; 15.0<br/>gini = 0.444<br/>samples = 3<br/>value = [2, 1]<br/>class = 0>, fillcolor="#f2c09c"] ;
191 -> 192 ;
193 [label=<gini = 0.0<br/>samples = 1<br/>value = [1, 0]<br/>class = 0>, fillcolor="#e58139"] ;
192 -> 193 ;
194 [label=<Insulin &le; 95.0<br/>gini = 0.5<br/>samples = 2<br/>value = [1, 1]<br/>class = 0>, fillcolor="#ffffff"] ;
192 -> 194 ;
195 [label=<gini = 0.0<br/>samples = 1<br/>value = [0, 1]<br/>class = 1>, fillcolor="#399de5"] ;
194 -> 195 ;
196 [label=<gini = 0.0<br/>samples = 1<br/>value = [1, 0]<br/>class = 0>, fillcolor="#e58139"] ;
194 -> 196 ;
197 [label=<DiabetesPedigreeFunction &le; 0.214<br/>gini = 0.17<br/>samples = 21<br/>value = [3, 29]<br/>class = 1>, fillcolor="#4da7e8"] ;
191 -> 197 ;
198 [label=<Age &le; 48.5<br/>gini = 0.48<br/>samples = 4<br/>value = [2, 3]<br/>class = 1>, fillcolor="#bddef6"] ;
197 -> 198 ;
199 [label=<DiabetesPedigreeFunction &le; 0.159<br/>gini = 0.444<br/>samples = 2<br/>value = [2, 1]<br/>class = 0>, fillcolor="#f2c09c"] ;
198 -> 199 ;
200 [label=<gini = 0.0<br/>samples = 1<br/>value = [0, 1]<br/>class = 1>, fillcolor="#399de5"] ;
199 -> 200 ;
201 [label=<gini = 0.0<br/>samples = 1<br/>value = [2, 0]<br/>class = 0>, fillcolor="#e58139"] ;
199 -> 201 ;
202 [label=<gini = 0.0<br/>samples = 2<br/>value = [0, 2]<br/>class = 1>, fillcolor="#399de5"] ;
198 -> 202 ;
203 [label=<BloodPressure &le; 85.0<br/>gini = 0.071<br/>samples = 17<br/>value = [1, 26]<br/>class = 1>, fillcolor="#41a1e6"] ;
197 -> 203 ;
204 [label=<gini = 0.0<br/>samples = 14<br/>value = [0, 24]<br/>class = 1>, fillcolor="#399de5"] ;
203 -> 204 ;
205 [label=<BMI &le; 35.95<br/>gini = 0.444<br/>samples = 3<br/>value = [1, 2]<br/>class = 1>, fillcolor="#9ccef2"] ;
203 -> 205 ;
206 [label=<gini = 0.0<br/>samples = 2<br/>value = [0, 2]<br/>class = 1>, fillcolor="#399de5"] ;
205 -> 206 ;
207 [label=<gini = 0.0<br/>samples = 1<br/>value = [1, 0]<br/>class = 0>, fillcolor="#e58139"] ;
205 -> 207 ;
208 [label=<gini = 0.0<br/>samples = 1<br/>value = [3, 0]<br/>class = 0>, fillcolor="#e58139"] ;
190 -> 208 ;
209 [label=<Pregnancies &le; 9.0<br/>gini = 0.188<br/>samples = 34<br/>value = [6, 51]<br/>class = 1>, fillcolor="#50a9e8"] ;
79 -> 209 ;
210 [label=<Insulin &le; 568.0<br/>gini = 0.074<br/>samples = 31<br/>value = [2, 50]<br/>class = 1>, fillcolor="#41a1e6"] ;
209 -> 210 ;
211 [label=<Age &le; 46.0<br/>gini = 0.04<br/>samples = 29<br/>value = [1.0, 48.0]<br/>class = 1>, fillcolor="#3d9fe6"] ;
210 -> 211 ;
212 [label=<gini = 0.0<br/>samples = 21<br/>value = [0, 35]<br/>class = 1>, fillcolor="#399de5"] ;
211 -> 212 ;
213 [label=<DiabetesPedigreeFunction &le; 0.618<br/>gini = 0.133<br/>samples = 8<br/>value = [1, 13]<br/>class = 1>, fillcolor="#48a5e7"] ;
211 -> 213 ;
214 [label=<gini = 0.0<br/>samples = 6<br/>value = [0, 11]<br/>class = 1>, fillcolor="#399de5"] ;
213 -> 214 ;
215 [label=<BloodPressure &le; 78.0<br/>gini = 0.444<br/>samples = 2<br/>value = [1, 2]<br/>class = 1>, fillcolor="#9ccef2"] ;
213 -> 215 ;
216 [label=<gini = 0.0<br/>samples = 1<br/>value = [1, 0]<br/>class = 0>, fillcolor="#e58139"] ;
215 -> 216 ;
217 [label=<gini = 0.0<br/>samples = 1<br/>value = [0, 2]<br/>class = 1>, fillcolor="#399de5"] ;
215 -> 217 ;
218 [label=<BloodPressure &le; 65.0<br/>gini = 0.444<br/>samples = 2<br/>value = [1, 2]<br/>class = 1>, fillcolor="#9ccef2"] ;
210 -> 218 ;
219 [label=<gini = 0.0<br/>samples = 1<br/>value = [0, 2]<br/>class = 1>, fillcolor="#399de5"] ;
218 -> 219 ;
220 [label=<gini = 0.0<br/>samples = 1<br/>value = [1, 0]<br/>class = 0>, fillcolor="#e58139"] ;
218 -> 220 ;
221 [label=<Age &le; 37.5<br/>gini = 0.32<br/>samples = 3<br/>value = [4, 1]<br/>class = 0>, fillcolor="#eca06a"] ;
209 -> 221 ;
222 [label=<gini = 0.0<br/>samples = 1<br/>value = [2, 0]<br/>class = 0>, fillcolor="#e58139"] ;
221 -> 222 ;
223 [label=<SkinThickness &le; 15.0<br/>gini = 0.444<br/>samples = 2<br/>value = [2, 1]<br/>class = 0>, fillcolor="#f2c09c"] ;
221 -> 223 ;
224 [label=<gini = 0.0<br/>samples = 1<br/>value = [2, 0]<br/>class = 0>, fillcolor="#e58139"] ;
223 -> 224 ;
225 [label=<gini = 0.0<br/>samples = 1<br/>value = [0, 1]<br/>class = 1>, fillcolor="#399de5"] ;
223 -> 225 ;
226 [label=<Age &le; 69.5<br/>gini = 0.308<br/>samples = 12<br/>value = [17, 4]<br/>class = 0>, fillcolor="#eb9f68"] ;
78 -> 226 ;
227 [label=<BloodPressure &le; 90.0<br/>gini = 0.105<br/>samples = 11<br/>value = [17, 1]<br/>class = 0>, fillcolor="#e78845"] ;
226 -> 227 ;
228 [label=<gini = 0.0<br/>samples = 10<br/>value = [17, 0]<br/>class = 0>, fillcolor="#e58139"] ;
227 -> 228 ;
229 [label=<gini = 0.0<br/>samples = 1<br/>value = [0, 1]<br/>class = 1>, fillcolor="#399de5"] ;
227 -> 229 ;
230 [label=<gini = 0.0<br/>samples = 1<br/>value = [0, 3]<br/>class = 1>, fillcolor="#399de5"] ;
226 -> 230 ;
}