digraph Tree {
node [shape=box, style="filled, rounded", color="black", fontname="helvetica"] ;
edge [fontname="helvetica"] ;
0 [label=<Glucose &le; 154.5<br/>gini = 0.444<br/>samples = 391<br/>value = [410, 204]<br/>class = 0>, fillcolor="#f2c09c"] ;
1 [label=<BMI &le; 26.95<br/>gini = 0.376<br/>samples = 325<br/>value = [394, 132]<br/>class = 0>, fillcolor="#eeab7b"] ;
0 -> 1 [labeldistance=2.5, labelangle=45, headlabel="True"] ;
2 [label=<BloodPressure &le; 93.0<br/>gini = 0.079<br/>samples = 84<br/>value = [140, 6]<br/>class = 0>, fillcolor="#e68641"] ;
1 -> 2 ;
3 [label=<Glucose &le; 138.0<br/>gini = 0.055<br/>samples = 81<br/>value = [137, 4]<br/>class = 0>, fillcolor="#e6853f"] ;
2 -> 3 ;
4 [label=<SkinThickness &le; 28.5<br/>gini = 0.015<br/>samples = 76<br/>value = [128, 1]<br/>class = 0>, fillcolor="#e5823b"] ;
3 -> 4 ;
5 [label=<gini = 0.0<br/>samples = 69<br/>value = [120, 0]<br/>class = 0>, fillcolor="#e58139"] ;
4 -> 5 ;
6 [label=<Pregnancies &le; 4.5<br/>gini = 0.198<br/>samples = 7<br/>value = [8, 1]<br/>class = 0>, fillcolor="#e89152"] ;
4 -> 6 ;
7 [label=<BMI &le; 25.7<br/>gini = 0.375<br/>samples = 4<br/>value = [3, 1]<br/>class = 0>, fillcolor="#eeab7b"] ;
6 -> 7 ;
8 [label=<gini = 0.0<br/>samples = 2<br/>value = [2, 0]<br/>class = 0>, fillcolor="#e58139"] ;
7 -> 8 ;
9 [label=<Pregnancies &le; 2.0<br/>gini = 0.5<br/>samples = 2<br/>value = [1, 1]<br/>class = 0>, fillcolor="#ffffff"] ;
7 -> 9 ;
10 [label=<gini = 0.0<br/>samples = 1<br/>value = [1, 0]<br/>class = 0>, fillcolor="#e58139"] ;
9 -> 10 ;
11 [label=<gini = 0.0<br/>samples = 1<br/>value = [0, 1]<br/>class = 1>, fillcolor="#399de5"] ;
9 -> 11 ;
12 [label=<gini = 0.0<br/>samples = 3<br/>value = [5, 0]<br/>class = 0>, fillcolor="#e58139"] ;
6 -> 12 ;
13 [label=<SkinThickness &le; 9.0<br/>gini = 0.375<br/>samples = 5<br/>value = [9, 3]<br/>class = 0>, fillcolor="#eeab7b"] ;
3 -> 13 ;
14 [label=<gini = 0.0<br/>samples = 1<br/>value = [0, 3]<br/>class = 1>, fillcolor="#399de5"] ;
13 -> 14 ;
15 [label=<gini = 0.0<br/>samples = 4<br/>value = [9, 0]<br/>class = 0>, fillcolor="#e58139"] ;
13 -> 15 ;
16 [label=<BMI &le; 11.2<br/>gini = 0.48<br/>samples = 3<br/>value = [3, 2]<br/>class = 0>, fillcolor="#f6d5bd"] ;
2 -> 16 ;
17 [label=<gini = 0.0<br/>samples = 1<br/>value = [0, 2]<br/>class = 1>, fillcolor="#399de5"] ;
16 -> 17 ;
18 [label=<gini = 0.0<br/>samples = 2<br/>value = [3, 0]<br/>class = 0>, fillcolor="#e58139"] ;
16 -> 18 ;
19 [label=<BloodPressure &le; 89.0<br/>gini = 0.443<br/>samples = 241<br/>value = [254.0, 126.0]<br/>class = 0>, fillcolor="#f2c09b"] ;
1 -> 19 ;
20 [label=<Glucose &le; 101.5<br/>gini = 0.428<br/>samples = 224<br/>value = [245.0, 110.0]<br/>class = 0>, fillcolor="#f1ba92"] ;
19 -> 20 ;
21 [label=<Glucose &le; 30.5<br/>gini = 0.174<br/>samples = 68<br/>value = [94, 10]<br/>class = 0>, fillcolor="#e88e4e"] ;
20 -> 21 ;
22 [label=<Insulin &le; 11.5<br/>gini = 0.49<br/>samples = 4<br/>value = [3, 4]<br/>class = 1>, fillcolor="#cee6f8"] ;
21 -> 22 ;
23 [label=<BMI &le; 35.5<br/>gini = 0.32<br/>samples = 3<br/>value = [1, 4]<br/>class = 1>, fillcolor="#6ab6ec"] ;
22 -> 23 ;
24 [label=<gini = 0.0<br/>samples = 1<br/>value = [1, 0]<br/>class = 0>, fillcolor="#e58139"] ;
23 -> 24 ;
25 [label=<gini = 0.0<br/>samples = 2<br/>value = [0, 4]<br/>class = 1>, fillcolor="#399de5"] ;
23 -> 25 ;
26 [label=<gini = 0.0<br/>samples = 1<br/>value = [2, 0]<br/>class = 0>, fillcolor="#e58139"] ;
22 -> 26 ;
27 [label=<Age &le; 30.5<br/>gini = 0.116<br/>samples = 64<br/>value = [91, 6]<br/>class = 0>, fillcolor="#e78946"] ;
21 -> 27 ;
28 [label=<SkinThickness &le; 31.5<br/>gini = 0.031<br/>samples = 43<br/>value = [62, 1]<br/>class = 0>, fillcolor="#e5833c"] ;
27 -> 28 ;
29 [label=<gini = 0.0<br/>samples = 30<br/>value = [45, 0]<br/>class = 0>, fillcolor="#e58139"] ;
28 -> 29 ;
30 [label=<BloodPressure &le; 65.0<br/>gini = 0.105<br/>samples = 13<br/>value = [17, 1]<br/>class = 0>, fillcolor="#e78845"] ;
28 -> 30 ;
31 [label=<Glucose &le; 90.0<br/>gini = 0.444<br/>samples = 3<br/>value = [2, 1]<br/>class = 0>, fillcolor="#f2c09c"] ;
30 -> 31 ;
32 [label=<gini = 0.0<br/>samples = 1<br/>value = [1, 0]<br/>class = 0>, fillcolor="#e58139"] ;
31 -> 32 ;
33 [label=<BMI &le; 36.7<br/>gini = 0.5<br/>samples = 2<br/>value = [1, 1]<br/>class = 0>, fillcolor="#ffffff"] ;
31 -> 33 ;
34 [label=<gini = 0.0<br/>samples = 1<br/>value = [1, 0]<br/>class = 0>, fillcolor="#e58139"] ;
33 -> 34 ;
35 [label=<gini = 0.0<br/>samples = 1<br/>value = [0, 1]<br/>class = 1>, fillcolor="#399de5"] ;
33 -> 35 ;
36 [label=<gini = 0.0<br/>samples = 10<br/>value = [15, 0]<br/>class = 0>, fillcolor="#e58139"] ;
30 -> 36 ;
37 [label=<Age &le; 32.5<br/>gini = 0.251<br/>samples = 21<br/>value = [29, 5]<br/>class = 0>, fillcolor="#e9975b"] ;
27 -> 37 ;
38 [label=<Age &le; 31.5<br/>gini = 0.49<br/>samples = 5<br/>value = [3, 4]<br/>class = 1>, fillcolor="#cee6f8"] ;
37 -> 38 ;
39 [label=<Glucose &le; 93.0<br/>gini = 0.48<br/>samples = 3<br/>value = [3, 2]<br/>class = 0>, fillcolor="#f6d5bd"] ;
38 -> 39 ;
40 [label=<gini = 0.0<br/>samples = 2<br/>value = [3, 0]<br/>class = 0>, fillcolor="#e58139"] ;
39 -> 40 ;
41 [label=<gini = 0.0<br/>samples = 1<br/>value = [0, 2]<br/>class = 1>, fillcolor="#399de5"] ;
39 -> 41 ;
42 [label=<gini = 0.0<br/>samples = 2<br/>value = [0, 2]<br/>class = 1>, fillcolor="#399de5"] ;
38 -> 42 ;
43 [label=<DiabetesPedigreeFunction &le; 0.631<br/>gini = 0.071<br/>samples = 16<br/>value = [26, 1]<br/>class = 0>, fillcolor="#e68641"] ;
37 -> 43 ;
44 [label=<gini = 0.0<br/>samples = 14<br/>value = [25, 0]<br/>class = 0>, fillcolor="#e58139"] ;
43 -> 44 ;
45 [label=<SkinThickness &le; 32.5<br/>gini = 0.5<br/>samples = 2<br/>value = [1, 1]<br/>class = 0>, fillcolor="#ffffff"] ;
43 -> 45 ;
46 [label=<gini = 0.0<br/>samples = 1<br/>value = [1, 0]<br/>class = 0>, fillcolor="#e58139"] ;
45 -> 46 ;
47 [label=<gini = 0.0<br/>samples = 1<br/>value = [0, 1]<br/>class = 1>, fillcolor="#399de5"] ;
45 -> 47 ;
48 [label=<Age &le; 28.5<br/>gini = 0.479<br/>samples = 156<br/>value = [151, 100]<br/>class = 0>, fillcolor="#f6d4bc"] ;
20 -> 48 ;
49 [label=<DiabetesPedigreeFunction &le; 0.904<br/>gini = 0.342<br/>samples = 75<br/>value = [93, 26]<br/>class = 0>, fillcolor="#eca470"] ;
48 -> 49 ;
50 [label=<BloodPressure &le; 22.0<br/>gini = 0.286<br/>samples = 70<br/>value = [91, 19]<br/>class = 0>, fillcolor="#ea9b62"] ;
49 -> 50 ;
51 [label=<gini = 0.0<br/>samples = 1<br/>value = [0, 2]<br/>class = 1>, fillcolor="#399de5"] ;
50 -> 51 ;
52 [label=<Glucose &le; 127.5<br/>gini = 0.265<br/>samples = 69<br/>value = [91, 17]<br/>class = 0>, fillcolor="#ea995e"] ;
50 -> 52 ;
53 [label=<Insulin &le; 75.5<br/>gini = 0.144<br/>samples = 51<br/>value = [71, 6]<br/>class = 0>, fillcolor="#e78c4a"] ;
52 -> 53 ;
54 [label=<DiabetesPedigreeFunction &le; 0.468<br/>gini = 0.365<br/>samples = 20<br/>value = [19, 6]<br/>class = 0>, fillcolor="#eda978"] ;
53 -> 54 ;
55 [label=<Insulin &le; 26.5<br/>gini = 0.208<br/>samples = 14<br/>value = [15, 2]<br/>class = 0>, fillcolor="#e89253"] ;
54 -> 55 ;
56 [label=<BloodPressure &le; 55.0<br/>gini = 0.278<br/>samples = 10<br/>value = [10, 2]<br/>class = 0>, fillcolor="#ea9a61"] ;
55 -> 56 ;
57 [label=<gini = 0.0<br/>samples = 1<br/>value = [0, 1]<br/>class = 1>, fillcolor="#399de5"] ;
56 -> 57 ;
58 [label=<Age &le; 23.5<br/>gini = 0.165<br/>samples = 9<br/>value = [10, 1]<br/>class = 0>, fillcolor="#e88e4d"] ;
56 -> 58 ;
59 [label=<DiabetesPedigreeFunction &le; 0.269<br/>gini = 0.278<br/>samples = 4<br/>value = [5, 1]<br/>class = 0>, fillcolor="#ea9a61"] ;
58 -> 59 ;
60 [label=<gini = 0.0<br/>samples = 3<br/>value = [5, 0]<br/>class = 0>, fillcolor="#e58139"] ;
59 -> 60 ;
61 [label=<gini = 0.0<br/>samples = 1<br/>value = [0, 1]<br/>class = 1>, fillcolor="#399de5"] ;
59 -> 61 ;
62 [label=<gini = 0.0<br/>samples = 5<br/>value = [5, 0]<br/>class = 0>, fillcolor="#e58139"] ;
58 -> 62 ;
63 [label=<gini = 0.0<br/>samples = 4<br/>value = [5, 0]<br/>class = 0>, fillcolor="#e58139"] ;
55 -> 63 ;
64 [label=<Glucose &le; 106.0<br/>gini = 0.5<br/>samples = 6<br/>value = [4, 4]<br/>class = 0>, fillcolor="#ffffff"] ;
54 -> 64 ;
65 [label=<gini = 0.0<br/>samples = 1<br/>value = [2, 0]<br/>class = 0>, fillcolor="#e58139"] ;
64 -> 65 ;
66 [label=<DiabetesPedigreeFunction &le; 0.831<br/>gini = 0.444<br/>samples = 5<br/>value = [2, 4]<br/>class = 1>, fillcolor="#9ccef2"] ;
64 -> 66 ;
67 [label=<gini = 0.0<br/>samples = 4<br/>value = [0, 4]<br/>class = 1>, fillcolor="#399de5"] ;
66 -> 67 ;
68 [label=<gini = 0.0<br/>samples = 1<br/>value = [2, 0]<br/>class = 0>, fillcolor="#e58139"] ;
66 -> 68 ;
69 [label=<gini = 0.0<br/>samples = 31<br/>value = [52, 0]<br/>class = 0>, fillcolor="#e58139"] ;
53 -> 69 ;
70 [label=<Insulin &le; 199.5<br/>gini = 0.458<br/>samples = 18<br/>value = [20, 11]<br/>class = 0>, fillcolor="#f3c6a6"] ;
52 -> 70 ;
71 [label=<BloodPressure &le; 73.5<br/>gini = 0.493<br/>samples = 14<br/>value = [14.0, 11.0]<br/>class = 0>, fillcolor="#f9e4d5"] ;
70 -> 71 ;
72 [label=<Age &le; 25.5<br/>gini = 0.459<br/>samples = 7<br/>value = [5, 9]<br/>class = 1>, fillcolor="#a7d3f3"] ;
71 -> 72 ;
73 [label=<DiabetesPedigreeFunction &le; 0.226<br/>gini = 0.494<br/>samples = 5<br/>value = [5, 4]<br/>class = 0>, fillcolor="#fae6d7"] ;
72 -> 73 ;
74 [label=<gini = 0.0<br/>samples = 1<br/>value = [0, 3]<br/>class = 1>, fillcolor="#399de5"] ;
73 -> 74 ;
75 [label=<SkinThickness &le; 35.0<br/>gini = 0.278<br/>samples = 4<br/>value = [5, 1]<br/>class = 0>, fillcolor="#ea9a61"] ;
73 -> 75 ;
76 [label=<gini = 0.0<br/>samples = 3<br/>value = [5, 0]<br/>class = 0>, fillcolor="#e58139"] ;
75 -> 76 ;
77 [label=<gini = 0.0<br/>samples = 1<br/>value = [0, 1]<br/>class = 1>, fillcolor="#399de5"] ;
75 -> 77 ;
78 [label=<gini = 0.0<br/>samples = 2<br/>value = [0, 5]<br/>class = 1>, fillcolor="#399de5"] ;
72 -> 78 ;
79 [label=<BMI &le; 42.05<br/>gini = 0.298<br/>samples = 7<br/>value = [9, 2]<br/>class = 0>, fillcolor="#eb9d65"] ;
71 -> 79 ;
80 [label=<gini = 0.0<br/>samples = 5<br/>value = [7, 0]<br/>class = 0>, fillcolor="#e58139"] ;
79 -> 80 ;
81 [label=<BloodPressure &le; 82.0<br/>gini = 0.5<br/>samples = 2<br/>value = [2, 2]<br/>class = 0>, fillcolor="#ffffff"] ;
79 -> 81 ;
82 [label=<gini = 0.0<br/>samples = 1<br/>value = [2, 0]<br/>class = 0>, fillcolor="#e58139"] ;
81 -> 82 ;
83 [label=<gini = 0.0<br/>samples = 1<br/>value = [0, 2]<br/>class = 1>, fillcolor="#399de5"] ;
81 -> 83 ;
84 [label=<gini = 0.0<br/>samples = 4<br/>value = [6, 0]<br/>class = 0>, fillcolor="#e58139"] ;
70 -> 84 ;
85 [label=<BloodPressure &le; 77.0<br/>gini = 0.346<br/>samples = 5<br/>value = [2, 7]<br/>class = 1>, fillcolor="#72b9ec"] ;
49 -> 85 ;
86 [label=<gini = 0.0<br/>samples = 4<br/>value = [0, 7]<br/>class = 1>, fillcolor="#399de5"] ;
85 -> 86 ;
87 [label=<gini = 0.0<br/>samples = 1<br/>value = [2, 0]<br/>class = 0>, fillcolor="#e58139"] ;
85 -> 87 ;
88 [label=<BloodPressure &le; 84.5<br/>gini = 0.493<br/>samples = 81<br/>value = [58, 74]<br/>class = 1>, fillcolor="#d4eaf9"] ;
48 -> 88 ;
89 [label=<BMI &le; 43.75<br/>gini = 0.463<br/>samples = 69<br/>value = [40, 70]<br/>class = 1>, fillcolor="#aad5f4"] ;
88 -> 89 ;
90 [label=<BloodPressure &le; 35.0<br/>gini = 0.477<br/>samples = 65<br/>value = [40.0, 62.0]<br/>class = 1>, fillcolor="#b9dcf6"] ;
89 -> 90 ;
91 [label=<gini = 0.0<br/>samples = 2<br/>value = [5, 0]<br/>class = 0>, fillcolor="#e58139"] ;
90 -> 91 ;
92 [label=<Glucose &le; 138.5<br/>gini = 0.461<br/>samples = 63<br/>value = [35.0, 62.0]<br/>class = 1>, fillcolor="#a9d4f4"] ;
90 -> 92 ;
93 [label=<BMI &le; 40.7<br/>gini = 0.417<br/>samples = 52<br/>value = [24, 57]<br/>class = 1>, fillcolor="#8cc6f0"] ;
92 -> 93 ;
94 [label=<Insulin &le; 195.5<br/>gini = 0.429<br/>samples = 49<br/>value = [24, 53]<br/>class = 1>, fillcolor="#93c9f1"] ;
93 -> 94 ;
95 [label=<Glucose &le; 103.5<br/>gini = 0.401<br/>samples = 46<br/>value = [20, 52]<br/>class = 1>, fillcolor="#85c3ef"] ;
94 -> 95 ;
96 [label=<gini = 0.0<br/>samples = 3<br/>value = [0, 6]<br/>class = 1>, fillcolor="#399de5"] ;
95 -> 96 ;
97 [label=<BMI &le; 39.1<br/>gini = 0.422<br/>samples = 43<br/>value = [20, 46]<br/>class = 1>, fillcolor="#8fc8f0"] ;
95 -> 97 ;
98 [label=<Pregnancies &le; 3.5<br/>gini = 0.394<br/>samples = 41<br/>value = [17, 46]<br/>class = 1>, fillcolor="#82c1ef"] ;
97 -> 98 ;
99 [label=<Insulin &le; 39.5<br/>gini = 0.245<br/>samples = 12<br/>value = [3, 18]<br/>class = 1>, fillcolor="#5aade9"] ;
98 -> 99 ;
100 [label=<Age &le; 34.0<br/>gini = 0.397<br/>samples = 7<br/>value = [3, 8]<br/>class = 1>, fillcolor="#83c2ef"] ;
99 -> 100 ;
101 [label=<gini = 0.0<br/>samples = 2<br/>value = [3, 0]<br/>class = 0>, fillcolor="#e58139"] ;
100 -> 101 ;
102 [label=<gini = 0.0<br/>samples = 5<br/>value = [0, 8]<br/>class = 1>, fillcolor="#399de5"] ;
100 -> 102 ;
103 [label=<gini = 0.0<br/>samples = 5<br/>value = [0, 10]<br/>class = 1>, fillcolor="#399de5"] ;
99 -> 103 ;
104 [label=<SkinThickness &le; 26.5<br/>gini = 0.444<br/>samples = 29<br/>value = [14, 28]<br/>class = 1>, fillcolor="#9ccef2"] ;
98 -> 104 ;
105 [label=<BloodPressure &le; 78.0<br/>gini = 0.346<br/>samples = 18<br/>value = [6, 21]<br/>class = 1>, fillcolor="#72b9ec"] ;
104 -> 105 ;
106 [label=<Pregnancies &le; 12.0<br/>gini = 0.227<br/>samples = 15<br/>value = [3, 20]<br/>class = 1>, fillcolor="#57ace9"] ;
105 -> 106 ;
107 [label=<BMI &le; 27.05<br/>gini = 0.165<br/>samples = 14<br/>value = [2, 20]<br/>class = 1>, fillcolor="#4da7e8"] ;
106 -> 107 ;
108 [label=<gini = 0.0<br/>samples = 1<br/>value = [1, 0]<br/>class = 0>, fillcolor="#e58139"] ;
107 -> 108 ;
109 [label=<Age &le; 54.0<br/>gini = 0.091<br/>samples = 13<br/>value = [1, 20]<br/>class = 1>, fillcolor="#43a2e6"] ;
107 -> 109 ;
110 [label=<gini = 0.0<br/>samples = 12<br/>value = [0, 20]<br/>class = 1>, fillcolor="#399de5"] ;
109 -> 110 ;
111 [label=<gini = 0.0<br/>samples = 1<br/>value = [1, 0]<br/>class = 0>, fillcolor="#e58139"] ;
109 -> 111 ;
112 [label=<gini = 0.0<br/>samples = 1<br/>value = [1, 0]<br/>class = 0>, fillcolor="#e58139"] ;
106 -> 112 ;
113 [label=<DiabetesPedigreeFunction &le; 0.862<br/>gini = 0.375<br/>samples = 3<br/>value = [3, 1]<br/>class = 0>, fillcolor="#eeab7b"] ;
105 -> 113 ;
114 [label=<gini = 0.0<br/>samples = 2<br/>value = [3, 0]<br/>class = 0>, fillcolor="#e58139"] ;
113 -> 114 ;
115 [label=<gini = 0.0<br/>samples = 1<br/>value = [0, 1]<br/>class = 1>, fillcolor="#399de5"] ;
113 -> 115 ;
116 [label=<BMI &le; 36.6<br/>gini = 0.498<br/>samples = 11<br/>value = [8, 7]<br/>class = 0>, fillcolor="#fcefe6"] ;
104 -> 116 ;
117 [label=<Insulin &le; 11.0<br/>gini = 0.397<br/>samples = 9<br/>value = [8, 3]<br/>class = 0>, fillcolor="#efb083"] ;
116 -> 117 ;
118 [label=<Glucose &le; 119.0<br/>gini = 0.375<br/>samples = 4<br/>value = [1, 3]<br/>class = 1>, fillcolor="#7bbeee"] ;
117 -> 118 ;
119 [label=<gini = 0.0<br/>samples = 2<br/>value = [0, 2]<br/>class = 1>, fillcolor="#399de5"] ;
118 -> 119 ;
120 [label=<Glucose &le; 123.5<br/>gini = 0.5<br/>samples = 2<br/>value = [1, 1]<br/>class = 0>, fillcolor="#ffffff"] ;
118 -> 120 ;
121 [label=<gini = 0.0<br/>samples = 1<br/>value = [1, 0]<br/>class = 0>, fillcolor="#e58139"] ;
120 -> 121 ;
122 [label=<gini = 0.0<br/>samples = 1<br/>value = [0, 1]<br/>class = 1>, fillcolor="#399de5"] ;
120 -> 122 ;
123 [label=<gini = 0.0<br/>samples = 5<br/>value = [7, 0]<br/>class = 0>, fillcolor="#e58139"] ;
117 -> 123 ;
124 [label=<gini = 0.0<br/>samples = 2<br/>value = [0, 4]<br/>class = 1>, fillcolor="#399de5"] ;
116 -> 124 ;
125 [label=<gini = 0.0<br/>samples = 2<br/>value = [3, 0]<br/>class = 0>, fillcolor="#e58139"] ;
97 -> 125 ;
126 [label=<Pregnancies &le; 6.0<br/>gini = 0.32<br/>samples = 3<br/>value = [4, 1]<br/>class = 0>, fillcolor="#eca06a"] ;
94 -> 126 ;
127 [label=<gini = 0.0<br/>samples = 2<br/>value = [4, 0]<br/>class = 0>, fillcolor="#e58139"] ;
126 -> 127 ;
128 [label=<gini = 0.0<br/>samples = 1<br/>value = [0, 1]<br/>class = 1>, fillcolor="#399de5"] ;
126 -> 128 ;
129 [label=<gini = 0.0<br/>samples = 3<br/>value = [0, 4]<br/>class = 1>, fillcolor="#399de5"] ;
93 -> 129 ;
130 [label=<Age &le; 41.5<br/>gini = 0.43<br/>samples = 11<br/>value = [11, 5]<br/>class = 0>, fillcolor="#f1ba93"] ;
92 -> 130 ;
131 [label=<Age &le; 38.0<br/>gini = 0.219<br/>samples = 5<br/>value = [7, 1]<br/>class = 0>, fillcolor="#e99355"] ;
130 -> 131 ;
132 [label=<SkinThickness &le; 30.0<br/>gini = 0.444<br/>samples = 2<br/>value = [2, 1]<br/>class = 0>, fillcolor="#f2c09c"] ;
131 -> 132 ;
133 [label=<gini = 0.0<br/>samples = 1<br/>value = [2, 0]<br/>class = 0>, fillcolor="#e58139"] ;
132 -> 133 ;
134 [label=<gini = 0.0<br/>samples = 1<br/>value = [0, 1]<br/>class = 1>, fillcolor="#399de5"] ;
132 -> 134 ;
135 [label=<gini = 0.0<br/>samples = 3<br/>value = [5, 0]<br/>class = 0>, fillcolor="#e58139"] ;
131 -> 135 ;
136 [label=<Age &le; 44.0<br/>gini = 0.5<br/>samples = 6<br/>value = [4, 4]<br/>class = 0>, fillcolor="#ffffff"] ;
130 -> 136 ;
137 [label=<gini = 0.0<br/>samples = 1<br/>value = [0, 2]<br/>class = 1>, fillcolor="#399de5"] ;
136 -> 137 ;
138 [label=<Pregnancies &le; 7.0<br/>gini = 0.444<br/>samples = 5<br/>value = [4, 2]<br/>class = 0>, fillcolor="#f2c09c"] ;
136 -> 138 ;
139 [label=<Pregnancies &le; 3.5<br/>gini = 0.444<br/>samples = 3<br/>value = [1, 2]<br/>class = 1>, fillcolor="#9ccef2"] ;
138 -> 139 ;
140 [label=<gini = 0.0<br/>samples = 1<br/>value = [1, 0]<br/>class = 0>, fillcolor="#e58139"] ;
139 -> 140 ;
141 [label=<gini = 0.0<br/>samples = 2<br/>value = [0, 2]<br/>class = 1>, fillcolor="#399de5"] ;
139 -> 141 ;
142 [label=<gini = 0.0<br/>samples = 2<br/>value = [3, 0]<br/>class = 0>, fillcolor="#e58139"] ;
138 -> 142 ;
143 [label=<gini = 0.0<br/>samples = 4<br/>value = [0, 8]<br/>class = 1>, fillcolor="#399de5"] ;
89 -> 143 ;
144 [label=<DiabetesPedigreeFunction &le; 0.735<br/>gini = 0.298<br/>samples = 12<br/>value = [18, 4]<br/>class = 0>, fillcolor="#eb9d65"] ;
88 -> 144 ;
145 [label=<DiabetesPedigreeFunction &le; 0.376<br/>gini = 0.117<br/>samples = 9<br/>value = [15, 1]<br/>class = 0>, fillcolor="#e78946"] ;
144 -> 145 ;
146 [label=<gini = 0.0<br/>samples = 6<br/>value = [11, 0]<br/>class = 0>, fillcolor="#e58139"] ;
145 -> 146 ;
147 [label=<Pregnancies &le; 2.5<br/>gini = 0.32<br/>samples = 3<br/>value = [4, 1]<br/>class = 0>, fillcolor="#eca06a"] ;
145 -> 147 ;
148 [label=<gini = 0.0<br/>samples = 1<br/>value = [0, 1]<br/>class = 1>, fillcolor="#399de5"] ;
147 -> 148 ;
149 [label=<gini = 0.0<br/>samples = 2<br/>value = [4, 0]<br/>class = 0>, fillcolor="#e58139"] ;
147 -> 149 ;
150 [label=<Age &le; 35.5<br/>gini = 0.5<br/>samples = 3<br/>value = [3, 3]<br/>class = 0>, fillcolor="#ffffff"] ;
144 -> 150 ;
151 [label=<gini = 0.0<br/>samples = 2<br/>value = [0, 3]<br/>class = 1>, fillcolor="#399de5"] ;
150 -> 151 ;
152 [label=<gini = 0.0<br/>samples = 1<br/>value = [3, 0]<br/>class = 0>, fillcolor="#e58139"] ;
150 -> 152 ;
153 [label=<SkinThickness &le; 18.0<br/>gini = 0.461<br/>samples = 17<br/>value = [9, 16]<br/>class = 1>, fillcolor="#a8d4f4"] ;
19 -> 153 ;
154 [label=<BloodPressure &le; 97.0<br/>gini = 0.219<br/>samples = 6<br/>value = [7, 1]<br/>class = 0>, fillcolor="#e99355"] ;
153 -> 154 ;
155 [label=<gini = 0.0<br/>samples = 4<br/>value = [5, 0]<br/>class = 0>, fillcolor="#e58139"] ;
154 -> 155 ;
156 [label=<Glucose &le; 121.0<br/>gini = 0.444<br/>samples = 2<br/>value = [2, 1]<br/>class = 0>, fillcolor="#f2c09c"] ;
154 -> 156 ;
157 [label=<gini = 0.0<br/>samples = 1<br/>value = [0, 1]<br/>class = 1>, fillcolor="#399de5"] ;
156 -> 157 ;
158 [label=<gini = 0.0<br/>samples = 1<br/>value = [2, 0]<br/>class = 0>, fillcolor="#e58139"] ;
156 -> 158 ;
159 [label=<BMI &le; 30.05<br/>gini = 0.208<br/>samples = 11<br/>value = [2, 15]<br/>class = 1>, fillcolor="#53aae8"] ;
153 -> 159 ;
160 [label=<gini = 0.0<br/>samples = 1<br/>value = [1, 0]<br/>class = 0>, fillcolor="#e58139"] ;
159 -> 160 ;
161 [label=<DiabetesPedigreeFunction &le; 0.625<br/>gini = 0.117<br/>samples = 10<br/>value = [1, 15]<br/>class = 1>, fillcolor="#46a4e7"] ;
159 -> 161 ;
162 [label=<gini = 0.0<br/>samples = 7<br/>value = [0, 12]<br/>class = 1>, fillcolor="#399de5"] ;
161 -> 162 ;
163 [label=<BMI &le; 46.85<br/>gini = 0.375<br/>samples = 3<br/>value = [1, 3]<br/>class = 1>, fillcolor="#7bbeee"] ;
161 -> 163 ;
164 [label=<gini = 0.0<br/>samples = 2<br/>value = [0, 3]<br/>class = 1>, fillcolor="#399de5"] ;
163 -> 164 ;
165 [label=<gini = 0.0<br/>samples = 1<br/>value = [1, 0]<br/>class = 0>, fillcolor="#e58139"] ;
163 -> 165 ;
166 [label=<SkinThickness &le; 16.0<br/>gini = 0.298<br/>samples = 66<br/>value = [16, 72]<br/>class = 1>, fillcolor="#65b3eb"] ;
0 -> 166 [labeldistance=2.5, labelangle=-45, headlabel="False"] ;
167 [label=<BloodPressure &le; 69.0<br/>gini = 0.437<br/>samples = 24<br/>value = [10, 21]<br/>class = 1>, fillcolor="#97ccf1"] ;
166 -> 167 ;
168 [label=<Glucose &le; 161.5<br/>gini = 0.375<br/>samples = 6<br/>value = [6, 2]<br/>class = 0>, fillcolor="#eeab7b"] ;
167 -> 168 ;
169 [label=<gini = 0.0<br/>samples = 3<br/>value = [4, 0]<br/>class = 0>, fillcolor="#e58139"] ;
168 -> 169 ;
170 [label=<Insulin &le; 65.0<br/>gini = 0.5<br/>samples = 3<br/>value = [2, 2]<br/>class = 0>, fillcolor="#ffffff"] ;
168 -> 170 ;
171 [label=<gini = 0.0<br/>samples = 2<br/>value = [0, 2]<br/>class = 1>, fillcolor="#399de5"] ;
170 -> 171 ;
172 [label=<gini = 0.0<br/>samples = 1<br/>value = [2, 0]<br/>class = 0>, fillcolor="#e58139"] ;
170 -> 172 ;
173 [label=<Glucose &le; 161.5<br/>gini = 0.287<br/>samples = 18<br/>value = [4, 19]<br/>class = 1>, fillcolor="#63b2ea"] ;
167 -> 173 ;
174 [label=<gini = 0.0<br/>samples = 4<br/>value = [0, 5]<br/>class = 1>, fillcolor="#399de5"] ;
173 -> 174 ;
175 [label=<BMI &le; 28.7<br/>gini = 0.346<br/>samples = 14<br/>value = [4, 14]<br/>class = 1>, fillcolor="#72b9ec"] ;
173 -> 175 ;
176 [label=<gini = 0.0<br/>samples = 1<br/>value = [2, 0]<br/>class = 0>, fillcolor="#e58139"] ;
175 -> 176 ;
177 [label=<Glucose &le; 176.0<br/>gini = 0.219<br/>samples = 13<br/>value = [2, 14]<br/>class = 1>, fillcolor="#55abe9"] ;
175 -> 177 ;
178 [label=<gini = 0.0<br/>samples = 6<br/>value = [0, 8]<br/>class = 1>, fillcolor="#399de5"] ;
177 -> 178 ;
179 [label=<BloodPressure &le; 72.0<br/>gini = 0.375<br/>samples = 7<br/>value = [2, 6]<br/>class = 1>, fillcolor="#7bbeee"] ;
177 -> 179 ;
180 [label=<gini = 0.0<br/>samples = 1<br/>value = [1, 0]<br/>class = 0>, fillcolor="#e58139"] ;
179 -> 180 ;
181 [label=<DiabetesPedigreeFunction &le; 1.337<br/>gini = 0.245<br/>samples = 6<br/>value = [1, 6]<br/>class = 1>, fillcolor="#5aade9"] ;
179 -> 181 ;
182 [label=<gini = 0.0<br/>samples = 5<br/>value = [0, 6]<br/>class = 1>, fillcolor="#399de5"] ;
181 -> 182 ;
183 [label=<gini = 0.0<br/>samples = 1<br/>value = [1, 0]<br/>class = 0>, fillcolor="#e58139"] ;
181 -> 183 ;
184 [label=<BMI &le; 46.2<br/>gini = 0.188<br/>samples = 42<br/>value = [6, 51]<br/>class = 1>, fillcolor="#50a9e8"] ;
166 -> 184 ;
185 [label=<DiabetesPedigreeFunction &le; 0.146<br/>gini = 0.137<br/>samples = 39<br/>value = [4, 50]<br/>class = 1>, fillcolor="#49a5e7"] ;
184 -> 185 ;
186 [label=<gini = 0.0<br/>samples = 2<br/>value = [2, 0]<br/>class = 0>, fillcolor="#e58139"] ;
185 -> 186 ;
187 [label=<Glucose &le; 166.0<br/>gini = 0.074<br/>samples = 37<br/>value = [2, 50]<br/>class = 1>, fillcolor="#41a1e6"] ;
185 -> 187 ;
188 [label=<Age &le; 48.0<br/>gini = 0.208<br/>samples = 11<br/>value = [2, 15]<br/>class = 1>, fillcolor="#53aae8"] ;
187 -> 188 ;
189 [label=<SkinThickness &le; 42.5<br/>gini = 0.117<br/>samples = 10<br/>value = [1, 15]<br/>class = 1>, fillcolor="#46a4e7"] ;
188 -> 189 ;
190 [label=<gini = 0.0<br/>samples = 9<br/>value = [0, 15]<br/>class = 1>, fillcolor="#399de5"] ;
189 -> 190 ;
191 [label=<gini = 0.0<br/>samples = 1<br/>value = [1, 0]<br/>class = 0>, fillcolor="#e58139"] ;
189 -> 191 ;
192 [label=<gini = 0.0<br/>samples = 1<br/>value = [1, 0]<br/>class = 0>, fillcolor="#e58139"] ;
188 -> 192 ;
193 [label=<gini = 0.0<br/>samples = 26<br/>value = [0, 35]<br/>class = 1>, fillcolor="#399de5"] ;
187 -> 193 ;
194 [label=<Glucose &le; 172.5<br/>gini = 0.444<br/>samples = 3<br/>value = [2, 1]<br/>class = 0>, fillcolor="#f2c09c"] ;
184 -> 194 ;
195 [label=<gini = 0.0<br/>samples = 2<br/>value = [2, 0]<br/>class = 0>, fillcolor="#e58139"] ;
194 -> 195 ;
196 [label=<gini = 0.0<br/>samples = 1<br/>value = [0, 1]<br/>class = 1>, fillcolor="#399de5"] ;
194 -> 196 ;
}