digraph Tree {
node [shape=box, style="filled, rounded", color="black", fontname="helvetica"] ;
edge [fontname="helvetica"] ;
0 [label=<BMI &le; 26.7<br/>gini = 0.449<br/>samples = 398<br/>value = [405, 209]<br/>class = 0>, fillcolor="#f2c29f"] ;
1 [label=<Glucose &le; 152.5<br/>gini = 0.163<br/>samples = 96<br/>value = [132, 13]<br/>class = 0>, fillcolor="#e88d4c"] ;
0 -> 1 [labeldistance=2.5, labelangle=45, headlabel="True"] ;
2 [label=<Age &le; 50.0<br/>gini = 0.061<br/>samples = 86<br/>value = [123, 4]<br/>class = 0>, fillcolor="#e6853f"] ;
1 -> 2 ;
3 [label=<Glucose &le; 136.5<br/>gini = 0.033<br/>samples = 79<br/>value = [116, 2]<br/>class = 0>, fillcolor="#e5833c"] ;
2 -> 3 ;
4 [label=<Pregnancies &le; 2.5<br/>gini = 0.018<br/>samples = 75<br/>value = [110, 1]<br/>class = 0>, fillcolor="#e5823b"] ;
3 -> 4 ;
5 [label=<gini = 0.0<br/>samples = 49<br/>value = [74, 0]<br/>class = 0>, fillcolor="#e58139"] ;
4 -> 5 ;
6 [label=<DiabetesPedigreeFunction &le; 0.572<br/>gini = 0.053<br/>samples = 26<br/>value = [36, 1]<br/>class = 0>, fillcolor="#e6843e"] ;
4 -> 6 ;
7 [label=<gini = 0.0<br/>samples = 23<br/>value = [32, 0]<br/>class = 0>, fillcolor="#e58139"] ;
6 -> 7 ;
8 [label=<DiabetesPedigreeFunction &le; 0.822<br/>gini = 0.32<br/>samples = 3<br/>value = [4, 1]<br/>class = 0>, fillcolor="#eca06a"] ;
6 -> 8 ;
9 [label=<gini = 0.0<br/>samples = 1<br/>value = [0, 1]<br/>class = 1>, fillcolor="#399de5"] ;
8 -> 9 ;
10 [label=<gini = 0.0<br/>samples = 2<br/>value = [4, 0]<br/>class = 0>, fillcolor="#e58139"] ;
8 -> 10 ;
11 [label=<Glucose &le; 139.5<br/>gini = 0.245<br/>samples = 4<br/>value = [6, 1]<br/>class = 0>, fillcolor="#e9965a"] ;
3 -> 11 ;
12 [label=<gini = 0.0<br/>samples = 1<br/>value = [0, 1]<br/>class = 1>, fillcolor="#399de5"] ;
11 -> 12 ;
13 [label=<gini = 0.0<br/>samples = 3<br/>value = [6, 0]<br/>class = 0>, fillcolor="#e58139"] ;
11 -> 13 ;
14 [label=<Pregnancies &le; 8.5<br/>gini = 0.346<br/>samples = 7<br/>value = [7, 2]<br/>class = 0>, fillcolor="#eca572"] ;
2 -> 14 ;
15 [label=<DiabetesPedigreeFunction &le; 0.343<br/>gini = 0.444<br/>samples = 5<br/>value = [4, 2]<br/>class = 0>, fillcolor="#f2c09c"] ;
14 -> 15 ;
16 [label=<gini = 0.0<br/>samples = 2<br/>value = [0, 2]<br/>class = 1>, fillcolor="#399de5"] ;
15 -> 16 ;
17 [label=<gini = 0.0<br/>samples = 3<br/>value = [4, 0]<br/>class = 0>, fillcolor="#e58139"] ;
15 -> 17 ;
18 [label=<gini = 0.0<br/>samples = 2<br/>value = [3, 0]<br/>class = 0>, fillcolor="#e58139"] ;
14 -> 18 ;
19 [label=<BMI &le; 25.55<br/>gini = 0.5<br/>samples = 10<br/>value = [9, 9]<br/>class = 0>, fillcolor="#ffffff"] ;
1 -> 19 ;
20 [label=<gini = 0.0<br/>samples = 4<br/>value = [0, 6]<br/>class = 1>, fillcolor="#399de5"] ;
19 -> 20 ;
21 [label=<Insulin &le; 132.0<br/>gini = 0.375<br/>samples = 6<br/>value = [9, 3]<br/>class = 0>, fillcolor="#eeab7b"] ;
19 -> 21 ;
22 [label=<Glucose &le; 195.5<br/>gini = 0.469<br/>samples = 4<br/>value = [5, 3]<br/>class = 0>, fillcolor="#f5cdb0"] ;
21 -> 22 ;
23 [label=<Pregnancies &le; 4.0<br/>gini = 0.278<br/>samples = 3<br/>value = [5, 1]<br/>class = 0>, fillcolor="#ea9a61"] ;
22 -> 23 ;
24 [label=<gini = 0.0<br/>samples = 1<br/>value = [0, 1]<br/>class = 1>, fillcolor="#399de5"] ;
23 -> 24 ;
25 [label=<gini = 0.0<br/>samples = 2<br/>value = [5, 0]<br/>class = 0>, fillcolor="#e58139"] ;
23 -> 25 ;
26 [label=<gini = 0.0<br/>samples = 1<br/>value = [0, 2]<br/>class = 1>, fillcolor="#399de5"] ;
22 -> 26 ;
27 [label=<gini = 0.0<br/>samples = 2<br/>value = [4, 0]<br/>class = 0>, fillcolor="#e58139"] ;
21 -> 27 ;
28 [label=<Glucose &le; 154.5<br/>gini = 0.487<br/>samples = 302<br/>value = [273, 196]<br/>class = 0>, fillcolor="#f8dbc7"] ;
0 -> 28 [labeldistance=2.5, labelangle=-45, headlabel="False"] ;
29 [label=<Age &le; 28.5<br/>gini = 0.446<br/>samples = 251<br/>value = [259, 131]<br/>class = 0>, fillcolor="#f2c19d"] ;
28 -> 29 ;
30 [label=<Age &le; 22.5<br/>gini = 0.307<br/>samples = 125<br/>value = [158, 37]<br/>class = 0>, fillcolor="#eb9f67"] ;
29 -> 30 ;
31 [label=<SkinThickness &le; 8.5<br/>gini = 0.144<br/>samples = 41<br/>value = [59, 5]<br/>class = 0>, fillcolor="#e78c4a"] ;
30 -> 31 ;
32 [label=<gini = 0.0<br/>samples = 2<br/>value = [0, 2]<br/>class = 1>, fillcolor="#399de5"] ;
31 -> 32 ;
33 [label=<BMI &le; 33.4<br/>gini = 0.092<br/>samples = 39<br/>value = [59, 3]<br/>class = 0>, fillcolor="#e68743"] ;
31 -> 33 ;
34 [label=<gini = 0.0<br/>samples = 23<br/>value = [40, 0]<br/>class = 0>, fillcolor="#e58139"] ;
33 -> 34 ;
35 [label=<Insulin &le; 9.0<br/>gini = 0.236<br/>samples = 16<br/>value = [19, 3]<br/>class = 0>, fillcolor="#e99558"] ;
33 -> 35 ;
36 [label=<gini = 0.0<br/>samples = 2<br/>value = [0, 2]<br/>class = 1>, fillcolor="#399de5"] ;
35 -> 36 ;
37 [label=<Glucose &le; 132.5<br/>gini = 0.095<br/>samples = 14<br/>value = [19, 1]<br/>class = 0>, fillcolor="#e68843"] ;
35 -> 37 ;
38 [label=<gini = 0.0<br/>samples = 12<br/>value = [18, 0]<br/>class = 0>, fillcolor="#e58139"] ;
37 -> 38 ;
39 [label=<DiabetesPedigreeFunction &le; 0.805<br/>gini = 0.5<br/>samples = 2<br/>value = [1, 1]<br/>class = 0>, fillcolor="#ffffff"] ;
37 -> 39 ;
40 [label=<gini = 0.0<br/>samples = 1<br/>value = [0, 1]<br/>class = 1>, fillcolor="#399de5"] ;
39 -> 40 ;
41 [label=<gini = 0.0<br/>samples = 1<br/>value = [1, 0]<br/>class = 0>, fillcolor="#e58139"] ;
39 -> 41 ;
42 [label=<Glucose &le; 127.5<br/>gini = 0.369<br/>samples = 84<br/>value = [99, 32]<br/>class = 0>, fillcolor="#edaa79"] ;
30 -> 42 ;
43 [label=<BMI &le; 49.1<br/>gini = 0.233<br/>samples = 59<br/>value = [77, 12]<br/>class = 0>, fillcolor="#e99558"] ;
42 -> 43 ;
44 [label=<Age &le; 23.5<br/>gini = 0.171<br/>samples = 57<br/>value = [77, 8]<br/>class = 0>, fillcolor="#e88e4e"] ;
43 -> 44 ;
45 [label=<BMI &le; 37.15<br/>gini = 0.444<br/>samples = 9<br/>value = [10, 5]<br/>class = 0>, fillcolor="#f2c09c"] ;
44 -> 45 ;
46 [label=<Insulin &le; 22.0<br/>gini = 0.298<br/>samples = 7<br/>value = [9, 2]<br/>class = 0>, fillcolor="#eb9d65"] ;
45 -> 46 ;
47 [label=<Glucose &le; 112.0<br/>gini = 0.5<br/>samples = 3<br/>value = [2, 2]<br/>class = 0>, fillcolor="#ffffff"] ;
46 -> 47 ;
48 [label=<gini = 0.0<br/>samples = 2<br/>value = [2, 0]<br/>class = 0>, fillcolor="#e58139"] ;
47 -> 48 ;
49 [label=<gini = 0.0<br/>samples = 1<br/>value = [0, 2]<br/>class = 1>, fillcolor="#399de5"] ;
47 -> 49 ;
50 [label=<gini = 0.0<br/>samples = 4<br/>value = [7, 0]<br/>class = 0>, fillcolor="#e58139"] ;
46 -> 50 ;
51 [label=<Insulin &le; 104.0<br/>gini = 0.375<br/>samples = 2<br/>value = [1, 3]<br/>class = 1>, fillcolor="#7bbeee"] ;
45 -> 51 ;
52 [label=<gini = 0.0<br/>samples = 1<br/>value = [1, 0]<br/>class = 0>, fillcolor="#e58139"] ;
51 -> 52 ;
53 [label=<gini = 0.0<br/>samples = 1<br/>value = [0, 3]<br/>class = 1>, fillcolor="#399de5"] ;
51 -> 53 ;
54 [label=<Glucose &le; 111.5<br/>gini = 0.082<br/>samples = 48<br/>value = [67, 3]<br/>class = 0>, fillcolor="#e68742"] ;
44 -> 54 ;
55 [label=<gini = 0.0<br/>samples = 29<br/>value = [40, 0]<br/>class = 0>, fillcolor="#e58139"] ;
54 -> 55 ;
56 [label=<Glucose &le; 124.5<br/>gini = 0.18<br/>samples = 19<br/>value = [27, 3]<br/>class = 0>, fillcolor="#e88f4f"] ;
54 -> 56 ;
57 [label=<Age &le; 25.5<br/>gini = 0.147<br/>samples = 16<br/>value = [23, 2]<br/>class = 0>, fillcolor="#e78c4a"] ;
56 -> 57 ;
58 [label=<Pregnancies &le; 0.5<br/>gini = 0.278<br/>samples = 7<br/>value = [10, 2]<br/>class = 0>, fillcolor="#ea9a61"] ;
57 -> 58 ;
59 [label=<gini = 0.0<br/>samples = 1<br/>value = [0, 1]<br/>class = 1>, fillcolor="#399de5"] ;
58 -> 59 ;
60 [label=<Pregnancies &le; 2.5<br/>gini = 0.165<br/>samples = 6<br/>value = [10, 1]<br/>class = 0>, fillcolor="#e88e4d"] ;
58 -> 60 ;
61 [label=<gini = 0.0<br/>samples = 5<br/>value = [10, 0]<br/>class = 0>, fillcolor="#e58139"] ;
60 -> 61 ;
62 [label=<gini = 0.0<br/>samples = 1<br/>value = [0, 1]<br/>class = 1>, fillcolor="#399de5"] ;
60 -> 62 ;
63 [label=<gini = 0.0<br/>samples = 9<br/>value = [13, 0]<br/>class = 0>, fillcolor="#e58139"] ;
57 -> 63 ;
64 [label=<Age &le; 26.0<br/>gini = 0.32<br/>samples = 3<br/>value = [4, 1]<br/>class = 0>, fillcolor="#eca06a"] ;
56 -> 64 ;
65 [label=<gini = 0.0<br/>samples = 2<br/>value = [4, 0]<br/>class = 0>, fillcolor="#e58139"] ;
64 -> 65 ;
66 [label=<gini = 0.0<br/>samples = 1<br/>value = [0, 1]<br/>class = 1>, fillcolor="#399de5"] ;
64 -> 66 ;
67 [label=<gini = 0.0<br/>samples = 2<br/>value = [0, 4]<br/>class = 1>, fillcolor="#399de5"] ;
43 -> 67 ;
68 [label=<Insulin &le; 197.5<br/>gini = 0.499<br/>samples = 25<br/>value = [22, 20]<br/>class = 0>, fillcolor="#fdf4ed"] ;
42 -> 68 ;
69 [label=<BloodPressure &le; 60.0<br/>gini = 0.469<br/>samples = 19<br/>value = [12, 20]<br/>class = 1>, fillcolor="#b0d8f5"] ;
68 -> 69 ;
70 [label=<gini = 0.0<br/>samples = 5<br/>value = [0, 11]<br/>class = 1>, fillcolor="#399de5"] ;
69 -> 70 ;
71 [label=<BMI &le; 47.7<br/>gini = 0.49<br/>samples = 14<br/>value = [12, 9]<br/>class = 0>, fillcolor="#f8e0ce"] ;
69 -> 71 ;
72 [label=<Insulin &le; 150.0<br/>gini = 0.444<br/>samples = 12<br/>value = [12, 6]<br/>class = 0>, fillcolor="#f2c09c"] ;
71 -> 72 ;
73 [label=<BloodPressure &le; 72.5<br/>gini = 0.165<br/>samples = 8<br/>value = [10, 1]<br/>class = 0>, fillcolor="#e88e4d"] ;
72 -> 73 ;
74 [label=<BMI &le; 36.7<br/>gini = 0.32<br/>samples = 4<br/>value = [4, 1]<br/>class = 0>, fillcolor="#eca06a"] ;
73 -> 74 ;
75 [label=<gini = 0.0<br/>samples = 2<br/>value = [3, 0]<br/>class = 0>, fillcolor="#e58139"] ;
74 -> 75 ;
76 [label=<BMI &le; 38.95<br/>gini = 0.5<br/>samples = 2<br/>value = [1, 1]<br/>class = 0>, fillcolor="#ffffff"] ;
74 -> 76 ;
77 [label=<gini = 0.0<br/>samples = 1<br/>value = [0, 1]<br/>class = 1>, fillcolor="#399de5"] ;
76 -> 77 ;
78 [label=<gini = 0.0<br/>samples = 1<br/>value = [1, 0]<br/>class = 0>, fillcolor="#e58139"] ;
76 -> 78 ;
79 [label=<gini = 0.0<br/>samples = 4<br/>value = [6, 0]<br/>class = 0>, fillcolor="#e58139"] ;
73 -> 79 ;
80 [label=<Age &le; 27.5<br/>gini = 0.408<br/>samples = 4<br/>value = [2, 5]<br/>class = 1>, fillcolor="#88c4ef"] ;
72 -> 80 ;
81 [label=<gini = 0.0<br/>samples = 3<br/>value = [0, 5]<br/>class = 1>, fillcolor="#399de5"] ;
80 -> 81 ;
82 [label=<gini = 0.0<br/>samples = 1<br/>value = [2, 0]<br/>class = 0>, fillcolor="#e58139"] ;
80 -> 82 ;
83 [label=<gini = 0.0<br/>samples = 2<br/>value = [0, 3]<br/>class = 1>, fillcolor="#399de5"] ;
71 -> 83 ;
84 [label=<gini = 0.0<br/>samples = 6<br/>value = [10, 0]<br/>class = 0>, fillcolor="#e58139"] ;
68 -> 84 ;
85 [label=<DiabetesPedigreeFunction &le; 0.293<br/>gini = 0.499<br/>samples = 126<br/>value = [101.0, 94.0]<br/>class = 0>, fillcolor="#fdf6f1"] ;
29 -> 85 ;
86 [label=<Age &le; 32.0<br/>gini = 0.444<br/>samples = 53<br/>value = [54, 27]<br/>class = 0>, fillcolor="#f2c09c"] ;
85 -> 86 ;
87 [label=<Pregnancies &le; 0.5<br/>gini = 0.375<br/>samples = 5<br/>value = [2, 6]<br/>class = 1>, fillcolor="#7bbeee"] ;
86 -> 87 ;
88 [label=<gini = 0.0<br/>samples = 1<br/>value = [0, 3]<br/>class = 1>, fillcolor="#399de5"] ;
87 -> 88 ;
89 [label=<BMI &le; 28.7<br/>gini = 0.48<br/>samples = 4<br/>value = [2, 3]<br/>class = 1>, fillcolor="#bddef6"] ;
87 -> 89 ;
90 [label=<gini = 0.0<br/>samples = 1<br/>value = [1, 0]<br/>class = 0>, fillcolor="#e58139"] ;
89 -> 90 ;
91 [label=<Pregnancies &le; 2.5<br/>gini = 0.375<br/>samples = 3<br/>value = [1, 3]<br/>class = 1>, fillcolor="#7bbeee"] ;
89 -> 91 ;
92 [label=<gini = 0.0<br/>samples = 1<br/>value = [1, 0]<br/>class = 0>, fillcolor="#e58139"] ;
91 -> 92 ;
93 [label=<gini = 0.0<br/>samples = 2<br/>value = [0, 3]<br/>class = 1>, fillcolor="#399de5"] ;
91 -> 93 ;
94 [label=<Glucose &le; 130.5<br/>gini = 0.41<br/>samples = 48<br/>value = [52, 21]<br/>class = 0>, fillcolor="#f0b489"] ;
86 -> 94 ;
95 [label=<Insulin &le; 145.5<br/>gini = 0.316<br/>samples = 33<br/>value = [45, 11]<br/>class = 0>, fillcolor="#eba069"] ;
94 -> 95 ;
96 [label=<SkinThickness &le; 34.0<br/>gini = 0.265<br/>samples = 29<br/>value = [43, 8]<br/>class = 0>, fillcolor="#ea985e"] ;
95 -> 96 ;
97 [label=<BloodPressure &le; 75.0<br/>gini = 0.188<br/>samples = 22<br/>value = [34, 4]<br/>class = 0>, fillcolor="#e89050"] ;
96 -> 97 ;
98 [label=<Pregnancies &le; 5.5<br/>gini = 0.375<br/>samples = 6<br/>value = [6, 2]<br/>class = 0>, fillcolor="#eeab7b"] ;
97 -> 98 ;
99 [label=<Age &le; 38.5<br/>gini = 0.5<br/>samples = 3<br/>value = [2, 2]<br/>class = 0>, fillcolor="#ffffff"] ;
98 -> 99 ;
100 [label=<gini = 0.0<br/>samples = 2<br/>value = [0, 2]<br/>class = 1>, fillcolor="#399de5"] ;
99 -> 100 ;
101 [label=<gini = 0.0<br/>samples = 1<br/>value = [2, 0]<br/>class = 0>, fillcolor="#e58139"] ;
99 -> 101 ;
102 [label=<gini = 0.0<br/>samples = 3<br/>value = [4, 0]<br/>class = 0>, fillcolor="#e58139"] ;
98 -> 102 ;
103 [label=<Glucose &le; 109.0<br/>gini = 0.124<br/>samples = 16<br/>value = [28, 2]<br/>class = 0>, fillcolor="#e78a47"] ;
97 -> 103 ;
104 [label=<Age &le; 36.5<br/>gini = 0.231<br/>samples = 10<br/>value = [13, 2]<br/>class = 0>, fillcolor="#e99457"] ;
103 -> 104 ;
105 [label=<gini = 0.0<br/>samples = 1<br/>value = [0, 1]<br/>class = 1>, fillcolor="#399de5"] ;
104 -> 105 ;
106 [label=<BMI &le; 27.3<br/>gini = 0.133<br/>samples = 9<br/>value = [13, 1]<br/>class = 0>, fillcolor="#e78b48"] ;
104 -> 106 ;
107 [label=<gini = 0.0<br/>samples = 1<br/>value = [0, 1]<br/>class = 1>, fillcolor="#399de5"] ;
106 -> 107 ;
108 [label=<gini = 0.0<br/>samples = 8<br/>value = [13, 0]<br/>class = 0>, fillcolor="#e58139"] ;
106 -> 108 ;
109 [label=<gini = 0.0<br/>samples = 6<br/>value = [15, 0]<br/>class = 0>, fillcolor="#e58139"] ;
103 -> 109 ;
110 [label=<Glucose &le; 104.0<br/>gini = 0.426<br/>samples = 7<br/>value = [9, 4]<br/>class = 0>, fillcolor="#f1b991"] ;
96 -> 110 ;
111 [label=<gini = 0.0<br/>samples = 5<br/>value = [6, 0]<br/>class = 0>, fillcolor="#e58139"] ;
110 -> 111 ;
112 [label=<SkinThickness &le; 39.5<br/>gini = 0.49<br/>samples = 2<br/>value = [3, 4]<br/>class = 1>, fillcolor="#cee6f8"] ;
110 -> 112 ;
113 [label=<gini = 0.0<br/>samples = 1<br/>value = [0, 4]<br/>class = 1>, fillcolor="#399de5"] ;
112 -> 113 ;
114 [label=<gini = 0.0<br/>samples = 1<br/>value = [3, 0]<br/>class = 0>, fillcolor="#e58139"] ;
112 -> 114 ;
115 [label=<BMI &le; 35.2<br/>gini = 0.48<br/>samples = 4<br/>value = [2, 3]<br/>class = 1>, fillcolor="#bddef6"] ;
95 -> 115 ;
116 [label=<gini = 0.0<br/>samples = 3<br/>value = [0, 3]<br/>class = 1>, fillcolor="#399de5"] ;
115 -> 116 ;
117 [label=<gini = 0.0<br/>samples = 1<br/>value = [2, 0]<br/>class = 0>, fillcolor="#e58139"] ;
115 -> 117 ;
118 [label=<BloodPressure &le; 79.0<br/>gini = 0.484<br/>samples = 15<br/>value = [7, 10]<br/>class = 1>, fillcolor="#c4e2f7"] ;
94 -> 118 ;
119 [label=<SkinThickness &le; 31.0<br/>gini = 0.469<br/>samples = 7<br/>value = [5, 3]<br/>class = 0>, fillcolor="#f5cdb0"] ;
118 -> 119 ;
120 [label=<Insulin &le; 50.0<br/>gini = 0.408<br/>samples = 6<br/>value = [5, 2]<br/>class = 0>, fillcolor="#efb388"] ;
119 -> 120 ;
121 [label=<DiabetesPedigreeFunction &le; 0.251<br/>gini = 0.48<br/>samples = 4<br/>value = [3, 2]<br/>class = 0>, fillcolor="#f6d5bd"] ;
120 -> 121 ;
122 [label=<gini = 0.0<br/>samples = 2<br/>value = [3, 0]<br/>class = 0>, fillcolor="#e58139"] ;
121 -> 122 ;
123 [label=<gini = 0.0<br/>samples = 2<br/>value = [0, 2]<br/>class = 1>, fillcolor="#399de5"] ;
121 -> 123 ;
124 [label=<gini = 0.0<br/>samples = 2<br/>value = [2, 0]<br/>class = 0>, fillcolor="#e58139"] ;
120 -> 124 ;
125 [label=<gini = 0.0<br/>samples = 1<br/>value = [0, 1]<br/>class = 1>, fillcolor="#399de5"] ;
119 -> 125 ;
126 [label=<BMI &le; 32.45<br/>gini = 0.346<br/>samples = 8<br/>value = [2, 7]<br/>class = 1>, fillcolor="#72b9ec"] ;
118 -> 126 ;
127 [label=<BMI &le; 28.4<br/>gini = 0.444<br/>samples = 3<br/>value = [2, 1]<br/>class = 0>, fillcolor="#f2c09c"] ;
126 -> 127 ;
128 [label=<gini = 0.0<br/>samples = 1<br/>value = [1, 0]<br/>class = 0>, fillcolor="#e58139"] ;
127 -> 128 ;
129 [label=<Pregnancies &le; 4.5<br/>gini = 0.5<br/>samples = 2<br/>value = [1, 1]<br/>class = 0>, fillcolor="#ffffff"] ;
127 -> 129 ;
130 [label=<gini = 0.0<br/>samples = 1<br/>value = [1, 0]<br/>class = 0>, fillcolor="#e58139"] ;
129 -> 130 ;
131 [label=<gini = 0.0<br/>samples = 1<br/>value = [0, 1]<br/>class = 1>, fillcolor="#399de5"] ;
129 -> 131 ;
132 [label=<gini = 0.0<br/>samples = 5<br/>value = [0, 6]<br/>class = 1>, fillcolor="#399de5"] ;
126 -> 132 ;
133 [label=<Insulin &le; 225.0<br/>gini = 0.485<br/>samples = 73<br/>value = [47, 67]<br/>class = 1>, fillcolor="#c4e2f7"] ;
85 -> 133 ;
134 [label=<Age &le; 42.5<br/>gini = 0.473<br/>samples = 69<br/>value = [41, 66]<br/>class = 1>, fillcolor="#b4daf5"] ;
133 -> 134 ;
135 [label=<BMI &le; 29.0<br/>gini = 0.5<br/>samples = 42<br/>value = [32, 33]<br/>class = 1>, fillcolor="#f9fcfe"] ;
134 -> 135 ;
136 [label=<gini = 0.0<br/>samples = 4<br/>value = [0, 9]<br/>class = 1>, fillcolor="#399de5"] ;
135 -> 136 ;
137 [label=<DiabetesPedigreeFunction &le; 0.36<br/>gini = 0.49<br/>samples = 38<br/>value = [32, 24]<br/>class = 0>, fillcolor="#f8e0ce"] ;
135 -> 137 ;
138 [label=<Insulin &le; 110.0<br/>gini = 0.408<br/>samples = 5<br/>value = [2, 5]<br/>class = 1>, fillcolor="#88c4ef"] ;
137 -> 138 ;
139 [label=<Glucose &le; 109.5<br/>gini = 0.48<br/>samples = 4<br/>value = [2, 3]<br/>class = 1>, fillcolor="#bddef6"] ;
138 -> 139 ;
140 [label=<gini = 0.0<br/>samples = 2<br/>value = [0, 3]<br/>class = 1>, fillcolor="#399de5"] ;
139 -> 140 ;
141 [label=<gini = 0.0<br/>samples = 2<br/>value = [2, 0]<br/>class = 0>, fillcolor="#e58139"] ;
139 -> 141 ;
142 [label=<gini = 0.0<br/>samples = 1<br/>value = [0, 2]<br/>class = 1>, fillcolor="#399de5"] ;
138 -> 142 ;
143 [label=<Insulin &le; 95.0<br/>gini = 0.475<br/>samples = 33<br/>value = [30, 19]<br/>class = 0>, fillcolor="#f5d1b6"] ;
137 -> 143 ;
144 [label=<Glucose &le; 99.5<br/>gini = 0.383<br/>samples = 21<br/>value = [23, 8]<br/>class = 0>, fillcolor="#eead7e"] ;
143 -> 144 ;
145 [label=<gini = 0.0<br/>samples = 6<br/>value = [10, 0]<br/>class = 0>, fillcolor="#e58139"] ;
144 -> 145 ;
146 [label=<BloodPressure &le; 28.0<br/>gini = 0.472<br/>samples = 15<br/>value = [13, 8]<br/>class = 0>, fillcolor="#f5cfb3"] ;
144 -> 146 ;
147 [label=<gini = 0.0<br/>samples = 2<br/>value = [0, 3]<br/>class = 1>, fillcolor="#399de5"] ;
146 -> 147 ;
148 [label=<BloodPressure &le; 81.0<br/>gini = 0.401<br/>samples = 13<br/>value = [13, 5]<br/>class = 0>, fillcolor="#efb185"] ;
146 -> 148 ;
149 [label=<SkinThickness &le; 25.5<br/>gini = 0.26<br/>samples = 8<br/>value = [11, 2]<br/>class = 0>, fillcolor="#ea985d"] ;
148 -> 149 ;
150 [label=<Glucose &le; 118.5<br/>gini = 0.408<br/>samples = 6<br/>value = [5, 2]<br/>class = 0>, fillcolor="#efb388"] ;
149 -> 150 ;
151 [label=<gini = 0.0<br/>samples = 2<br/>value = [0, 2]<br/>class = 1>, fillcolor="#399de5"] ;
150 -> 151 ;
152 [label=<gini = 0.0<br/>samples = 4<br/>value = [5, 0]<br/>class = 0>, fillcolor="#e58139"] ;
150 -> 152 ;
153 [label=<gini = 0.0<br/>samples = 2<br/>value = [6, 0]<br/>class = 0>, fillcolor="#e58139"] ;
149 -> 153 ;
154 [label=<Glucose &le; 117.5<br/>gini = 0.48<br/>samples = 5<br/>value = [2, 3]<br/>class = 1>, fillcolor="#bddef6"] ;
148 -> 154 ;
155 [label=<gini = 0.0<br/>samples = 1<br/>value = [1, 0]<br/>class = 0>, fillcolor="#e58139"] ;
154 -> 155 ;
156 [label=<Pregnancies &le; 6.0<br/>gini = 0.375<br/>samples = 4<br/>value = [1, 3]<br/>class = 1>, fillcolor="#7bbeee"] ;
154 -> 156 ;
157 [label=<gini = 0.0<br/>samples = 3<br/>value = [0, 3]<br/>class = 1>, fillcolor="#399de5"] ;
156 -> 157 ;
158 [label=<gini = 0.0<br/>samples = 1<br/>value = [1, 0]<br/>class = 0>, fillcolor="#e58139"] ;
156 -> 158 ;
159 [label=<DiabetesPedigreeFunction &le; 0.985<br/>gini = 0.475<br/>samples = 12<br/>value = [7, 11]<br/>class = 1>, fillcolor="#b7dbf6"] ;
143 -> 159 ;
160 [label=<Glucose &le; 102.0<br/>gini = 0.391<br/>samples = 10<br/>value = [4, 11]<br/>class = 1>, fillcolor="#81c1ee"] ;
159 -> 160 ;
161 [label=<gini = 0.0<br/>samples = 1<br/>value = [2, 0]<br/>class = 0>, fillcolor="#e58139"] ;
160 -> 161 ;
162 [label=<Glucose &le; 119.5<br/>gini = 0.26<br/>samples = 9<br/>value = [2, 11]<br/>class = 1>, fillcolor="#5dafea"] ;
160 -> 162 ;
163 [label=<gini = 0.0<br/>samples = 5<br/>value = [0, 8]<br/>class = 1>, fillcolor="#399de5"] ;
162 -> 163 ;
164 [label=<SkinThickness &le; 31.0<br/>gini = 0.48<br/>samples = 4<br/>value = [2, 3]<br/>class = 1>, fillcolor="#bddef6"] ;
162 -> 164 ;
165 [label=<gini = 0.0<br/>samples = 2<br/>value = [2, 0]<br/>class = 0>, fillcolor="#e58139"] ;
164 -> 165 ;
166 [label=<gini = 0.0<br/>samples = 2<br/>value = [0, 3]<br/>class = 1>, fillcolor="#399de5"] ;
164 -> 166 ;
167 [label=<gini = 0.0<br/>samples = 2<br/>value = [3, 0]<br/>class = 0>, fillcolor="#e58139"] ;
159 -> 167 ;
168 [label=<BloodPressure &le; 77.0<br/>gini = 0.337<br/>samples = 27<br/>value = [9, 33]<br/>class = 1>, fillcolor="#6fb8ec"] ;
134 -> 168 ;
169 [label=<gini = 0.0<br/>samples = 11<br/>value = [0, 20]<br/>class = 1>, fillcolor="#399de5"] ;
168 -> 169 ;
170 [label=<Age &le; 53.5<br/>gini = 0.483<br/>samples = 16<br/>value = [9, 13]<br/>class = 1>, fillcolor="#c2e1f7"] ;
168 -> 170 ;
171 [label=<BloodPressure &le; 89.0<br/>gini = 0.337<br/>samples = 11<br/>value = [3, 11]<br/>class = 1>, fillcolor="#6fb8ec"] ;
170 -> 171 ;
172 [label=<DiabetesPedigreeFunction &le; 0.395<br/>gini = 0.397<br/>samples = 9<br/>value = [3, 8]<br/>class = 1>, fillcolor="#83c2ef"] ;
171 -> 172 ;
173 [label=<gini = 0.0<br/>samples = 2<br/>value = [2, 0]<br/>class = 0>, fillcolor="#e58139"] ;
172 -> 173 ;
174 [label=<BMI &le; 27.9<br/>gini = 0.198<br/>samples = 7<br/>value = [1, 8]<br/>class = 1>, fillcolor="#52a9e8"] ;
172 -> 174 ;
175 [label=<Pregnancies &le; 8.0<br/>gini = 0.5<br/>samples = 2<br/>value = [1, 1]<br/>class = 0>, fillcolor="#ffffff"] ;
174 -> 175 ;
176 [label=<gini = 0.0<br/>samples = 1<br/>value = [0, 1]<br/>class = 1>, fillcolor="#399de5"] ;
175 -> 176 ;
177 [label=<gini = 0.0<br/>samples = 1<br/>value = [1, 0]<br/>class = 0>, fillcolor="#e58139"] ;
175 -> 177 ;
178 [label=<gini = 0.0<br/>samples = 5<br/>value = [0, 7]<br/>class = 1>, fillcolor="#399de5"] ;
174 -> 178 ;
179 [label=<gini = 0.0<br/>samples = 2<br/>value = [0, 3]<br/>class = 1>, fillcolor="#399de5"] ;
171 -> 179 ;
180 [label=<Pregnancies &le; 6.0<br/>gini = 0.375<br/>samples = 5<br/>value = [6, 2]<br/>class = 0>, fillcolor="#eeab7b"] ;
170 -> 180 ;
181 [label=<DiabetesPedigreeFunction &le; 0.479<br/>gini = 0.444<br/>samples = 3<br/>value = [1, 2]<br/>class = 1>, fillcolor="#9ccef2"] ;
180 -> 181 ;
182 [label=<gini = 0.0<br/>samples = 1<br/>value = [1, 0]<br/>class = 0>, fillcolor="#e58139"] ;
181 -> 182 ;
183 [label=<gini = 0.0<br/>samples = 2<br/>value = [0, 2]<br/>class = 1>, fillcolor="#399de5"] ;
181 -> 183 ;
184 [label=<gini = 0.0<br/>samples = 2<br/>value = [5, 0]<br/>class = 0>, fillcolor="#e58139"] ;
180 -> 184 ;
185 [label=<Age &le; 43.0<br/>gini = 0.245<br/>samples = 4<br/>value = [6, 1]<br/>class = 0>, fillcolor="#e9965a"] ;
133 -> 185 ;
186 [label=<gini = 0.0<br/>samples = 3<br/>value = [6, 0]<br/>class = 0>, fillcolor="#e58139"] ;
185 -> 186 ;
187 [label=<gini = 0.0<br/>samples = 1<br/>value = [0, 1]<br/>class = 1>, fillcolor="#399de5"] ;
185 -> 187 ;
188 [label=<Insulin &le; 611.5<br/>gini = 0.292<br/>samples = 51<br/>value = [14, 65]<br/>class = 1>, fillcolor="#64b2eb"] ;
28 -> 188 ;
189 [label=<Glucose &le; 166.5<br/>gini = 0.266<br/>samples = 48<br/>value = [12, 64]<br/>class = 1>, fillcolor="#5eafea"] ;
188 -> 189 ;
190 [label=<Glucose &le; 164.5<br/>gini = 0.423<br/>samples = 14<br/>value = [7, 16]<br/>class = 1>, fillcolor="#90c8f0"] ;
189 -> 190 ;
191 [label=<BloodPressure &le; 81.0<br/>gini = 0.266<br/>samples = 12<br/>value = [3, 16]<br/>class = 1>, fillcolor="#5eafea"] ;
190 -> 191 ;
192 [label=<gini = 0.0<br/>samples = 7<br/>value = [0, 10]<br/>class = 1>, fillcolor="#399de5"] ;
191 -> 192 ;
193 [label=<SkinThickness &le; 14.0<br/>gini = 0.444<br/>samples = 5<br/>value = [3, 6]<br/>class = 1>, fillcolor="#9ccef2"] ;
191 -> 193 ;
194 [label=<Pregnancies &le; 7.5<br/>gini = 0.5<br/>samples = 3<br/>value = [3, 3]<br/>class = 0>, fillcolor="#ffffff"] ;
193 -> 194 ;
195 [label=<gini = 0.0<br/>samples = 2<br/>value = [0, 3]<br/>class = 1>, fillcolor="#399de5"] ;
194 -> 195 ;
196 [label=<gini = 0.0<br/>samples = 1<br/>value = [3, 0]<br/>class = 0>, fillcolor="#e58139"] ;
194 -> 196 ;
197 [label=<gini = 0.0<br/>samples = 2<br/>value = [0, 3]<br/>class = 1>, fillcolor="#399de5"] ;
193 -> 197 ;
198 [label=<gini = 0.0<br/>samples = 2<br/>value = [4, 0]<br/>class = 0>, fillcolor="#e58139"] ;
190 -> 198 ;
199 [label=<SkinThickness &le; 17.0<br/>gini = 0.171<br/>samples = 34<br/>value = [5, 48]<br/>class = 1>, fillcolor="#4ea7e8"] ;
189 -> 199 ;
200 [label=<SkinThickness &le; 14.5<br/>gini = 0.401<br/>samples = 12<br/>value = [5, 13]<br/>class = 1>, fillcolor="#85c3ef"] ;
199 -> 200 ;
201 [label=<BloodPressure &le; 92.0<br/>gini = 0.32<br/>samples = 10<br/>value = [3, 12]<br/>class = 1>, fillcolor="#6ab6ec"] ;
200 -> 201 ;
202 [label=<DiabetesPedigreeFunction &le; 0.241<br/>gini = 0.245<br/>samples = 9<br/>value = [2, 12]<br/>class = 1>, fillcolor="#5aade9"] ;
201 -> 202 ;
203 [label=<Age &le; 40.0<br/>gini = 0.5<br/>samples = 2<br/>value = [2, 2]<br/>class = 0>, fillcolor="#ffffff"] ;
202 -> 203 ;
204 [label=<gini = 0.0<br/>samples = 1<br/>value = [2, 0]<br/>class = 0>, fillcolor="#e58139"] ;
203 -> 204 ;
205 [label=<gini = 0.0<br/>samples = 1<br/>value = [0, 2]<br/>class = 1>, fillcolor="#399de5"] ;
203 -> 205 ;
206 [label=<gini = 0.0<br/>samples = 7<br/>value = [0, 10]<br/>class = 1>, fillcolor="#399de5"] ;
202 -> 206 ;
207 [label=<gini = 0.0<br/>samples = 1<br/>value = [1, 0]<br/>class = 0>, fillcolor="#e58139"] ;
201 -> 207 ;
208 [label=<BMI &le; 30.45<br/>gini = 0.444<br/>samples = 2<br/>value = [2, 1]<br/>class = 0>, fillcolor="#f2c09c"] ;
200 -> 208 ;
209 [label=<gini = 0.0<br/>samples = 1<br/>value = [0, 1]<br/>class = 1>, fillcolor="#399de5"] ;
208 -> 209 ;
210 [label=<gini = 0.0<br/>samples = 1<br/>value = [2, 0]<br/>class = 0>, fillcolor="#e58139"] ;
208 -> 210 ;
211 [label=<gini = 0.0<br/>samples = 22<br/>value = [0, 35]<br/>class = 1>, fillcolor="#399de5"] ;
199 -> 211 ;
212 [label=<DiabetesPedigreeFunction &le; 0.412<br/>gini = 0.444<br/>samples = 3<br/>value = [2, 1]<br/>class = 0>, fillcolor="#f2c09c"] ;
188 -> 212 ;
213 [label=<gini = 0.0<br/>samples = 1<br/>value = [0, 1]<br/>class = 1>, fillcolor="#399de5"] ;
212 -> 213 ;
214 [label=<gini = 0.0<br/>samples = 2<br/>value = [2, 0]<br/>class = 0>, fillcolor="#e58139"] ;
212 -> 214 ;
}