digraph Tree {
node [shape=box, style="filled, rounded", color="black", fontname="helvetica"] ;
edge [fontname="helvetica"] ;
0 [label=<Glucose &le; 144.5<br/>gini = 0.455<br/>samples = 386<br/>value = [399, 215]<br/>class = 0>, fillcolor="#f3c5a4"] ;
1 [label=<Glucose &le; 99.5<br/>gini = 0.354<br/>samples = 303<br/>value = [361, 108]<br/>class = 0>, fillcolor="#eda774"] ;
0 -> 1 [labeldistance=2.5, labelangle=45, headlabel="True"] ;
2 [label=<SkinThickness &le; 24.0<br/>gini = 0.097<br/>samples = 95<br/>value = [130, 7]<br/>class = 0>, fillcolor="#e68844"] ;
1 -> 2 ;
3 [label=<Age &le; 30.5<br/>gini = 0.021<br/>samples = 62<br/>value = [94, 1]<br/>class = 0>, fillcolor="#e5823b"] ;
2 -> 3 ;
4 [label=<gini = 0.0<br/>samples = 45<br/>value = [71, 0]<br/>class = 0>, fillcolor="#e58139"] ;
3 -> 4 ;
5 [label=<Age &le; 31.5<br/>gini = 0.08<br/>samples = 17<br/>value = [23, 1]<br/>class = 0>, fillcolor="#e68642"] ;
3 -> 5 ;
6 [label=<Pregnancies &le; 5.0<br/>gini = 0.444<br/>samples = 3<br/>value = [2, 1]<br/>class = 0>, fillcolor="#f2c09c"] ;
5 -> 6 ;
7 [label=<gini = 0.0<br/>samples = 1<br/>value = [0, 1]<br/>class = 1>, fillcolor="#399de5"] ;
6 -> 7 ;
8 [label=<gini = 0.0<br/>samples = 2<br/>value = [2, 0]<br/>class = 0>, fillcolor="#e58139"] ;
6 -> 8 ;
9 [label=<gini = 0.0<br/>samples = 14<br/>value = [21, 0]<br/>class = 0>, fillcolor="#e58139"] ;
5 -> 9 ;
10 [label=<BloodPressure &le; 53.0<br/>gini = 0.245<br/>samples = 33<br/>value = [36, 6]<br/>class = 0>, fillcolor="#e9965a"] ;
2 -> 10 ;
11 [label=<Age &le; 24.5<br/>gini = 0.444<br/>samples = 3<br/>value = [1, 2]<br/>class = 1>, fillcolor="#9ccef2"] ;
10 -> 11 ;
12 [label=<gini = 0.0<br/>samples = 1<br/>value = [1, 0]<br/>class = 0>, fillcolor="#e58139"] ;
11 -> 12 ;
13 [label=<gini = 0.0<br/>samples = 2<br/>value = [0, 2]<br/>class = 1>, fillcolor="#399de5"] ;
11 -> 13 ;
14 [label=<Pregnancies &le; 9.5<br/>gini = 0.184<br/>samples = 30<br/>value = [35, 4]<br/>class = 0>, fillcolor="#e88f50"] ;
10 -> 14 ;
15 [label=<SkinThickness &le; 26.0<br/>gini = 0.102<br/>samples = 28<br/>value = [35, 2]<br/>class = 0>, fillcolor="#e68844"] ;
14 -> 15 ;
16 [label=<BMI &le; 33.3<br/>gini = 0.5<br/>samples = 2<br/>value = [1, 1]<br/>class = 0>, fillcolor="#ffffff"] ;
15 -> 16 ;
17 [label=<gini = 0.0<br/>samples = 1<br/>value = [1, 0]<br/>class = 0>, fillcolor="#e58139"] ;
16 -> 17 ;
18 [label=<gini = 0.0<br/>samples = 1<br/>value = [0, 1]<br/>class = 1>, fillcolor="#399de5"] ;
16 -> 18 ;
19 [label=<Age &le; 31.5<br/>gini = 0.056<br/>samples = 26<br/>value = [34, 1]<br/>class = 0>, fillcolor="#e6853f"] ;
15 -> 19 ;
20 [label=<gini = 0.0<br/>samples = 19<br/>value = [27, 0]<br/>class = 0>, fillcolor="#e58139"] ;
19 -> 20 ;
21 [label=<Insulin &le; 81.5<br/>gini = 0.219<br/>samples = 7<br/>value = [7, 1]<br/>class = 0>, fillcolor="#e99355"] ;
19 -> 21 ;
22 [label=<gini = 0.0<br/>samples = 5<br/>value = [6, 0]<br/>class = 0>, fillcolor="#e58139"] ;
21 -> 22 ;
23 [label=<Pregnancies &le; 6.5<br/>gini = 0.5<br/>samples = 2<br/>value = [1, 1]<br/>class = 0>, fillcolor="#ffffff"] ;
21 -> 23 ;
24 [label=<gini = 0.0<br/>samples = 1<br/>value = [1, 0]<br/>class = 0>, fillcolor="#e58139"] ;
23 -> 24 ;
25 [label=<gini = 0.0<br/>samples = 1<br/>value = [0, 1]<br/>class = 1>, fillcolor="#399de5"] ;
23 -> 25 ;
26 [label=<gini = 0.0<br/>samples = 2<br/>value = [0, 2]<br/>class = 1>, fillcolor="#399de5"] ;
14 -> 26 ;
27 [label=<BMI &le; 26.75<br/>gini = 0.423<br/>samples = 208<br/>value = [231, 101]<br/>class = 0>, fillcolor="#f0b890"] ;
1 -> 27 ;
28 [label=<SkinThickness &le; 28.5<br/>gini = 0.116<br/>samples = 53<br/>value = [76, 5]<br/>class = 0>, fillcolor="#e78946"] ;
27 -> 28 ;
29 [label=<BMI &le; 25.45<br/>gini = 0.075<br/>samples = 51<br/>value = [74, 3]<br/>class = 0>, fillcolor="#e68641"] ;
28 -> 29 ;
30 [label=<Age &le; 51.0<br/>gini = 0.036<br/>samples = 38<br/>value = [53, 1]<br/>class = 0>, fillcolor="#e5833d"] ;
29 -> 30 ;
31 [label=<gini = 0.0<br/>samples = 32<br/>value = [45, 0]<br/>class = 0>, fillcolor="#e58139"] ;
30 -> 31 ;
32 [label=<Pregnancies &le; 7.0<br/>gini = 0.198<br/>samples = 6<br/>value = [8, 1]<br/>class = 0>, fillcolor="#e89152"] ;
30 -> 32 ;
33 [label=<gini = 0.0<br/>samples = 4<br/>value = [7, 0]<br/>class = 0>, fillcolor="#e58139"] ;
32 -> 33 ;
34 [label=<BMI &le; 12.5<br/>gini = 0.5<br/>samples = 2<br/>value = [1, 1]<br/>class = 0>, fillcolor="#ffffff"] ;
32 -> 34 ;
35 [label=<gini = 0.0<br/>samples = 1<br/>value = [0, 1]<br/>class = 1>, fillcolor="#399de5"] ;
34 -> 35 ;
36 [label=<gini = 0.0<br/>samples = 1<br/>value = [1, 0]<br/>class = 0>, fillcolor="#e58139"] ;
34 -> 36 ;
37 [label=<Pregnancies &le; 2.5<br/>gini = 0.159<br/>samples = 13<br/>value = [21, 2]<br/>class = 0>, fillcolor="#e78d4c"] ;
29 -> 37 ;
38 [label=<gini = 0.0<br/>samples = 6<br/>value = [13, 0]<br/>class = 0>, fillcolor="#e58139"] ;
37 -> 38 ;
39 [label=<BloodPressure &le; 58.0<br/>gini = 0.32<br/>samples = 7<br/>value = [8, 2]<br/>class = 0>, fillcolor="#eca06a"] ;
37 -> 39 ;
40 [label=<gini = 0.0<br/>samples = 1<br/>value = [0, 2]<br/>class = 1>, fillcolor="#399de5"] ;
39 -> 40 ;
41 [label=<gini = 0.0<br/>samples = 6<br/>value = [8, 0]<br/>class = 0>, fillcolor="#e58139"] ;
39 -> 41 ;
42 [label=<Insulin &le; 95.0<br/>gini = 0.5<br/>samples = 2<br/>value = [2, 2]<br/>class = 0>, fillcolor="#ffffff"] ;
28 -> 42 ;
43 [label=<gini = 0.0<br/>samples = 1<br/>value = [2, 0]<br/>class = 0>, fillcolor="#e58139"] ;
42 -> 43 ;
44 [label=<gini = 0.0<br/>samples = 1<br/>value = [0, 2]<br/>class = 1>, fillcolor="#399de5"] ;
42 -> 44 ;
45 [label=<Age &le; 30.5<br/>gini = 0.472<br/>samples = 155<br/>value = [155, 96]<br/>class = 0>, fillcolor="#f5cfb4"] ;
27 -> 45 ;
46 [label=<BMI &le; 41.9<br/>gini = 0.371<br/>samples = 79<br/>value = [89, 29]<br/>class = 0>, fillcolor="#edaa7a"] ;
45 -> 46 ;
47 [label=<Glucose &le; 130.5<br/>gini = 0.311<br/>samples = 69<br/>value = [84, 20]<br/>class = 0>, fillcolor="#eb9f68"] ;
46 -> 47 ;
48 [label=<SkinThickness &le; 14.5<br/>gini = 0.203<br/>samples = 57<br/>value = [77, 10]<br/>class = 0>, fillcolor="#e89153"] ;
47 -> 48 ;
49 [label=<Pregnancies &le; 1.5<br/>gini = 0.444<br/>samples = 9<br/>value = [10, 5]<br/>class = 0>, fillcolor="#f2c09c"] ;
48 -> 49 ;
50 [label=<gini = 0.0<br/>samples = 1<br/>value = [0, 1]<br/>class = 1>, fillcolor="#399de5"] ;
49 -> 50 ;
51 [label=<Glucose &le; 126.0<br/>gini = 0.408<br/>samples = 8<br/>value = [10, 4]<br/>class = 0>, fillcolor="#efb388"] ;
49 -> 51 ;
52 [label=<Insulin &le; 39.0<br/>gini = 0.48<br/>samples = 6<br/>value = [6, 4]<br/>class = 0>, fillcolor="#f6d5bd"] ;
51 -> 52 ;
53 [label=<Glucose &le; 123.0<br/>gini = 0.494<br/>samples = 5<br/>value = [5, 4]<br/>class = 0>, fillcolor="#fae6d7"] ;
52 -> 53 ;
54 [label=<DiabetesPedigreeFunction &le; 0.387<br/>gini = 0.278<br/>samples = 3<br/>value = [5, 1]<br/>class = 0>, fillcolor="#ea9a61"] ;
53 -> 54 ;
55 [label=<BMI &le; 29.2<br/>gini = 0.5<br/>samples = 2<br/>value = [1, 1]<br/>class = 0>, fillcolor="#ffffff"] ;
54 -> 55 ;
56 [label=<gini = 0.0<br/>samples = 1<br/>value = [1, 0]<br/>class = 0>, fillcolor="#e58139"] ;
55 -> 56 ;
57 [label=<gini = 0.0<br/>samples = 1<br/>value = [0, 1]<br/>class = 1>, fillcolor="#399de5"] ;
55 -> 57 ;
58 [label=<gini = 0.0<br/>samples = 1<br/>value = [4, 0]<br/>class = 0>, fillcolor="#e58139"] ;
54 -> 58 ;
59 [label=<gini = 0.0<br/>samples = 2<br/>value = [0, 3]<br/>class = 1>, fillcolor="#399de5"] ;
53 -> 59 ;
60 [label=<gini = 0.0<br/>samples = 1<br/>value = [1, 0]<br/>class = 0>, fillcolor="#e58139"] ;
52 -> 60 ;
61 [label=<gini = 0.0<br/>samples = 2<br/>value = [4, 0]<br/>class = 0>, fillcolor="#e58139"] ;
51 -> 61 ;
62 [label=<Pregnancies &le; 2.5<br/>gini = 0.129<br/>samples = 48<br/>value = [67, 5]<br/>class = 0>, fillcolor="#e78a48"] ;
48 -> 62 ;
63 [label=<BMI &le; 33.45<br/>gini = 0.045<br/>samples = 31<br/>value = [42, 1]<br/>class = 0>, fillcolor="#e6843e"] ;
62 -> 63 ;
64 [label=<gini = 0.0<br/>samples = 17<br/>value = [21, 0]<br/>class = 0>, fillcolor="#e58139"] ;
63 -> 64 ;
65 [label=<Age &le; 21.5<br/>gini = 0.087<br/>samples = 14<br/>value = [21, 1]<br/>class = 0>, fillcolor="#e68742"] ;
63 -> 65 ;
66 [label=<BMI &le; 35.85<br/>gini = 0.444<br/>samples = 3<br/>value = [2, 1]<br/>class = 0>, fillcolor="#f2c09c"] ;
65 -> 66 ;
67 [label=<gini = 0.0<br/>samples = 1<br/>value = [0, 1]<br/>class = 1>, fillcolor="#399de5"] ;
66 -> 67 ;
68 [label=<gini = 0.0<br/>samples = 2<br/>value = [2, 0]<br/>class = 0>, fillcolor="#e58139"] ;
66 -> 68 ;
69 [label=<gini = 0.0<br/>samples = 11<br/>value = [19, 0]<br/>class = 0>, fillcolor="#e58139"] ;
65 -> 69 ;
70 [label=<BloodPressure &le; 75.0<br/>gini = 0.238<br/>samples = 17<br/>value = [25, 4]<br/>class = 0>, fillcolor="#e99559"] ;
62 -> 70 ;
71 [label=<SkinThickness &le; 40.0<br/>gini = 0.32<br/>samples = 13<br/>value = [16, 4]<br/>class = 0>, fillcolor="#eca06a"] ;
70 -> 71 ;
72 [label=<Glucose &le; 122.5<br/>gini = 0.198<br/>samples = 11<br/>value = [16, 2]<br/>class = 0>, fillcolor="#e89152"] ;
71 -> 72 ;
73 [label=<DiabetesPedigreeFunction &le; 0.214<br/>gini = 0.111<br/>samples = 10<br/>value = [16, 1]<br/>class = 0>, fillcolor="#e78945"] ;
72 -> 73 ;
74 [label=<BMI &le; 34.25<br/>gini = 0.32<br/>samples = 3<br/>value = [4, 1]<br/>class = 0>, fillcolor="#eca06a"] ;
73 -> 74 ;
75 [label=<gini = 0.0<br/>samples = 1<br/>value = [0, 1]<br/>class = 1>, fillcolor="#399de5"] ;
74 -> 75 ;
76 [label=<gini = 0.0<br/>samples = 2<br/>value = [4, 0]<br/>class = 0>, fillcolor="#e58139"] ;
74 -> 76 ;
77 [label=<gini = 0.0<br/>samples = 7<br/>value = [12, 0]<br/>class = 0>, fillcolor="#e58139"] ;
73 -> 77 ;
78 [label=<gini = 0.0<br/>samples = 1<br/>value = [0, 1]<br/>class = 1>, fillcolor="#399de5"] ;
72 -> 78 ;
79 [label=<gini = 0.0<br/>samples = 2<br/>value = [0, 2]<br/>class = 1>, fillcolor="#399de5"] ;
71 -> 79 ;
80 [label=<gini = 0.0<br/>samples = 4<br/>value = [9, 0]<br/>class = 0>, fillcolor="#e58139"] ;
70 -> 80 ;
81 [label=<BloodPressure &le; 62.0<br/>gini = 0.484<br/>samples = 12<br/>value = [7, 10]<br/>class = 1>, fillcolor="#c4e2f7"] ;
47 -> 81 ;
82 [label=<gini = 0.0<br/>samples = 4<br/>value = [0, 5]<br/>class = 1>, fillcolor="#399de5"] ;
81 -> 82 ;
83 [label=<BMI &le; 32.0<br/>gini = 0.486<br/>samples = 8<br/>value = [7, 5]<br/>class = 0>, fillcolor="#f8dbc6"] ;
81 -> 83 ;
84 [label=<BloodPressure &le; 67.0<br/>gini = 0.408<br/>samples = 3<br/>value = [2, 5]<br/>class = 1>, fillcolor="#88c4ef"] ;
83 -> 84 ;
85 [label=<gini = 0.0<br/>samples = 1<br/>value = [2, 0]<br/>class = 0>, fillcolor="#e58139"] ;
84 -> 85 ;
86 [label=<gini = 0.0<br/>samples = 2<br/>value = [0, 5]<br/>class = 1>, fillcolor="#399de5"] ;
84 -> 86 ;
87 [label=<gini = 0.0<br/>samples = 5<br/>value = [5, 0]<br/>class = 0>, fillcolor="#e58139"] ;
83 -> 87 ;
88 [label=<Glucose &le; 124.0<br/>gini = 0.459<br/>samples = 10<br/>value = [5, 9]<br/>class = 1>, fillcolor="#a7d3f3"] ;
46 -> 88 ;
89 [label=<Age &le; 22.5<br/>gini = 0.494<br/>samples = 7<br/>value = [5, 4]<br/>class = 0>, fillcolor="#fae6d7"] ;
88 -> 89 ;
90 [label=<gini = 0.0<br/>samples = 1<br/>value = [0, 2]<br/>class = 1>, fillcolor="#399de5"] ;
89 -> 90 ;
91 [label=<BMI &le; 45.45<br/>gini = 0.408<br/>samples = 6<br/>value = [5, 2]<br/>class = 0>, fillcolor="#efb388"] ;
89 -> 91 ;
92 [label=<gini = 0.0<br/>samples = 4<br/>value = [5, 0]<br/>class = 0>, fillcolor="#e58139"] ;
91 -> 92 ;
93 [label=<gini = 0.0<br/>samples = 2<br/>value = [0, 2]<br/>class = 1>, fillcolor="#399de5"] ;
91 -> 93 ;
94 [label=<gini = 0.0<br/>samples = 3<br/>value = [0, 5]<br/>class = 1>, fillcolor="#399de5"] ;
88 -> 94 ;
95 [label=<BloodPressure &le; 77.0<br/>gini = 0.5<br/>samples = 76<br/>value = [66, 67]<br/>class = 1>, fillcolor="#fcfeff"] ;
45 -> 95 ;
96 [label=<Age &le; 40.5<br/>gini = 0.483<br/>samples = 41<br/>value = [31, 45]<br/>class = 1>, fillcolor="#c1e1f7"] ;
95 -> 96 ;
97 [label=<Age &le; 33.5<br/>gini = 0.485<br/>samples = 23<br/>value = [24, 17]<br/>class = 0>, fillcolor="#f7dac5"] ;
96 -> 97 ;
98 [label=<Glucose &le; 123.0<br/>gini = 0.415<br/>samples = 10<br/>value = [5, 12]<br/>class = 1>, fillcolor="#8bc6f0"] ;
97 -> 98 ;
99 [label=<DiabetesPedigreeFunction &le; 0.713<br/>gini = 0.32<br/>samples = 9<br/>value = [3, 12]<br/>class = 1>, fillcolor="#6ab6ec"] ;
98 -> 99 ;
100 [label=<SkinThickness &le; 41.0<br/>gini = 0.18<br/>samples = 6<br/>value = [1, 9]<br/>class = 1>, fillcolor="#4fa8e8"] ;
99 -> 100 ;
101 [label=<gini = 0.0<br/>samples = 5<br/>value = [0, 9]<br/>class = 1>, fillcolor="#399de5"] ;
100 -> 101 ;
102 [label=<gini = 0.0<br/>samples = 1<br/>value = [1, 0]<br/>class = 0>, fillcolor="#e58139"] ;
100 -> 102 ;
103 [label=<SkinThickness &le; 10.0<br/>gini = 0.48<br/>samples = 3<br/>value = [2, 3]<br/>class = 1>, fillcolor="#bddef6"] ;
99 -> 103 ;
104 [label=<gini = 0.0<br/>samples = 1<br/>value = [0, 2]<br/>class = 1>, fillcolor="#399de5"] ;
103 -> 104 ;
105 [label=<Pregnancies &le; 3.0<br/>gini = 0.444<br/>samples = 2<br/>value = [2, 1]<br/>class = 0>, fillcolor="#f2c09c"] ;
103 -> 105 ;
106 [label=<gini = 0.0<br/>samples = 1<br/>value = [2, 0]<br/>class = 0>, fillcolor="#e58139"] ;
105 -> 106 ;
107 [label=<gini = 0.0<br/>samples = 1<br/>value = [0, 1]<br/>class = 1>, fillcolor="#399de5"] ;
105 -> 107 ;
108 [label=<gini = 0.0<br/>samples = 1<br/>value = [2, 0]<br/>class = 0>, fillcolor="#e58139"] ;
98 -> 108 ;
109 [label=<BloodPressure &le; 63.0<br/>gini = 0.33<br/>samples = 13<br/>value = [19, 5]<br/>class = 0>, fillcolor="#eca26d"] ;
97 -> 109 ;
110 [label=<SkinThickness &le; 14.0<br/>gini = 0.375<br/>samples = 3<br/>value = [1, 3]<br/>class = 1>, fillcolor="#7bbeee"] ;
109 -> 110 ;
111 [label=<gini = 0.0<br/>samples = 1<br/>value = [0, 2]<br/>class = 1>, fillcolor="#399de5"] ;
110 -> 111 ;
112 [label=<BloodPressure &le; 59.0<br/>gini = 0.5<br/>samples = 2<br/>value = [1, 1]<br/>class = 0>, fillcolor="#ffffff"] ;
110 -> 112 ;
113 [label=<gini = 0.0<br/>samples = 1<br/>value = [1, 0]<br/>class = 0>, fillcolor="#e58139"] ;
112 -> 113 ;
114 [label=<gini = 0.0<br/>samples = 1<br/>value = [0, 1]<br/>class = 1>, fillcolor="#399de5"] ;
112 -> 114 ;
115 [label=<Insulin &le; 34.0<br/>gini = 0.18<br/>samples = 10<br/>value = [18, 2]<br/>class = 0>, fillcolor="#e88f4f"] ;
109 -> 115 ;
116 [label=<Pregnancies &le; 2.0<br/>gini = 0.375<br/>samples = 5<br/>value = [6, 2]<br/>class = 0>, fillcolor="#eeab7b"] ;
115 -> 116 ;
117 [label=<gini = 0.0<br/>samples = 1<br/>value = [0, 1]<br/>class = 1>, fillcolor="#399de5"] ;
116 -> 117 ;
118 [label=<Age &le; 36.5<br/>gini = 0.245<br/>samples = 4<br/>value = [6, 1]<br/>class = 0>, fillcolor="#e9965a"] ;
116 -> 118 ;
119 [label=<gini = 0.0<br/>samples = 2<br/>value = [5, 0]<br/>class = 0>, fillcolor="#e58139"] ;
118 -> 119 ;
120 [label=<Age &le; 39.0<br/>gini = 0.5<br/>samples = 2<br/>value = [1, 1]<br/>class = 0>, fillcolor="#ffffff"] ;
118 -> 120 ;
121 [label=<gini = 0.0<br/>samples = 1<br/>value = [0, 1]<br/>class = 1>, fillcolor="#399de5"] ;
120 -> 121 ;
122 [label=<gini = 0.0<br/>samples = 1<br/>value = [1, 0]<br/>class = 0>, fillcolor="#e58139"] ;
120 -> 122 ;
123 [label=<gini = 0.0<br/>samples = 5<br/>value = [12, 0]<br/>class = 0>, fillcolor="#e58139"] ;
115 -> 123 ;
124 [label=<Insulin &le; 173.0<br/>gini = 0.32<br/>samples = 18<br/>value = [7, 28]<br/>class = 1>, fillcolor="#6ab6ec"] ;
96 -> 124 ;
125 [label=<Age &le; 42.5<br/>gini = 0.257<br/>samples = 17<br/>value = [5, 28]<br/>class = 1>, fillcolor="#5caeea"] ;
124 -> 125 ;
126 [label=<BloodPressure &le; 69.0<br/>gini = 0.408<br/>samples = 8<br/>value = [4, 10]<br/>class = 1>, fillcolor="#88c4ef"] ;
125 -> 126 ;
127 [label=<Pregnancies &le; 10.5<br/>gini = 0.49<br/>samples = 5<br/>value = [4, 3]<br/>class = 0>, fillcolor="#f8e0ce"] ;
126 -> 127 ;
128 [label=<DiabetesPedigreeFunction &le; 0.259<br/>gini = 0.48<br/>samples = 4<br/>value = [2, 3]<br/>class = 1>, fillcolor="#bddef6"] ;
127 -> 128 ;
129 [label=<gini = 0.0<br/>samples = 1<br/>value = [1, 0]<br/>class = 0>, fillcolor="#e58139"] ;
128 -> 129 ;
130 [label=<BloodPressure &le; 33.0<br/>gini = 0.375<br/>samples = 3<br/>value = [1, 3]<br/>class = 1>, fillcolor="#7bbeee"] ;
128 -> 130 ;
131 [label=<gini = 0.0<br/>samples = 1<br/>value = [1, 0]<br/>class = 0>, fillcolor="#e58139"] ;
130 -> 131 ;
132 [label=<gini = 0.0<br/>samples = 2<br/>value = [0, 3]<br/>class = 1>, fillcolor="#399de5"] ;
130 -> 132 ;
133 [label=<gini = 0.0<br/>samples = 1<br/>value = [2, 0]<br/>class = 0>, fillcolor="#e58139"] ;
127 -> 133 ;
134 [label=<gini = 0.0<br/>samples = 3<br/>value = [0, 7]<br/>class = 1>, fillcolor="#399de5"] ;
126 -> 134 ;
135 [label=<Glucose &le; 108.5<br/>gini = 0.1<br/>samples = 9<br/>value = [1, 18]<br/>class = 1>, fillcolor="#44a2e6"] ;
125 -> 135 ;
136 [label=<Insulin &le; 52.5<br/>gini = 0.444<br/>samples = 2<br/>value = [1, 2]<br/>class = 1>, fillcolor="#9ccef2"] ;
135 -> 136 ;
137 [label=<gini = 0.0<br/>samples = 1<br/>value = [0, 2]<br/>class = 1>, fillcolor="#399de5"] ;
136 -> 137 ;
138 [label=<gini = 0.0<br/>samples = 1<br/>value = [1, 0]<br/>class = 0>, fillcolor="#e58139"] ;
136 -> 138 ;
139 [label=<gini = 0.0<br/>samples = 7<br/>value = [0, 16]<br/>class = 1>, fillcolor="#399de5"] ;
135 -> 139 ;
140 [label=<gini = 0.0<br/>samples = 1<br/>value = [2, 0]<br/>class = 0>, fillcolor="#e58139"] ;
124 -> 140 ;
141 [label=<SkinThickness &le; 36.5<br/>gini = 0.474<br/>samples = 35<br/>value = [35, 22]<br/>class = 0>, fillcolor="#f5d0b5"] ;
95 -> 141 ;
142 [label=<DiabetesPedigreeFunction &le; 0.731<br/>gini = 0.4<br/>samples = 27<br/>value = [34, 13]<br/>class = 0>, fillcolor="#efb185"] ;
141 -> 142 ;
143 [label=<DiabetesPedigreeFunction &le; 0.235<br/>gini = 0.314<br/>samples = 23<br/>value = [33, 8]<br/>class = 0>, fillcolor="#eba069"] ;
142 -> 143 ;
144 [label=<gini = 0.0<br/>samples = 6<br/>value = [12, 0]<br/>class = 0>, fillcolor="#e58139"] ;
143 -> 144 ;
145 [label=<BMI &le; 29.0<br/>gini = 0.4<br/>samples = 17<br/>value = [21, 8]<br/>class = 0>, fillcolor="#efb184"] ;
143 -> 145 ;
146 [label=<Pregnancies &le; 8.0<br/>gini = 0.49<br/>samples = 4<br/>value = [3, 4]<br/>class = 1>, fillcolor="#cee6f8"] ;
145 -> 146 ;
147 [label=<gini = 0.0<br/>samples = 3<br/>value = [0, 4]<br/>class = 1>, fillcolor="#399de5"] ;
146 -> 147 ;
148 [label=<gini = 0.0<br/>samples = 1<br/>value = [3, 0]<br/>class = 0>, fillcolor="#e58139"] ;
146 -> 148 ;
149 [label=<Pregnancies &le; 13.0<br/>gini = 0.298<br/>samples = 13<br/>value = [18, 4]<br/>class = 0>, fillcolor="#eb9d65"] ;
145 -> 149 ;
150 [label=<Glucose &le; 120.0<br/>gini = 0.245<br/>samples = 12<br/>value = [18, 3]<br/>class = 0>, fillcolor="#e9965a"] ;
149 -> 150 ;
151 [label=<DiabetesPedigreeFunction &le; 0.446<br/>gini = 0.397<br/>samples = 8<br/>value = [8, 3]<br/>class = 0>, fillcolor="#efb083"] ;
150 -> 151 ;
152 [label=<BMI &le; 33.5<br/>gini = 0.5<br/>samples = 6<br/>value = [3, 3]<br/>class = 0>, fillcolor="#ffffff"] ;
151 -> 152 ;
153 [label=<gini = 0.0<br/>samples = 1<br/>value = [1, 0]<br/>class = 0>, fillcolor="#e58139"] ;
152 -> 153 ;
154 [label=<Pregnancies &le; 6.5<br/>gini = 0.48<br/>samples = 5<br/>value = [2, 3]<br/>class = 1>, fillcolor="#bddef6"] ;
152 -> 154 ;
155 [label=<Age &le; 39.0<br/>gini = 0.444<br/>samples = 3<br/>value = [2, 1]<br/>class = 0>, fillcolor="#f2c09c"] ;
154 -> 155 ;
156 [label=<gini = 0.0<br/>samples = 1<br/>value = [1, 0]<br/>class = 0>, fillcolor="#e58139"] ;
155 -> 156 ;
157 [label=<DiabetesPedigreeFunction &le; 0.327<br/>gini = 0.5<br/>samples = 2<br/>value = [1, 1]<br/>class = 0>, fillcolor="#ffffff"] ;
155 -> 157 ;
158 [label=<gini = 0.0<br/>samples = 1<br/>value = [1, 0]<br/>class = 0>, fillcolor="#e58139"] ;
157 -> 158 ;
159 [label=<gini = 0.0<br/>samples = 1<br/>value = [0, 1]<br/>class = 1>, fillcolor="#399de5"] ;
157 -> 159 ;
160 [label=<gini = 0.0<br/>samples = 2<br/>value = [0, 2]<br/>class = 1>, fillcolor="#399de5"] ;
154 -> 160 ;
161 [label=<gini = 0.0<br/>samples = 2<br/>value = [5, 0]<br/>class = 0>, fillcolor="#e58139"] ;
151 -> 161 ;
162 [label=<gini = 0.0<br/>samples = 4<br/>value = [10, 0]<br/>class = 0>, fillcolor="#e58139"] ;
150 -> 162 ;
163 [label=<gini = 0.0<br/>samples = 1<br/>value = [0, 1]<br/>class = 1>, fillcolor="#399de5"] ;
149 -> 163 ;
164 [label=<Age &le; 53.5<br/>gini = 0.278<br/>samples = 4<br/>value = [1, 5]<br/>class = 1>, fillcolor="#61b1ea"] ;
142 -> 164 ;
165 [label=<gini = 0.0<br/>samples = 3<br/>value = [0, 5]<br/>class = 1>, fillcolor="#399de5"] ;
164 -> 165 ;
166 [label=<gini = 0.0<br/>samples = 1<br/>value = [1, 0]<br/>class = 0>, fillcolor="#e58139"] ;
164 -> 166 ;
167 [label=<SkinThickness &le; 54.5<br/>gini = 0.18<br/>samples = 8<br/>value = [1, 9]<br/>class = 1>, fillcolor="#4fa8e8"] ;
141 -> 167 ;
168 [label=<gini = 0.0<br/>samples = 7<br/>value = [0, 9]<br/>class = 1>, fillcolor="#399de5"] ;
167 -> 168 ;
169 [label=<gini = 0.0<br/>samples = 1<br/>value = [1, 0]<br/>class = 0>, fillcolor="#e58139"] ;
167 -> 169 ;
170 [label=<Glucose &le; 166.5<br/>gini = 0.387<br/>samples = 83<br/>value = [38, 107]<br/>class = 1>, fillcolor="#7fc0ee"] ;
0 -> 170 [labeldistance=2.5, labelangle=-45, headlabel="False"] ;
171 [label=<SkinThickness &le; 30.5<br/>gini = 0.464<br/>samples = 45<br/>value = [30, 52]<br/>class = 1>, fillcolor="#abd6f4"] ;
170 -> 171 ;
172 [label=<Glucose &le; 164.5<br/>gini = 0.355<br/>samples = 30<br/>value = [12, 40]<br/>class = 1>, fillcolor="#74baed"] ;
171 -> 172 ;
173 [label=<Age &le; 24.5<br/>gini = 0.298<br/>samples = 26<br/>value = [8, 36]<br/>class = 1>, fillcolor="#65b3eb"] ;
172 -> 173 ;
174 [label=<gini = 0.0<br/>samples = 3<br/>value = [4, 0]<br/>class = 0>, fillcolor="#e58139"] ;
173 -> 174 ;
175 [label=<BloodPressure &le; 75.5<br/>gini = 0.18<br/>samples = 23<br/>value = [4, 36]<br/>class = 1>, fillcolor="#4fa8e8"] ;
173 -> 175 ;
176 [label=<Insulin &le; 48.0<br/>gini = 0.087<br/>samples = 11<br/>value = [1, 21]<br/>class = 1>, fillcolor="#42a2e6"] ;
175 -> 176 ;
177 [label=<DiabetesPedigreeFunction &le; 0.314<br/>gini = 0.219<br/>samples = 5<br/>value = [1, 7]<br/>class = 1>, fillcolor="#55abe9"] ;
176 -> 177 ;
178 [label=<DiabetesPedigreeFunction &le; 0.267<br/>gini = 0.444<br/>samples = 3<br/>value = [1, 2]<br/>class = 1>, fillcolor="#9ccef2"] ;
177 -> 178 ;
179 [label=<gini = 0.0<br/>samples = 2<br/>value = [0, 2]<br/>class = 1>, fillcolor="#399de5"] ;
178 -> 179 ;
180 [label=<gini = 0.0<br/>samples = 1<br/>value = [1, 0]<br/>class = 0>, fillcolor="#e58139"] ;
178 -> 180 ;
181 [label=<gini = 0.0<br/>samples = 2<br/>value = [0, 5]<br/>class = 1>, fillcolor="#399de5"] ;
177 -> 181 ;
182 [label=<gini = 0.0<br/>samples = 6<br/>value = [0, 14]<br/>class = 1>, fillcolor="#399de5"] ;
176 -> 182 ;
183 [label=<Age &le; 39.5<br/>gini = 0.278<br/>samples = 12<br/>value = [3, 15]<br/>class = 1>, fillcolor="#61b1ea"] ;
175 -> 183 ;
184 [label=<Glucose &le; 157.0<br/>gini = 0.5<br/>samples = 2<br/>value = [2, 2]<br/>class = 0>, fillcolor="#ffffff"] ;
183 -> 184 ;
185 [label=<gini = 0.0<br/>samples = 1<br/>value = [2, 0]<br/>class = 0>, fillcolor="#e58139"] ;
184 -> 185 ;
186 [label=<gini = 0.0<br/>samples = 1<br/>value = [0, 2]<br/>class = 1>, fillcolor="#399de5"] ;
184 -> 186 ;
187 [label=<Glucose &le; 160.0<br/>gini = 0.133<br/>samples = 10<br/>value = [1, 13]<br/>class = 1>, fillcolor="#48a5e7"] ;
183 -> 187 ;
188 [label=<gini = 0.0<br/>samples = 7<br/>value = [0, 11]<br/>class = 1>, fillcolor="#399de5"] ;
187 -> 188 ;
189 [label=<BMI &le; 30.25<br/>gini = 0.444<br/>samples = 3<br/>value = [1, 2]<br/>class = 1>, fillcolor="#9ccef2"] ;
187 -> 189 ;
190 [label=<gini = 0.0<br/>samples = 1<br/>value = [1, 0]<br/>class = 0>, fillcolor="#e58139"] ;
189 -> 190 ;
191 [label=<gini = 0.0<br/>samples = 2<br/>value = [0, 2]<br/>class = 1>, fillcolor="#399de5"] ;
189 -> 191 ;
192 [label=<BloodPressure &le; 75.0<br/>gini = 0.5<br/>samples = 4<br/>value = [4, 4]<br/>class = 0>, fillcolor="#ffffff"] ;
172 -> 192 ;
193 [label=<BMI &le; 26.2<br/>gini = 0.32<br/>samples = 3<br/>value = [4, 1]<br/>class = 0>, fillcolor="#eca06a"] ;
192 -> 193 ;
194 [label=<gini = 0.0<br/>samples = 1<br/>value = [0, 1]<br/>class = 1>, fillcolor="#399de5"] ;
193 -> 194 ;
195 [label=<gini = 0.0<br/>samples = 2<br/>value = [4, 0]<br/>class = 0>, fillcolor="#e58139"] ;
193 -> 195 ;
196 [label=<gini = 0.0<br/>samples = 1<br/>value = [0, 3]<br/>class = 1>, fillcolor="#399de5"] ;
192 -> 196 ;
197 [label=<Age &le; 28.5<br/>gini = 0.48<br/>samples = 15<br/>value = [18, 12]<br/>class = 0>, fillcolor="#f6d5bd"] ;
171 -> 197 ;
198 [label=<gini = 0.0<br/>samples = 7<br/>value = [14, 0]<br/>class = 0>, fillcolor="#e58139"] ;
197 -> 198 ;
199 [label=<DiabetesPedigreeFunction &le; 0.265<br/>gini = 0.375<br/>samples = 8<br/>value = [4, 12]<br/>class = 1>, fillcolor="#7bbeee"] ;
197 -> 199 ;
200 [label=<gini = 0.0<br/>samples = 1<br/>value = [3, 0]<br/>class = 0>, fillcolor="#e58139"] ;
199 -> 200 ;
201 [label=<Pregnancies &le; 10.5<br/>gini = 0.142<br/>samples = 7<br/>value = [1, 12]<br/>class = 1>, fillcolor="#49a5e7"] ;
199 -> 201 ;
202 [label=<gini = 0.0<br/>samples = 4<br/>value = [0, 8]<br/>class = 1>, fillcolor="#399de5"] ;
201 -> 202 ;
203 [label=<Age &le; 41.0<br/>gini = 0.32<br/>samples = 3<br/>value = [1, 4]<br/>class = 1>, fillcolor="#6ab6ec"] ;
201 -> 203 ;
204 [label=<gini = 0.0<br/>samples = 1<br/>value = [1, 0]<br/>class = 0>, fillcolor="#e58139"] ;
203 -> 204 ;
205 [label=<gini = 0.0<br/>samples = 2<br/>value = [0, 4]<br/>class = 1>, fillcolor="#399de5"] ;
203 -> 205 ;
206 [label=<Insulin &le; 350.0<br/>gini = 0.222<br/>samples = 38<br/>value = [8, 55]<br/>class = 1>, fillcolor="#56abe9"] ;
170 -> 206 ;
207 [label=<DiabetesPedigreeFunction &le; 1.337<br/>gini = 0.117<br/>samples = 30<br/>value = [3, 45]<br/>class = 1>, fillcolor="#46a4e7"] ;
206 -> 207 ;
208 [label=<BMI &le; 31.05<br/>gini = 0.085<br/>samples = 28<br/>value = [2, 43]<br/>class = 1>, fillcolor="#42a2e6"] ;
207 -> 208 ;
209 [label=<Insulin &le; 65.0<br/>gini = 0.298<br/>samples = 8<br/>value = [2, 9]<br/>class = 1>, fillcolor="#65b3eb"] ;
208 -> 209 ;
210 [label=<gini = 0.0<br/>samples = 4<br/>value = [0, 6]<br/>class = 1>, fillcolor="#399de5"] ;
209 -> 210 ;
211 [label=<BMI &le; 30.3<br/>gini = 0.48<br/>samples = 4<br/>value = [2, 3]<br/>class = 1>, fillcolor="#bddef6"] ;
209 -> 211 ;
212 [label=<gini = 0.0<br/>samples = 3<br/>value = [0, 3]<br/>class = 1>, fillcolor="#399de5"] ;
211 -> 212 ;
213 [label=<gini = 0.0<br/>samples = 1<br/>value = [2, 0]<br/>class = 0>, fillcolor="#e58139"] ;
211 -> 213 ;
214 [label=<gini = 0.0<br/>samples = 20<br/>value = [0, 34]<br/>class = 1>, fillcolor="#399de5"] ;
208 -> 214 ;
215 [label=<Age &le; 35.0<br/>gini = 0.444<br/>samples = 2<br/>value = [1, 2]<br/>class = 1>, fillcolor="#9ccef2"] ;
207 -> 215 ;
216 [label=<gini = 0.0<br/>samples = 1<br/>value = [0, 2]<br/>class = 1>, fillcolor="#399de5"] ;
215 -> 216 ;
217 [label=<gini = 0.0<br/>samples = 1<br/>value = [1, 0]<br/>class = 0>, fillcolor="#e58139"] ;
215 -> 217 ;
218 [label=<BloodPressure &le; 55.0<br/>gini = 0.444<br/>samples = 8<br/>value = [5, 10]<br/>class = 1>, fillcolor="#9ccef2"] ;
206 -> 218 ;
219 [label=<gini = 0.0<br/>samples = 1<br/>value = [4, 0]<br/>class = 0>, fillcolor="#e58139"] ;
218 -> 219 ;
220 [label=<Pregnancies &le; 3.5<br/>gini = 0.165<br/>samples = 7<br/>value = [1, 10]<br/>class = 1>, fillcolor="#4da7e8"] ;
218 -> 220 ;
221 [label=<gini = 0.0<br/>samples = 5<br/>value = [0, 9]<br/>class = 1>, fillcolor="#399de5"] ;
220 -> 221 ;
222 [label=<Insulin &le; 619.5<br/>gini = 0.5<br/>samples = 2<br/>value = [1, 1]<br/>class = 0>, fillcolor="#ffffff"] ;
220 -> 222 ;
223 [label=<gini = 0.0<br/>samples = 1<br/>value = [0, 1]<br/>class = 1>, fillcolor="#399de5"] ;
222 -> 223 ;
224 [label=<gini = 0.0<br/>samples = 1<br/>value = [1, 0]<br/>class = 0>, fillcolor="#e58139"] ;
222 -> 224 ;
}