digraph Tree {
node [shape=box, style="filled, rounded", color="black", fontname="helvetica"] ;
edge [fontname="helvetica"] ;
0 [label=<Age &le; 28.5<br/>gini = 0.454<br/>samples = 397<br/>value = [400, 214]<br/>class = 0>, fillcolor="#f3c4a3"] ;
1 [label=<Glucose &le; 165.5<br/>gini = 0.309<br/>samples = 194<br/>value = [237.0, 56.0]<br/>class = 0>, fillcolor="#eb9f68"] ;
0 -> 1 [labeldistance=2.5, labelangle=45, headlabel="True"] ;
2 [label=<BloodPressure &le; 89.0<br/>gini = 0.24<br/>samples = 181<br/>value = [235, 38]<br/>class = 0>, fillcolor="#e99559"] ;
1 -> 2 ;
3 [label=<DiabetesPedigreeFunction &le; 0.904<br/>gini = 0.22<br/>samples = 171<br/>value = [222, 32]<br/>class = 0>, fillcolor="#e99356"] ;
2 -> 3 ;
4 [label=<Glucose &le; 106.5<br/>gini = 0.193<br/>samples = 162<br/>value = [214, 26]<br/>class = 0>, fillcolor="#e89051"] ;
3 -> 4 ;
5 [label=<Insulin &le; 96.5<br/>gini = 0.039<br/>samples = 73<br/>value = [98, 2]<br/>class = 0>, fillcolor="#e6843d"] ;
4 -> 5 ;
6 [label=<gini = 0.0<br/>samples = 60<br/>value = [84, 0]<br/>class = 0>, fillcolor="#e58139"] ;
5 -> 6 ;
7 [label=<BloodPressure &le; 42.0<br/>gini = 0.219<br/>samples = 13<br/>value = [14, 2]<br/>class = 0>, fillcolor="#e99355"] ;
5 -> 7 ;
8 [label=<gini = 0.0<br/>samples = 1<br/>value = [0, 1]<br/>class = 1>, fillcolor="#399de5"] ;
7 -> 8 ;
9 [label=<BMI &le; 37.45<br/>gini = 0.124<br/>samples = 12<br/>value = [14, 1]<br/>class = 0>, fillcolor="#e78a47"] ;
7 -> 9 ;
10 [label=<gini = 0.0<br/>samples = 9<br/>value = [12, 0]<br/>class = 0>, fillcolor="#e58139"] ;
9 -> 10 ;
11 [label=<Age &le; 22.5<br/>gini = 0.444<br/>samples = 3<br/>value = [2, 1]<br/>class = 0>, fillcolor="#f2c09c"] ;
9 -> 11 ;
12 [label=<gini = 0.0<br/>samples = 2<br/>value = [2, 0]<br/>class = 0>, fillcolor="#e58139"] ;
11 -> 12 ;
13 [label=<gini = 0.0<br/>samples = 1<br/>value = [0, 1]<br/>class = 1>, fillcolor="#399de5"] ;
11 -> 13 ;
14 [label=<BMI &le; 31.4<br/>gini = 0.284<br/>samples = 89<br/>value = [116.0, 24.0]<br/>class = 0>, fillcolor="#ea9b62"] ;
4 -> 14 ;
15 [label=<Age &le; 26.5<br/>gini = 0.121<br/>samples = 40<br/>value = [58, 4]<br/>class = 0>, fillcolor="#e78a47"] ;
14 -> 15 ;
16 [label=<SkinThickness &le; 13.5<br/>gini = 0.036<br/>samples = 36<br/>value = [54, 1]<br/>class = 0>, fillcolor="#e5833d"] ;
15 -> 16 ;
17 [label=<Glucose &le; 107.5<br/>gini = 0.091<br/>samples = 13<br/>value = [20, 1]<br/>class = 0>, fillcolor="#e68743"] ;
16 -> 17 ;
18 [label=<gini = 0.0<br/>samples = 1<br/>value = [0, 1]<br/>class = 1>, fillcolor="#399de5"] ;
17 -> 18 ;
19 [label=<gini = 0.0<br/>samples = 12<br/>value = [20, 0]<br/>class = 0>, fillcolor="#e58139"] ;
17 -> 19 ;
20 [label=<gini = 0.0<br/>samples = 23<br/>value = [34, 0]<br/>class = 0>, fillcolor="#e58139"] ;
16 -> 20 ;
21 [label=<Insulin &le; 48.0<br/>gini = 0.49<br/>samples = 4<br/>value = [4, 3]<br/>class = 0>, fillcolor="#f8e0ce"] ;
15 -> 21 ;
22 [label=<gini = 0.0<br/>samples = 1<br/>value = [3, 0]<br/>class = 0>, fillcolor="#e58139"] ;
21 -> 22 ;
23 [label=<BMI &le; 27.75<br/>gini = 0.375<br/>samples = 3<br/>value = [1, 3]<br/>class = 1>, fillcolor="#7bbeee"] ;
21 -> 23 ;
24 [label=<gini = 0.0<br/>samples = 2<br/>value = [0, 3]<br/>class = 1>, fillcolor="#399de5"] ;
23 -> 24 ;
25 [label=<gini = 0.0<br/>samples = 1<br/>value = [1, 0]<br/>class = 0>, fillcolor="#e58139"] ;
23 -> 25 ;
26 [label=<Age &le; 21.5<br/>gini = 0.381<br/>samples = 49<br/>value = [58, 20]<br/>class = 0>, fillcolor="#eeac7d"] ;
14 -> 26 ;
27 [label=<gini = 0.0<br/>samples = 3<br/>value = [0, 4]<br/>class = 1>, fillcolor="#399de5"] ;
26 -> 27 ;
28 [label=<SkinThickness &le; 5.5<br/>gini = 0.339<br/>samples = 46<br/>value = [58, 16]<br/>class = 0>, fillcolor="#eca470"] ;
26 -> 28 ;
29 [label=<BMI &le; 31.95<br/>gini = 0.494<br/>samples = 7<br/>value = [4, 5]<br/>class = 1>, fillcolor="#d7ebfa"] ;
28 -> 29 ;
30 [label=<gini = 0.0<br/>samples = 1<br/>value = [1, 0]<br/>class = 0>, fillcolor="#e58139"] ;
29 -> 30 ;
31 [label=<DiabetesPedigreeFunction &le; 0.291<br/>gini = 0.469<br/>samples = 6<br/>value = [3, 5]<br/>class = 1>, fillcolor="#b0d8f5"] ;
29 -> 31 ;
32 [label=<gini = 0.0<br/>samples = 3<br/>value = [0, 4]<br/>class = 1>, fillcolor="#399de5"] ;
31 -> 32 ;
33 [label=<BloodPressure &le; 75.0<br/>gini = 0.375<br/>samples = 3<br/>value = [3, 1]<br/>class = 0>, fillcolor="#eeab7b"] ;
31 -> 33 ;
34 [label=<gini = 0.0<br/>samples = 2<br/>value = [3, 0]<br/>class = 0>, fillcolor="#e58139"] ;
33 -> 34 ;
35 [label=<gini = 0.0<br/>samples = 1<br/>value = [0, 1]<br/>class = 1>, fillcolor="#399de5"] ;
33 -> 35 ;
36 [label=<Age &le; 23.5<br/>gini = 0.281<br/>samples = 39<br/>value = [54, 11]<br/>class = 0>, fillcolor="#ea9b61"] ;
28 -> 36 ;
37 [label=<gini = 0.0<br/>samples = 9<br/>value = [19, 0]<br/>class = 0>, fillcolor="#e58139"] ;
36 -> 37 ;
38 [label=<BloodPressure &le; 77.0<br/>gini = 0.364<br/>samples = 30<br/>value = [35, 11]<br/>class = 0>, fillcolor="#eda977"] ;
36 -> 38 ;
39 [label=<SkinThickness &le; 45.5<br/>gini = 0.459<br/>samples = 20<br/>value = [18, 10]<br/>class = 0>, fillcolor="#f3c7a7"] ;
38 -> 39 ;
40 [label=<Glucose &le; 125.5<br/>gini = 0.491<br/>samples = 17<br/>value = [13.0, 10.0]<br/>class = 0>, fillcolor="#f9e2d1"] ;
39 -> 40 ;
41 [label=<DiabetesPedigreeFunction &le; 0.214<br/>gini = 0.375<br/>samples = 10<br/>value = [12, 4]<br/>class = 0>, fillcolor="#eeab7b"] ;
40 -> 41 ;
42 [label=<gini = 0.0<br/>samples = 1<br/>value = [0, 2]<br/>class = 1>, fillcolor="#399de5"] ;
41 -> 42 ;
43 [label=<DiabetesPedigreeFunction &le; 0.728<br/>gini = 0.245<br/>samples = 9<br/>value = [12, 2]<br/>class = 0>, fillcolor="#e9965a"] ;
41 -> 43 ;
44 [label=<gini = 0.0<br/>samples = 7<br/>value = [10, 0]<br/>class = 0>, fillcolor="#e58139"] ;
43 -> 44 ;
45 [label=<Age &le; 26.5<br/>gini = 0.5<br/>samples = 2<br/>value = [2, 2]<br/>class = 0>, fillcolor="#ffffff"] ;
43 -> 45 ;
46 [label=<gini = 0.0<br/>samples = 1<br/>value = [0, 2]<br/>class = 1>, fillcolor="#399de5"] ;
45 -> 46 ;
47 [label=<gini = 0.0<br/>samples = 1<br/>value = [2, 0]<br/>class = 0>, fillcolor="#e58139"] ;
45 -> 47 ;
48 [label=<BloodPressure &le; 73.0<br/>gini = 0.245<br/>samples = 7<br/>value = [1, 6]<br/>class = 1>, fillcolor="#5aade9"] ;
40 -> 48 ;
49 [label=<gini = 0.0<br/>samples = 5<br/>value = [0, 5]<br/>class = 1>, fillcolor="#399de5"] ;
48 -> 49 ;
50 [label=<BloodPressure &le; 75.0<br/>gini = 0.5<br/>samples = 2<br/>value = [1, 1]<br/>class = 0>, fillcolor="#ffffff"] ;
48 -> 50 ;
51 [label=<gini = 0.0<br/>samples = 1<br/>value = [1, 0]<br/>class = 0>, fillcolor="#e58139"] ;
50 -> 51 ;
52 [label=<gini = 0.0<br/>samples = 1<br/>value = [0, 1]<br/>class = 1>, fillcolor="#399de5"] ;
50 -> 52 ;
53 [label=<gini = 0.0<br/>samples = 3<br/>value = [5, 0]<br/>class = 0>, fillcolor="#e58139"] ;
39 -> 53 ;
54 [label=<Pregnancies &le; 4.5<br/>gini = 0.105<br/>samples = 10<br/>value = [17, 1]<br/>class = 0>, fillcolor="#e78845"] ;
38 -> 54 ;
55 [label=<gini = 0.0<br/>samples = 8<br/>value = [16, 0]<br/>class = 0>, fillcolor="#e58139"] ;
54 -> 55 ;
56 [label=<Glucose &le; 146.5<br/>gini = 0.5<br/>samples = 2<br/>value = [1, 1]<br/>class = 0>, fillcolor="#ffffff"] ;
54 -> 56 ;
57 [label=<gini = 0.0<br/>samples = 1<br/>value = [0, 1]<br/>class = 1>, fillcolor="#399de5"] ;
56 -> 57 ;
58 [label=<gini = 0.0<br/>samples = 1<br/>value = [1, 0]<br/>class = 0>, fillcolor="#e58139"] ;
56 -> 58 ;
59 [label=<Pregnancies &le; 3.5<br/>gini = 0.49<br/>samples = 9<br/>value = [8, 6]<br/>class = 0>, fillcolor="#f8e0ce"] ;
3 -> 59 ;
60 [label=<BloodPressure &le; 25.0<br/>gini = 0.32<br/>samples = 7<br/>value = [8, 2]<br/>class = 0>, fillcolor="#eca06a"] ;
59 -> 60 ;
61 [label=<gini = 0.0<br/>samples = 1<br/>value = [0, 2]<br/>class = 1>, fillcolor="#399de5"] ;
60 -> 61 ;
62 [label=<gini = 0.0<br/>samples = 6<br/>value = [8, 0]<br/>class = 0>, fillcolor="#e58139"] ;
60 -> 62 ;
63 [label=<gini = 0.0<br/>samples = 2<br/>value = [0, 4]<br/>class = 1>, fillcolor="#399de5"] ;
59 -> 63 ;
64 [label=<DiabetesPedigreeFunction &le; 0.316<br/>gini = 0.432<br/>samples = 10<br/>value = [13, 6]<br/>class = 0>, fillcolor="#f1bb94"] ;
2 -> 64 ;
65 [label=<gini = 0.0<br/>samples = 4<br/>value = [8, 0]<br/>class = 0>, fillcolor="#e58139"] ;
64 -> 65 ;
66 [label=<Pregnancies &le; 2.0<br/>gini = 0.496<br/>samples = 6<br/>value = [5, 6]<br/>class = 1>, fillcolor="#deeffb"] ;
64 -> 66 ;
67 [label=<Age &le; 24.5<br/>gini = 0.245<br/>samples = 4<br/>value = [1, 6]<br/>class = 1>, fillcolor="#5aade9"] ;
66 -> 67 ;
68 [label=<Age &le; 22.0<br/>gini = 0.444<br/>samples = 2<br/>value = [1, 2]<br/>class = 1>, fillcolor="#9ccef2"] ;
67 -> 68 ;
69 [label=<gini = 0.0<br/>samples = 1<br/>value = [0, 2]<br/>class = 1>, fillcolor="#399de5"] ;
68 -> 69 ;
70 [label=<gini = 0.0<br/>samples = 1<br/>value = [1, 0]<br/>class = 0>, fillcolor="#e58139"] ;
68 -> 70 ;
71 [label=<gini = 0.0<br/>samples = 2<br/>value = [0, 4]<br/>class = 1>, fillcolor="#399de5"] ;
67 -> 71 ;
72 [label=<gini = 0.0<br/>samples = 2<br/>value = [4, 0]<br/>class = 0>, fillcolor="#e58139"] ;
66 -> 72 ;
73 [label=<BMI &le; 28.95<br/>gini = 0.18<br/>samples = 13<br/>value = [2, 18]<br/>class = 1>, fillcolor="#4fa8e8"] ;
1 -> 73 ;
74 [label=<gini = 0.0<br/>samples = 1<br/>value = [2, 0]<br/>class = 0>, fillcolor="#e58139"] ;
73 -> 74 ;
75 [label=<gini = 0.0<br/>samples = 12<br/>value = [0, 18]<br/>class = 1>, fillcolor="#399de5"] ;
73 -> 75 ;
76 [label=<BMI &le; 26.95<br/>gini = 0.5<br/>samples = 203<br/>value = [163.0, 158.0]<br/>class = 0>, fillcolor="#fefbf9"] ;
0 -> 76 [labeldistance=2.5, labelangle=-45, headlabel="False"] ;
77 [label=<BloodPressure &le; 86.0<br/>gini = 0.245<br/>samples = 37<br/>value = [54, 9]<br/>class = 0>, fillcolor="#e9965a"] ;
76 -> 77 ;
78 [label=<BloodPressure &le; 64.0<br/>gini = 0.185<br/>samples = 34<br/>value = [52, 6]<br/>class = 0>, fillcolor="#e89050"] ;
77 -> 78 ;
79 [label=<BMI &le; 24.15<br/>gini = 0.363<br/>samples = 11<br/>value = [16, 5]<br/>class = 0>, fillcolor="#eda877"] ;
78 -> 79 ;
80 [label=<gini = 0.0<br/>samples = 6<br/>value = [11, 0]<br/>class = 0>, fillcolor="#e58139"] ;
79 -> 80 ;
81 [label=<BloodPressure &le; 61.0<br/>gini = 0.5<br/>samples = 5<br/>value = [5, 5]<br/>class = 0>, fillcolor="#ffffff"] ;
79 -> 81 ;
82 [label=<Glucose &le; 102.5<br/>gini = 0.375<br/>samples = 3<br/>value = [3, 1]<br/>class = 0>, fillcolor="#eeab7b"] ;
81 -> 82 ;
83 [label=<gini = 0.0<br/>samples = 2<br/>value = [3, 0]<br/>class = 0>, fillcolor="#e58139"] ;
82 -> 83 ;
84 [label=<gini = 0.0<br/>samples = 1<br/>value = [0, 1]<br/>class = 1>, fillcolor="#399de5"] ;
82 -> 84 ;
85 [label=<Glucose &le; 127.0<br/>gini = 0.444<br/>samples = 2<br/>value = [2, 4]<br/>class = 1>, fillcolor="#9ccef2"] ;
81 -> 85 ;
86 [label=<gini = 0.0<br/>samples = 1<br/>value = [2, 0]<br/>class = 0>, fillcolor="#e58139"] ;
85 -> 86 ;
87 [label=<gini = 0.0<br/>samples = 1<br/>value = [0, 4]<br/>class = 1>, fillcolor="#399de5"] ;
85 -> 87 ;
88 [label=<Insulin &le; 155.0<br/>gini = 0.053<br/>samples = 23<br/>value = [36, 1]<br/>class = 0>, fillcolor="#e6843e"] ;
78 -> 88 ;
89 [label=<gini = 0.0<br/>samples = 21<br/>value = [35, 0]<br/>class = 0>, fillcolor="#e58139"] ;
88 -> 89 ;
90 [label=<Insulin &le; 195.0<br/>gini = 0.5<br/>samples = 2<br/>value = [1, 1]<br/>class = 0>, fillcolor="#ffffff"] ;
88 -> 90 ;
91 [label=<gini = 0.0<br/>samples = 1<br/>value = [0, 1]<br/>class = 1>, fillcolor="#399de5"] ;
90 -> 91 ;
92 [label=<gini = 0.0<br/>samples = 1<br/>value = [1, 0]<br/>class = 0>, fillcolor="#e58139"] ;
90 -> 92 ;
93 [label=<Insulin &le; 14.5<br/>gini = 0.48<br/>samples = 3<br/>value = [2, 3]<br/>class = 1>, fillcolor="#bddef6"] ;
77 -> 93 ;
94 [label=<Age &le; 44.0<br/>gini = 0.5<br/>samples = 2<br/>value = [2, 2]<br/>class = 0>, fillcolor="#ffffff"] ;
93 -> 94 ;
95 [label=<gini = 0.0<br/>samples = 1<br/>value = [2, 0]<br/>class = 0>, fillcolor="#e58139"] ;
94 -> 95 ;
96 [label=<gini = 0.0<br/>samples = 1<br/>value = [0, 2]<br/>class = 1>, fillcolor="#399de5"] ;
94 -> 96 ;
97 [label=<gini = 0.0<br/>samples = 1<br/>value = [0, 1]<br/>class = 1>, fillcolor="#399de5"] ;
93 -> 97 ;
98 [label=<DiabetesPedigreeFunction &le; 0.309<br/>gini = 0.488<br/>samples = 166<br/>value = [109, 149]<br/>class = 1>, fillcolor="#cae5f8"] ;
76 -> 98 ;
99 [label=<Glucose &le; 100.5<br/>gini = 0.497<br/>samples = 65<br/>value = [55, 47]<br/>class = 0>, fillcolor="#fbede2"] ;
98 -> 99 ;
100 [label=<SkinThickness &le; 31.5<br/>gini = 0.18<br/>samples = 15<br/>value = [18, 2]<br/>class = 0>, fillcolor="#e88f4f"] ;
99 -> 100 ;
101 [label=<BMI &le; 29.9<br/>gini = 0.32<br/>samples = 8<br/>value = [8, 2]<br/>class = 0>, fillcolor="#eca06a"] ;
100 -> 101 ;
102 [label=<gini = 0.0<br/>samples = 1<br/>value = [0, 1]<br/>class = 1>, fillcolor="#399de5"] ;
101 -> 102 ;
103 [label=<Glucose &le; 92.0<br/>gini = 0.198<br/>samples = 7<br/>value = [8, 1]<br/>class = 0>, fillcolor="#e89152"] ;
101 -> 103 ;
104 [label=<gini = 0.0<br/>samples = 6<br/>value = [8, 0]<br/>class = 0>, fillcolor="#e58139"] ;
103 -> 104 ;
105 [label=<gini = 0.0<br/>samples = 1<br/>value = [0, 1]<br/>class = 1>, fillcolor="#399de5"] ;
103 -> 105 ;
106 [label=<gini = 0.0<br/>samples = 7<br/>value = [10, 0]<br/>class = 0>, fillcolor="#e58139"] ;
100 -> 106 ;
107 [label=<Glucose &le; 183.0<br/>gini = 0.495<br/>samples = 50<br/>value = [37, 45]<br/>class = 1>, fillcolor="#dceefa"] ;
99 -> 107 ;
108 [label=<BloodPressure &le; 83.0<br/>gini = 0.5<br/>samples = 46<br/>value = [37, 36]<br/>class = 0>, fillcolor="#fefcfa"] ;
107 -> 108 ;
109 [label=<Insulin &le; 201.5<br/>gini = 0.476<br/>samples = 37<br/>value = [23, 36]<br/>class = 1>, fillcolor="#b8dcf6"] ;
108 -> 109 ;
110 [label=<DiabetesPedigreeFunction &le; 0.299<br/>gini = 0.449<br/>samples = 34<br/>value = [18, 35]<br/>class = 1>, fillcolor="#9fcff2"] ;
109 -> 110 ;
111 [label=<DiabetesPedigreeFunction &le; 0.111<br/>gini = 0.42<br/>samples = 33<br/>value = [15, 35]<br/>class = 1>, fillcolor="#8ec7f0"] ;
110 -> 111 ;
112 [label=<gini = 0.0<br/>samples = 1<br/>value = [2, 0]<br/>class = 0>, fillcolor="#e58139"] ;
111 -> 112 ;
113 [label=<Age &le; 44.0<br/>gini = 0.395<br/>samples = 32<br/>value = [13, 35]<br/>class = 1>, fillcolor="#83c1ef"] ;
111 -> 113 ;
114 [label=<SkinThickness &le; 41.0<br/>gini = 0.245<br/>samples = 23<br/>value = [5, 30]<br/>class = 1>, fillcolor="#5aade9"] ;
113 -> 114 ;
115 [label=<Age &le; 36.5<br/>gini = 0.208<br/>samples = 22<br/>value = [4, 30]<br/>class = 1>, fillcolor="#53aae8"] ;
114 -> 115 ;
116 [label=<gini = 0.0<br/>samples = 8<br/>value = [0, 15]<br/>class = 1>, fillcolor="#399de5"] ;
115 -> 116 ;
117 [label=<DiabetesPedigreeFunction &le; 0.203<br/>gini = 0.332<br/>samples = 14<br/>value = [4, 15]<br/>class = 1>, fillcolor="#6eb7ec"] ;
115 -> 117 ;
118 [label=<BMI &le; 35.0<br/>gini = 0.5<br/>samples = 3<br/>value = [2, 2]<br/>class = 0>, fillcolor="#ffffff"] ;
117 -> 118 ;
119 [label=<gini = 0.0<br/>samples = 1<br/>value = [0, 1]<br/>class = 1>, fillcolor="#399de5"] ;
118 -> 119 ;
120 [label=<Age &le; 40.0<br/>gini = 0.444<br/>samples = 2<br/>value = [2, 1]<br/>class = 0>, fillcolor="#f2c09c"] ;
118 -> 120 ;
121 [label=<gini = 0.0<br/>samples = 1<br/>value = [2, 0]<br/>class = 0>, fillcolor="#e58139"] ;
120 -> 121 ;
122 [label=<gini = 0.0<br/>samples = 1<br/>value = [0, 1]<br/>class = 1>, fillcolor="#399de5"] ;
120 -> 122 ;
123 [label=<SkinThickness &le; 28.0<br/>gini = 0.231<br/>samples = 11<br/>value = [2, 13]<br/>class = 1>, fillcolor="#57ace9"] ;
117 -> 123 ;
124 [label=<BMI &le; 29.35<br/>gini = 0.153<br/>samples = 9<br/>value = [1, 11]<br/>class = 1>, fillcolor="#4ba6e7"] ;
123 -> 124 ;
125 [label=<gini = 0.0<br/>samples = 1<br/>value = [1, 0]<br/>class = 0>, fillcolor="#e58139"] ;
124 -> 125 ;
126 [label=<gini = 0.0<br/>samples = 8<br/>value = [0, 11]<br/>class = 1>, fillcolor="#399de5"] ;
124 -> 126 ;
127 [label=<Age &le; 39.0<br/>gini = 0.444<br/>samples = 2<br/>value = [1, 2]<br/>class = 1>, fillcolor="#9ccef2"] ;
123 -> 127 ;
128 [label=<gini = 0.0<br/>samples = 1<br/>value = [1, 0]<br/>class = 0>, fillcolor="#e58139"] ;
127 -> 128 ;
129 [label=<gini = 0.0<br/>samples = 1<br/>value = [0, 2]<br/>class = 1>, fillcolor="#399de5"] ;
127 -> 129 ;
130 [label=<gini = 0.0<br/>samples = 1<br/>value = [1, 0]<br/>class = 0>, fillcolor="#e58139"] ;
114 -> 130 ;
131 [label=<DiabetesPedigreeFunction &le; 0.255<br/>gini = 0.473<br/>samples = 9<br/>value = [8, 5]<br/>class = 0>, fillcolor="#f5d0b5"] ;
113 -> 131 ;
132 [label=<BloodPressure &le; 81.0<br/>gini = 0.32<br/>samples = 8<br/>value = [8, 2]<br/>class = 0>, fillcolor="#eca06a"] ;
131 -> 132 ;
133 [label=<BloodPressure &le; 77.0<br/>gini = 0.198<br/>samples = 7<br/>value = [8, 1]<br/>class = 0>, fillcolor="#e89152"] ;
132 -> 133 ;
134 [label=<Pregnancies &le; 6.5<br/>gini = 0.278<br/>samples = 4<br/>value = [5, 1]<br/>class = 0>, fillcolor="#ea9a61"] ;
133 -> 134 ;
135 [label=<gini = 0.0<br/>samples = 1<br/>value = [0, 1]<br/>class = 1>, fillcolor="#399de5"] ;
134 -> 135 ;
136 [label=<gini = 0.0<br/>samples = 3<br/>value = [5, 0]<br/>class = 0>, fillcolor="#e58139"] ;
134 -> 136 ;
137 [label=<gini = 0.0<br/>samples = 3<br/>value = [3, 0]<br/>class = 0>, fillcolor="#e58139"] ;
133 -> 137 ;
138 [label=<gini = 0.0<br/>samples = 1<br/>value = [0, 1]<br/>class = 1>, fillcolor="#399de5"] ;
132 -> 138 ;
139 [label=<gini = 0.0<br/>samples = 1<br/>value = [0, 3]<br/>class = 1>, fillcolor="#399de5"] ;
131 -> 139 ;
140 [label=<gini = 0.0<br/>samples = 1<br/>value = [3, 0]<br/>class = 0>, fillcolor="#e58139"] ;
110 -> 140 ;
141 [label=<Glucose &le; 139.0<br/>gini = 0.278<br/>samples = 3<br/>value = [5, 1]<br/>class = 0>, fillcolor="#ea9a61"] ;
109 -> 141 ;
142 [label=<gini = 0.0<br/>samples = 1<br/>value = [0, 1]<br/>class = 1>, fillcolor="#399de5"] ;
141 -> 142 ;
143 [label=<gini = 0.0<br/>samples = 2<br/>value = [5, 0]<br/>class = 0>, fillcolor="#e58139"] ;
141 -> 143 ;
144 [label=<gini = 0.0<br/>samples = 9<br/>value = [14, 0]<br/>class = 0>, fillcolor="#e58139"] ;
108 -> 144 ;
145 [label=<gini = 0.0<br/>samples = 4<br/>value = [0, 9]<br/>class = 1>, fillcolor="#399de5"] ;
107 -> 145 ;
146 [label=<DiabetesPedigreeFunction &le; 1.381<br/>gini = 0.453<br/>samples = 101<br/>value = [54, 102]<br/>class = 1>, fillcolor="#a2d1f3"] ;
98 -> 146 ;
147 [label=<Age &le; 42.5<br/>gini = 0.438<br/>samples = 98<br/>value = [49, 102]<br/>class = 1>, fillcolor="#98ccf1"] ;
146 -> 147 ;
148 [label=<SkinThickness &le; 38.0<br/>gini = 0.487<br/>samples = 66<br/>value = [42.0, 58.0]<br/>class = 1>, fillcolor="#c8e4f8"] ;
147 -> 148 ;
149 [label=<BMI &le; 29.9<br/>gini = 0.45<br/>samples = 50<br/>value = [26, 50]<br/>class = 1>, fillcolor="#a0d0f3"] ;
148 -> 149 ;
150 [label=<DiabetesPedigreeFunction &le; 0.41<br/>gini = 0.475<br/>samples = 12<br/>value = [11, 7]<br/>class = 0>, fillcolor="#f6d1b7"] ;
149 -> 150 ;
151 [label=<gini = 0.0<br/>samples = 4<br/>value = [0, 6]<br/>class = 1>, fillcolor="#399de5"] ;
150 -> 151 ;
152 [label=<BMI &le; 27.45<br/>gini = 0.153<br/>samples = 8<br/>value = [11, 1]<br/>class = 0>, fillcolor="#e78c4b"] ;
150 -> 152 ;
153 [label=<gini = 0.0<br/>samples = 1<br/>value = [0, 1]<br/>class = 1>, fillcolor="#399de5"] ;
152 -> 153 ;
154 [label=<gini = 0.0<br/>samples = 7<br/>value = [11, 0]<br/>class = 0>, fillcolor="#e58139"] ;
152 -> 154 ;
155 [label=<Pregnancies &le; 3.5<br/>gini = 0.383<br/>samples = 38<br/>value = [15.0, 43.0]<br/>class = 1>, fillcolor="#7ebfee"] ;
149 -> 155 ;
156 [label=<Glucose &le; 137.0<br/>gini = 0.137<br/>samples = 16<br/>value = [2, 25]<br/>class = 1>, fillcolor="#49a5e7"] ;
155 -> 156 ;
157 [label=<DiabetesPedigreeFunction &le; 0.697<br/>gini = 0.298<br/>samples = 6<br/>value = [2, 9]<br/>class = 1>, fillcolor="#65b3eb"] ;
156 -> 157 ;
158 [label=<BMI &le; 39.0<br/>gini = 0.198<br/>samples = 4<br/>value = [1, 8]<br/>class = 1>, fillcolor="#52a9e8"] ;
157 -> 158 ;
159 [label=<gini = 0.0<br/>samples = 3<br/>value = [0, 8]<br/>class = 1>, fillcolor="#399de5"] ;
158 -> 159 ;
160 [label=<gini = 0.0<br/>samples = 1<br/>value = [1, 0]<br/>class = 0>, fillcolor="#e58139"] ;
158 -> 160 ;
161 [label=<Age &le; 30.0<br/>gini = 0.5<br/>samples = 2<br/>value = [1, 1]<br/>class = 0>, fillcolor="#ffffff"] ;
157 -> 161 ;
162 [label=<gini = 0.0<br/>samples = 1<br/>value = [1, 0]<br/>class = 0>, fillcolor="#e58139"] ;
161 -> 162 ;
163 [label=<gini = 0.0<br/>samples = 1<br/>value = [0, 1]<br/>class = 1>, fillcolor="#399de5"] ;
161 -> 163 ;
164 [label=<gini = 0.0<br/>samples = 10<br/>value = [0, 16]<br/>class = 1>, fillcolor="#399de5"] ;
156 -> 164 ;
165 [label=<Pregnancies &le; 10.5<br/>gini = 0.487<br/>samples = 22<br/>value = [13, 18]<br/>class = 1>, fillcolor="#c8e4f8"] ;
155 -> 165 ;
166 [label=<DiabetesPedigreeFunction &le; 0.736<br/>gini = 0.471<br/>samples = 20<br/>value = [11, 18]<br/>class = 1>, fillcolor="#b2d9f5"] ;
165 -> 166 ;
167 [label=<SkinThickness &le; 28.5<br/>gini = 0.488<br/>samples = 14<br/>value = [11, 8]<br/>class = 0>, fillcolor="#f8ddc9"] ;
166 -> 167 ;
168 [label=<Age &le; 29.5<br/>gini = 0.408<br/>samples = 10<br/>value = [10, 4]<br/>class = 0>, fillcolor="#efb388"] ;
167 -> 168 ;
169 [label=<gini = 0.0<br/>samples = 1<br/>value = [0, 1]<br/>class = 1>, fillcolor="#399de5"] ;
168 -> 169 ;
170 [label=<SkinThickness &le; 11.5<br/>gini = 0.355<br/>samples = 9<br/>value = [10, 3]<br/>class = 0>, fillcolor="#eda774"] ;
168 -> 170 ;
171 [label=<BMI &le; 30.6<br/>gini = 0.444<br/>samples = 6<br/>value = [6, 3]<br/>class = 0>, fillcolor="#f2c09c"] ;
170 -> 171 ;
172 [label=<gini = 0.0<br/>samples = 1<br/>value = [0, 2]<br/>class = 1>, fillcolor="#399de5"] ;
171 -> 172 ;
173 [label=<BMI &le; 38.3<br/>gini = 0.245<br/>samples = 5<br/>value = [6, 1]<br/>class = 0>, fillcolor="#e9965a"] ;
171 -> 173 ;
174 [label=<gini = 0.0<br/>samples = 3<br/>value = [5, 0]<br/>class = 0>, fillcolor="#e58139"] ;
173 -> 174 ;
175 [label=<DiabetesPedigreeFunction &le; 0.573<br/>gini = 0.5<br/>samples = 2<br/>value = [1, 1]<br/>class = 0>, fillcolor="#ffffff"] ;
173 -> 175 ;
176 [label=<gini = 0.0<br/>samples = 1<br/>value = [0, 1]<br/>class = 1>, fillcolor="#399de5"] ;
175 -> 176 ;
177 [label=<gini = 0.0<br/>samples = 1<br/>value = [1, 0]<br/>class = 0>, fillcolor="#e58139"] ;
175 -> 177 ;
178 [label=<gini = 0.0<br/>samples = 3<br/>value = [4, 0]<br/>class = 0>, fillcolor="#e58139"] ;
170 -> 178 ;
179 [label=<BloodPressure &le; 71.0<br/>gini = 0.32<br/>samples = 4<br/>value = [1, 4]<br/>class = 1>, fillcolor="#6ab6ec"] ;
167 -> 179 ;
180 [label=<gini = 0.0<br/>samples = 1<br/>value = [1, 0]<br/>class = 0>, fillcolor="#e58139"] ;
179 -> 180 ;
181 [label=<gini = 0.0<br/>samples = 3<br/>value = [0, 4]<br/>class = 1>, fillcolor="#399de5"] ;
179 -> 181 ;
182 [label=<gini = 0.0<br/>samples = 6<br/>value = [0, 10]<br/>class = 1>, fillcolor="#399de5"] ;
166 -> 182 ;
183 [label=<gini = 0.0<br/>samples = 2<br/>value = [2, 0]<br/>class = 0>, fillcolor="#e58139"] ;
165 -> 183 ;
184 [label=<Insulin &le; 112.0<br/>gini = 0.444<br/>samples = 16<br/>value = [16, 8]<br/>class = 0>, fillcolor="#f2c09c"] ;
148 -> 184 ;
185 [label=<SkinThickness &le; 40.0<br/>gini = 0.26<br/>samples = 9<br/>value = [11, 2]<br/>class = 0>, fillcolor="#ea985d"] ;
184 -> 185 ;
186 [label=<gini = 0.0<br/>samples = 2<br/>value = [5, 0]<br/>class = 0>, fillcolor="#e58139"] ;
185 -> 186 ;
187 [label=<BloodPressure &le; 69.0<br/>gini = 0.375<br/>samples = 7<br/>value = [6, 2]<br/>class = 0>, fillcolor="#eeab7b"] ;
185 -> 187 ;
188 [label=<gini = 0.0<br/>samples = 1<br/>value = [0, 1]<br/>class = 1>, fillcolor="#399de5"] ;
187 -> 188 ;
189 [label=<DiabetesPedigreeFunction &le; 1.208<br/>gini = 0.245<br/>samples = 6<br/>value = [6, 1]<br/>class = 0>, fillcolor="#e9965a"] ;
187 -> 189 ;
190 [label=<gini = 0.0<br/>samples = 5<br/>value = [6, 0]<br/>class = 0>, fillcolor="#e58139"] ;
189 -> 190 ;
191 [label=<gini = 0.0<br/>samples = 1<br/>value = [0, 1]<br/>class = 1>, fillcolor="#399de5"] ;
189 -> 191 ;
192 [label=<SkinThickness &le; 42.5<br/>gini = 0.496<br/>samples = 7<br/>value = [5, 6]<br/>class = 1>, fillcolor="#deeffb"] ;
184 -> 192 ;
193 [label=<gini = 0.0<br/>samples = 3<br/>value = [0, 3]<br/>class = 1>, fillcolor="#399de5"] ;
192 -> 193 ;
194 [label=<Glucose &le; 120.5<br/>gini = 0.469<br/>samples = 4<br/>value = [5, 3]<br/>class = 0>, fillcolor="#f5cdb0"] ;
192 -> 194 ;
195 [label=<gini = 0.0<br/>samples = 1<br/>value = [0, 2]<br/>class = 1>, fillcolor="#399de5"] ;
194 -> 195 ;
196 [label=<Age &le; 33.0<br/>gini = 0.278<br/>samples = 3<br/>value = [5, 1]<br/>class = 0>, fillcolor="#ea9a61"] ;
194 -> 196 ;
197 [label=<gini = 0.0<br/>samples = 1<br/>value = [0, 1]<br/>class = 1>, fillcolor="#399de5"] ;
196 -> 197 ;
198 [label=<gini = 0.0<br/>samples = 2<br/>value = [5, 0]<br/>class = 0>, fillcolor="#e58139"] ;
196 -> 198 ;
199 [label=<BloodPressure &le; 69.0<br/>gini = 0.237<br/>samples = 32<br/>value = [7.0, 44.0]<br/>class = 1>, fillcolor="#58ade9"] ;
147 -> 199 ;
200 [label=<Age &le; 48.0<br/>gini = 0.49<br/>samples = 6<br/>value = [3, 4]<br/>class = 1>, fillcolor="#cee6f8"] ;
199 -> 200 ;
201 [label=<gini = 0.0<br/>samples = 4<br/>value = [0, 4]<br/>class = 1>, fillcolor="#399de5"] ;
200 -> 201 ;
202 [label=<gini = 0.0<br/>samples = 2<br/>value = [3, 0]<br/>class = 0>, fillcolor="#e58139"] ;
200 -> 202 ;
203 [label=<Age &le; 62.5<br/>gini = 0.165<br/>samples = 26<br/>value = [4, 40]<br/>class = 1>, fillcolor="#4da7e8"] ;
199 -> 203 ;
204 [label=<Glucose &le; 89.0<br/>gini = 0.048<br/>samples = 24<br/>value = [1, 40]<br/>class = 1>, fillcolor="#3e9fe6"] ;
203 -> 204 ;
205 [label=<gini = 0.0<br/>samples = 1<br/>value = [1, 0]<br/>class = 0>, fillcolor="#e58139"] ;
204 -> 205 ;
206 [label=<gini = 0.0<br/>samples = 23<br/>value = [0, 40]<br/>class = 1>, fillcolor="#399de5"] ;
204 -> 206 ;
207 [label=<gini = 0.0<br/>samples = 2<br/>value = [3, 0]<br/>class = 0>, fillcolor="#e58139"] ;
203 -> 207 ;
208 [label=<gini = 0.0<br/>samples = 3<br/>value = [5, 0]<br/>class = 0>, fillcolor="#e58139"] ;
146 -> 208 ;
}