digraph Tree {
node [shape=box, style="filled, rounded", color="black", fontname="helvetica"] ;
edge [fontname="helvetica"] ;
0 [label=<Pregnancies &le; 6.5<br/>gini = 0.463<br/>samples = 373<br/>value = [390.0, 224.0]<br/>class = 0>, fillcolor="#f4c9ab"] ;
1 [label=<Age &le; 31.5<br/>gini = 0.426<br/>samples = 298<br/>value = [336, 149]<br/>class = 0>, fillcolor="#f1b991"] ;
0 -> 1 [labeldistance=2.5, labelangle=45, headlabel="True"] ;
2 [label=<BMI &le; 31.4<br/>gini = 0.338<br/>samples = 217<br/>value = [280, 77]<br/>class = 0>, fillcolor="#eca46f"] ;
1 -> 2 ;
3 [label=<SkinThickness &le; 13.5<br/>gini = 0.11<br/>samples = 106<br/>value = [162, 10]<br/>class = 0>, fillcolor="#e78945"] ;
2 -> 3 ;
4 [label=<Insulin &le; 49.0<br/>gini = 0.242<br/>samples = 43<br/>value = [61, 10]<br/>class = 0>, fillcolor="#e99659"] ;
3 -> 4 ;
5 [label=<BMI &le; 29.3<br/>gini = 0.306<br/>samples = 34<br/>value = [43, 10]<br/>class = 0>, fillcolor="#eb9e67"] ;
4 -> 5 ;
6 [label=<Pregnancies &le; 1.5<br/>gini = 0.172<br/>samples = 28<br/>value = [38, 4]<br/>class = 0>, fillcolor="#e88e4e"] ;
5 -> 6 ;
7 [label=<gini = 0.0<br/>samples = 12<br/>value = [22, 0]<br/>class = 0>, fillcolor="#e58139"] ;
6 -> 7 ;
8 [label=<Insulin &le; 24.0<br/>gini = 0.32<br/>samples = 16<br/>value = [16, 4]<br/>class = 0>, fillcolor="#eca06a"] ;
6 -> 8 ;
9 [label=<DiabetesPedigreeFunction &le; 0.355<br/>gini = 0.266<br/>samples = 15<br/>value = [16, 3]<br/>class = 0>, fillcolor="#ea995e"] ;
8 -> 9 ;
10 [label=<Age &le; 27.5<br/>gini = 0.124<br/>samples = 11<br/>value = [14, 1]<br/>class = 0>, fillcolor="#e78a47"] ;
9 -> 10 ;
11 [label=<gini = 0.0<br/>samples = 8<br/>value = [11, 0]<br/>class = 0>, fillcolor="#e58139"] ;
10 -> 11 ;
12 [label=<Glucose &le; 131.5<br/>gini = 0.375<br/>samples = 3<br/>value = [3, 1]<br/>class = 0>, fillcolor="#eeab7b"] ;
10 -> 12 ;
13 [label=<gini = 0.0<br/>samples = 2<br/>value = [3, 0]<br/>class = 0>, fillcolor="#e58139"] ;
12 -> 13 ;
14 [label=<gini = 0.0<br/>samples = 1<br/>value = [0, 1]<br/>class = 1>, fillcolor="#399de5"] ;
12 -> 14 ;
15 [label=<Age &le; 23.5<br/>gini = 0.5<br/>samples = 4<br/>value = [2, 2]<br/>class = 0>, fillcolor="#ffffff"] ;
9 -> 15 ;
16 [label=<gini = 0.0<br/>samples = 1<br/>value = [0, 1]<br/>class = 1>, fillcolor="#399de5"] ;
15 -> 16 ;
17 [label=<Pregnancies &le; 5.0<br/>gini = 0.444<br/>samples = 3<br/>value = [2, 1]<br/>class = 0>, fillcolor="#f2c09c"] ;
15 -> 17 ;
18 [label=<gini = 0.0<br/>samples = 2<br/>value = [2, 0]<br/>class = 0>, fillcolor="#e58139"] ;
17 -> 18 ;
19 [label=<gini = 0.0<br/>samples = 1<br/>value = [0, 1]<br/>class = 1>, fillcolor="#399de5"] ;
17 -> 19 ;
20 [label=<gini = 0.0<br/>samples = 1<br/>value = [0, 1]<br/>class = 1>, fillcolor="#399de5"] ;
8 -> 20 ;
21 [label=<Age &le; 29.5<br/>gini = 0.496<br/>samples = 6<br/>value = [5, 6]<br/>class = 1>, fillcolor="#deeffb"] ;
5 -> 21 ;
22 [label=<DiabetesPedigreeFunction &le; 0.732<br/>gini = 0.469<br/>samples = 5<br/>value = [5, 3]<br/>class = 0>, fillcolor="#f5cdb0"] ;
21 -> 22 ;
23 [label=<Glucose &le; 164.0<br/>gini = 0.278<br/>samples = 3<br/>value = [5, 1]<br/>class = 0>, fillcolor="#ea9a61"] ;
22 -> 23 ;
24 [label=<gini = 0.0<br/>samples = 2<br/>value = [5, 0]<br/>class = 0>, fillcolor="#e58139"] ;
23 -> 24 ;
25 [label=<gini = 0.0<br/>samples = 1<br/>value = [0, 1]<br/>class = 1>, fillcolor="#399de5"] ;
23 -> 25 ;
26 [label=<gini = 0.0<br/>samples = 2<br/>value = [0, 2]<br/>class = 1>, fillcolor="#399de5"] ;
22 -> 26 ;
27 [label=<gini = 0.0<br/>samples = 1<br/>value = [0, 3]<br/>class = 1>, fillcolor="#399de5"] ;
21 -> 27 ;
28 [label=<gini = 0.0<br/>samples = 9<br/>value = [18, 0]<br/>class = 0>, fillcolor="#e58139"] ;
4 -> 28 ;
29 [label=<gini = 0.0<br/>samples = 63<br/>value = [101, 0]<br/>class = 0>, fillcolor="#e58139"] ;
3 -> 29 ;
30 [label=<Glucose &le; 127.5<br/>gini = 0.462<br/>samples = 111<br/>value = [118, 67]<br/>class = 0>, fillcolor="#f4c9a9"] ;
2 -> 30 ;
31 [label=<SkinThickness &le; 41.5<br/>gini = 0.259<br/>samples = 68<br/>value = [94, 17]<br/>class = 0>, fillcolor="#ea985d"] ;
30 -> 31 ;
32 [label=<Insulin &le; 9.0<br/>gini = 0.213<br/>samples = 58<br/>value = [87, 12]<br/>class = 0>, fillcolor="#e99254"] ;
31 -> 32 ;
33 [label=<Age &le; 23.5<br/>gini = 0.339<br/>samples = 20<br/>value = [29, 8]<br/>class = 0>, fillcolor="#eca470"] ;
32 -> 33 ;
34 [label=<BloodPressure &le; 65.0<br/>gini = 0.444<br/>samples = 5<br/>value = [2, 4]<br/>class = 1>, fillcolor="#9ccef2"] ;
33 -> 34 ;
35 [label=<gini = 0.0<br/>samples = 1<br/>value = [0, 1]<br/>class = 1>, fillcolor="#399de5"] ;
34 -> 35 ;
36 [label=<BloodPressure &le; 71.0<br/>gini = 0.48<br/>samples = 4<br/>value = [2, 3]<br/>class = 1>, fillcolor="#bddef6"] ;
34 -> 36 ;
37 [label=<gini = 0.0<br/>samples = 1<br/>value = [1, 0]<br/>class = 0>, fillcolor="#e58139"] ;
36 -> 37 ;
38 [label=<Glucose &le; 101.5<br/>gini = 0.375<br/>samples = 3<br/>value = [1, 3]<br/>class = 1>, fillcolor="#7bbeee"] ;
36 -> 38 ;
39 [label=<gini = 0.0<br/>samples = 1<br/>value = [1, 0]<br/>class = 0>, fillcolor="#e58139"] ;
38 -> 39 ;
40 [label=<gini = 0.0<br/>samples = 2<br/>value = [0, 3]<br/>class = 1>, fillcolor="#399de5"] ;
38 -> 40 ;
41 [label=<Glucose &le; 118.5<br/>gini = 0.225<br/>samples = 15<br/>value = [27, 4]<br/>class = 0>, fillcolor="#e99456"] ;
33 -> 41 ;
42 [label=<DiabetesPedigreeFunction &le; 0.197<br/>gini = 0.142<br/>samples = 12<br/>value = [24, 2]<br/>class = 0>, fillcolor="#e78c49"] ;
41 -> 42 ;
43 [label=<SkinThickness &le; 33.0<br/>gini = 0.444<br/>samples = 3<br/>value = [1, 2]<br/>class = 1>, fillcolor="#9ccef2"] ;
42 -> 43 ;
44 [label=<gini = 0.0<br/>samples = 2<br/>value = [0, 2]<br/>class = 1>, fillcolor="#399de5"] ;
43 -> 44 ;
45 [label=<gini = 0.0<br/>samples = 1<br/>value = [1, 0]<br/>class = 0>, fillcolor="#e58139"] ;
43 -> 45 ;
46 [label=<gini = 0.0<br/>samples = 9<br/>value = [23, 0]<br/>class = 0>, fillcolor="#e58139"] ;
42 -> 46 ;
47 [label=<Age &le; 26.5<br/>gini = 0.48<br/>samples = 3<br/>value = [3, 2]<br/>class = 0>, fillcolor="#f6d5bd"] ;
41 -> 47 ;
48 [label=<gini = 0.0<br/>samples = 1<br/>value = [0, 2]<br/>class = 1>, fillcolor="#399de5"] ;
47 -> 48 ;
49 [label=<gini = 0.0<br/>samples = 2<br/>value = [3, 0]<br/>class = 0>, fillcolor="#e58139"] ;
47 -> 49 ;
50 [label=<DiabetesPedigreeFunction &le; 0.512<br/>gini = 0.121<br/>samples = 38<br/>value = [58, 4]<br/>class = 0>, fillcolor="#e78a47"] ;
32 -> 50 ;
51 [label=<gini = 0.0<br/>samples = 29<br/>value = [47, 0]<br/>class = 0>, fillcolor="#e58139"] ;
50 -> 51 ;
52 [label=<Pregnancies &le; 4.0<br/>gini = 0.391<br/>samples = 9<br/>value = [11, 4]<br/>class = 0>, fillcolor="#eeaf81"] ;
50 -> 52 ;
53 [label=<BloodPressure &le; 67.0<br/>gini = 0.337<br/>samples = 8<br/>value = [11, 3]<br/>class = 0>, fillcolor="#eca36f"] ;
52 -> 53 ;
54 [label=<BMI &le; 36.2<br/>gini = 0.5<br/>samples = 4<br/>value = [3, 3]<br/>class = 0>, fillcolor="#ffffff"] ;
53 -> 54 ;
55 [label=<gini = 0.0<br/>samples = 1<br/>value = [2, 0]<br/>class = 0>, fillcolor="#e58139"] ;
54 -> 55 ;
56 [label=<DiabetesPedigreeFunction &le; 0.637<br/>gini = 0.375<br/>samples = 3<br/>value = [1, 3]<br/>class = 1>, fillcolor="#7bbeee"] ;
54 -> 56 ;
57 [label=<gini = 0.0<br/>samples = 1<br/>value = [1, 0]<br/>class = 0>, fillcolor="#e58139"] ;
56 -> 57 ;
58 [label=<gini = 0.0<br/>samples = 2<br/>value = [0, 3]<br/>class = 1>, fillcolor="#399de5"] ;
56 -> 58 ;
59 [label=<gini = 0.0<br/>samples = 4<br/>value = [8, 0]<br/>class = 0>, fillcolor="#e58139"] ;
53 -> 59 ;
60 [label=<gini = 0.0<br/>samples = 1<br/>value = [0, 1]<br/>class = 1>, fillcolor="#399de5"] ;
52 -> 60 ;
61 [label=<Insulin &le; 22.5<br/>gini = 0.486<br/>samples = 10<br/>value = [7, 5]<br/>class = 0>, fillcolor="#f8dbc6"] ;
31 -> 61 ;
62 [label=<gini = 0.0<br/>samples = 1<br/>value = [0, 2]<br/>class = 1>, fillcolor="#399de5"] ;
61 -> 62 ;
63 [label=<BloodPressure &le; 79.0<br/>gini = 0.42<br/>samples = 9<br/>value = [7, 3]<br/>class = 0>, fillcolor="#f0b78e"] ;
61 -> 63 ;
64 [label=<Age &le; 25.5<br/>gini = 0.245<br/>samples = 6<br/>value = [6, 1]<br/>class = 0>, fillcolor="#e9965a"] ;
63 -> 64 ;
65 [label=<gini = 0.0<br/>samples = 3<br/>value = [3, 0]<br/>class = 0>, fillcolor="#e58139"] ;
64 -> 65 ;
66 [label=<SkinThickness &le; 42.5<br/>gini = 0.375<br/>samples = 3<br/>value = [3, 1]<br/>class = 0>, fillcolor="#eeab7b"] ;
64 -> 66 ;
67 [label=<gini = 0.0<br/>samples = 1<br/>value = [0, 1]<br/>class = 1>, fillcolor="#399de5"] ;
66 -> 67 ;
68 [label=<gini = 0.0<br/>samples = 2<br/>value = [3, 0]<br/>class = 0>, fillcolor="#e58139"] ;
66 -> 68 ;
69 [label=<Insulin &le; 141.5<br/>gini = 0.444<br/>samples = 3<br/>value = [1, 2]<br/>class = 1>, fillcolor="#9ccef2"] ;
63 -> 69 ;
70 [label=<gini = 0.0<br/>samples = 1<br/>value = [1, 0]<br/>class = 0>, fillcolor="#e58139"] ;
69 -> 70 ;
71 [label=<gini = 0.0<br/>samples = 2<br/>value = [0, 2]<br/>class = 1>, fillcolor="#399de5"] ;
69 -> 71 ;
72 [label=<SkinThickness &le; 19.5<br/>gini = 0.438<br/>samples = 43<br/>value = [24, 50]<br/>class = 1>, fillcolor="#98ccf1"] ;
30 -> 72 ;
73 [label=<gini = 0.0<br/>samples = 9<br/>value = [0, 16]<br/>class = 1>, fillcolor="#399de5"] ;
72 -> 73 ;
74 [label=<Pregnancies &le; 3.5<br/>gini = 0.485<br/>samples = 34<br/>value = [24, 34]<br/>class = 1>, fillcolor="#c5e2f7"] ;
72 -> 74 ;
75 [label=<Insulin &le; 199.0<br/>gini = 0.391<br/>samples = 27<br/>value = [12, 33]<br/>class = 1>, fillcolor="#81c1ee"] ;
74 -> 75 ;
76 [label=<SkinThickness &le; 41.5<br/>gini = 0.245<br/>samples = 15<br/>value = [4, 24]<br/>class = 1>, fillcolor="#5aade9"] ;
75 -> 76 ;
77 [label=<Pregnancies &le; 2.5<br/>gini = 0.095<br/>samples = 12<br/>value = [1, 19]<br/>class = 1>, fillcolor="#43a2e6"] ;
76 -> 77 ;
78 [label=<gini = 0.0<br/>samples = 8<br/>value = [0, 13]<br/>class = 1>, fillcolor="#399de5"] ;
77 -> 78 ;
79 [label=<BMI &le; 33.65<br/>gini = 0.245<br/>samples = 4<br/>value = [1, 6]<br/>class = 1>, fillcolor="#5aade9"] ;
77 -> 79 ;
80 [label=<gini = 0.0<br/>samples = 2<br/>value = [0, 4]<br/>class = 1>, fillcolor="#399de5"] ;
79 -> 80 ;
81 [label=<DiabetesPedigreeFunction &le; 0.256<br/>gini = 0.444<br/>samples = 2<br/>value = [1, 2]<br/>class = 1>, fillcolor="#9ccef2"] ;
79 -> 81 ;
82 [label=<gini = 0.0<br/>samples = 1<br/>value = [0, 2]<br/>class = 1>, fillcolor="#399de5"] ;
81 -> 82 ;
83 [label=<gini = 0.0<br/>samples = 1<br/>value = [1, 0]<br/>class = 0>, fillcolor="#e58139"] ;
81 -> 83 ;
84 [label=<SkinThickness &le; 43.5<br/>gini = 0.469<br/>samples = 3<br/>value = [3, 5]<br/>class = 1>, fillcolor="#b0d8f5"] ;
76 -> 84 ;
85 [label=<gini = 0.0<br/>samples = 1<br/>value = [3, 0]<br/>class = 0>, fillcolor="#e58139"] ;
84 -> 85 ;
86 [label=<gini = 0.0<br/>samples = 2<br/>value = [0, 5]<br/>class = 1>, fillcolor="#399de5"] ;
84 -> 86 ;
87 [label=<Pregnancies &le; 2.5<br/>gini = 0.498<br/>samples = 12<br/>value = [8, 9]<br/>class = 1>, fillcolor="#e9f4fc"] ;
75 -> 87 ;
88 [label=<BloodPressure &le; 71.0<br/>gini = 0.49<br/>samples = 10<br/>value = [8, 6]<br/>class = 0>, fillcolor="#f8e0ce"] ;
87 -> 88 ;
89 [label=<gini = 0.0<br/>samples = 2<br/>value = [0, 2]<br/>class = 1>, fillcolor="#399de5"] ;
88 -> 89 ;
90 [label=<DiabetesPedigreeFunction &le; 0.781<br/>gini = 0.444<br/>samples = 8<br/>value = [8, 4]<br/>class = 0>, fillcolor="#f2c09c"] ;
88 -> 90 ;
91 [label=<SkinThickness &le; 43.5<br/>gini = 0.198<br/>samples = 7<br/>value = [8, 1]<br/>class = 0>, fillcolor="#e89152"] ;
90 -> 91 ;
92 [label=<gini = 0.0<br/>samples = 5<br/>value = [7, 0]<br/>class = 0>, fillcolor="#e58139"] ;
91 -> 92 ;
93 [label=<Pregnancies &le; 0.5<br/>gini = 0.5<br/>samples = 2<br/>value = [1, 1]<br/>class = 0>, fillcolor="#ffffff"] ;
91 -> 93 ;
94 [label=<gini = 0.0<br/>samples = 1<br/>value = [0, 1]<br/>class = 1>, fillcolor="#399de5"] ;
93 -> 94 ;
95 [label=<gini = 0.0<br/>samples = 1<br/>value = [1, 0]<br/>class = 0>, fillcolor="#e58139"] ;
93 -> 95 ;
96 [label=<gini = 0.0<br/>samples = 1<br/>value = [0, 3]<br/>class = 1>, fillcolor="#399de5"] ;
90 -> 96 ;
97 [label=<gini = 0.0<br/>samples = 2<br/>value = [0, 3]<br/>class = 1>, fillcolor="#399de5"] ;
87 -> 97 ;
98 [label=<Pregnancies &le; 5.0<br/>gini = 0.142<br/>samples = 7<br/>value = [12, 1]<br/>class = 0>, fillcolor="#e78c49"] ;
74 -> 98 ;
99 [label=<gini = 0.0<br/>samples = 4<br/>value = [8, 0]<br/>class = 0>, fillcolor="#e58139"] ;
98 -> 99 ;
100 [label=<SkinThickness &le; 27.0<br/>gini = 0.32<br/>samples = 3<br/>value = [4, 1]<br/>class = 0>, fillcolor="#eca06a"] ;
98 -> 100 ;
101 [label=<gini = 0.0<br/>samples = 1<br/>value = [0, 1]<br/>class = 1>, fillcolor="#399de5"] ;
100 -> 101 ;
102 [label=<gini = 0.0<br/>samples = 2<br/>value = [4, 0]<br/>class = 0>, fillcolor="#e58139"] ;
100 -> 102 ;
103 [label=<DiabetesPedigreeFunction &le; 0.201<br/>gini = 0.492<br/>samples = 81<br/>value = [56, 72]<br/>class = 1>, fillcolor="#d3e9f9"] ;
1 -> 103 ;
104 [label=<BloodPressure &le; 81.0<br/>gini = 0.32<br/>samples = 13<br/>value = [16, 4]<br/>class = 0>, fillcolor="#eca06a"] ;
103 -> 104 ;
105 [label=<DiabetesPedigreeFunction &le; 0.122<br/>gini = 0.198<br/>samples = 11<br/>value = [16, 2]<br/>class = 0>, fillcolor="#e89152"] ;
104 -> 105 ;
106 [label=<Age &le; 35.0<br/>gini = 0.5<br/>samples = 4<br/>value = [2, 2]<br/>class = 0>, fillcolor="#ffffff"] ;
105 -> 106 ;
107 [label=<gini = 0.0<br/>samples = 1<br/>value = [1, 0]<br/>class = 0>, fillcolor="#e58139"] ;
106 -> 107 ;
108 [label=<BloodPressure &le; 68.0<br/>gini = 0.444<br/>samples = 3<br/>value = [1, 2]<br/>class = 1>, fillcolor="#9ccef2"] ;
106 -> 108 ;
109 [label=<gini = 0.0<br/>samples = 1<br/>value = [1, 0]<br/>class = 0>, fillcolor="#e58139"] ;
108 -> 109 ;
110 [label=<gini = 0.0<br/>samples = 2<br/>value = [0, 2]<br/>class = 1>, fillcolor="#399de5"] ;
108 -> 110 ;
111 [label=<gini = 0.0<br/>samples = 7<br/>value = [14, 0]<br/>class = 0>, fillcolor="#e58139"] ;
105 -> 111 ;
112 [label=<gini = 0.0<br/>samples = 2<br/>value = [0, 2]<br/>class = 1>, fillcolor="#399de5"] ;
104 -> 112 ;
113 [label=<Glucose &le; 120.5<br/>gini = 0.466<br/>samples = 68<br/>value = [40, 68]<br/>class = 1>, fillcolor="#add7f4"] ;
103 -> 113 ;
114 [label=<BMI &le; 31.75<br/>gini = 0.489<br/>samples = 27<br/>value = [27.0, 20.0]<br/>class = 0>, fillcolor="#f8decc"] ;
113 -> 114 ;
115 [label=<DiabetesPedigreeFunction &le; 0.379<br/>gini = 0.285<br/>samples = 17<br/>value = [24, 5]<br/>class = 0>, fillcolor="#ea9b62"] ;
114 -> 115 ;
116 [label=<gini = 0.0<br/>samples = 2<br/>value = [0, 2]<br/>class = 1>, fillcolor="#399de5"] ;
115 -> 116 ;
117 [label=<Age &le; 39.0<br/>gini = 0.198<br/>samples = 15<br/>value = [24, 3]<br/>class = 0>, fillcolor="#e89152"] ;
115 -> 117 ;
118 [label=<gini = 0.0<br/>samples = 10<br/>value = [19, 0]<br/>class = 0>, fillcolor="#e58139"] ;
117 -> 118 ;
119 [label=<BMI &le; 30.55<br/>gini = 0.469<br/>samples = 5<br/>value = [5, 3]<br/>class = 0>, fillcolor="#f5cdb0"] ;
117 -> 119 ;
120 [label=<BloodPressure &le; 67.0<br/>gini = 0.48<br/>samples = 4<br/>value = [2, 3]<br/>class = 1>, fillcolor="#bddef6"] ;
119 -> 120 ;
121 [label=<gini = 0.0<br/>samples = 2<br/>value = [2, 0]<br/>class = 0>, fillcolor="#e58139"] ;
120 -> 121 ;
122 [label=<gini = 0.0<br/>samples = 2<br/>value = [0, 3]<br/>class = 1>, fillcolor="#399de5"] ;
120 -> 122 ;
123 [label=<gini = 0.0<br/>samples = 1<br/>value = [3, 0]<br/>class = 0>, fillcolor="#e58139"] ;
119 -> 123 ;
124 [label=<BloodPressure &le; 78.0<br/>gini = 0.278<br/>samples = 10<br/>value = [3, 15]<br/>class = 1>, fillcolor="#61b1ea"] ;
114 -> 124 ;
125 [label=<BloodPressure &le; 73.0<br/>gini = 0.124<br/>samples = 7<br/>value = [1, 14]<br/>class = 1>, fillcolor="#47a4e7"] ;
124 -> 125 ;
126 [label=<SkinThickness &le; 42.0<br/>gini = 0.32<br/>samples = 4<br/>value = [1, 4]<br/>class = 1>, fillcolor="#6ab6ec"] ;
125 -> 126 ;
127 [label=<gini = 0.0<br/>samples = 3<br/>value = [0, 4]<br/>class = 1>, fillcolor="#399de5"] ;
126 -> 127 ;
128 [label=<gini = 0.0<br/>samples = 1<br/>value = [1, 0]<br/>class = 0>, fillcolor="#e58139"] ;
126 -> 128 ;
129 [label=<gini = 0.0<br/>samples = 3<br/>value = [0, 10]<br/>class = 1>, fillcolor="#399de5"] ;
125 -> 129 ;
130 [label=<SkinThickness &le; 31.0<br/>gini = 0.444<br/>samples = 3<br/>value = [2, 1]<br/>class = 0>, fillcolor="#f2c09c"] ;
124 -> 130 ;
131 [label=<gini = 0.0<br/>samples = 1<br/>value = [1, 0]<br/>class = 0>, fillcolor="#e58139"] ;
130 -> 131 ;
132 [label=<Age &le; 39.0<br/>gini = 0.5<br/>samples = 2<br/>value = [1, 1]<br/>class = 0>, fillcolor="#ffffff"] ;
130 -> 132 ;
133 [label=<gini = 0.0<br/>samples = 1<br/>value = [0, 1]<br/>class = 1>, fillcolor="#399de5"] ;
132 -> 133 ;
134 [label=<gini = 0.0<br/>samples = 1<br/>value = [1, 0]<br/>class = 0>, fillcolor="#e58139"] ;
132 -> 134 ;
135 [label=<BMI &le; 22.25<br/>gini = 0.335<br/>samples = 41<br/>value = [13, 48]<br/>class = 1>, fillcolor="#6fb8ec"] ;
113 -> 135 ;
136 [label=<gini = 0.0<br/>samples = 2<br/>value = [3, 0]<br/>class = 0>, fillcolor="#e58139"] ;
135 -> 136 ;
137 [label=<Glucose &le; 190.5<br/>gini = 0.285<br/>samples = 39<br/>value = [10, 48]<br/>class = 1>, fillcolor="#62b1ea"] ;
135 -> 137 ;
138 [label=<Pregnancies &le; 5.5<br/>gini = 0.266<br/>samples = 38<br/>value = [9, 48]<br/>class = 1>, fillcolor="#5eafea"] ;
137 -> 138 ;
139 [label=<DiabetesPedigreeFunction &le; 0.309<br/>gini = 0.153<br/>samples = 32<br/>value = [4, 44]<br/>class = 1>, fillcolor="#4ba6e7"] ;
138 -> 139 ;
140 [label=<Age &le; 36.0<br/>gini = 0.463<br/>samples = 9<br/>value = [4, 7]<br/>class = 1>, fillcolor="#aad5f4"] ;
139 -> 140 ;
141 [label=<gini = 0.0<br/>samples = 3<br/>value = [0, 3]<br/>class = 1>, fillcolor="#399de5"] ;
140 -> 141 ;
142 [label=<Age &le; 40.5<br/>gini = 0.5<br/>samples = 6<br/>value = [4, 4]<br/>class = 0>, fillcolor="#ffffff"] ;
140 -> 142 ;
143 [label=<gini = 0.0<br/>samples = 2<br/>value = [2, 0]<br/>class = 0>, fillcolor="#e58139"] ;
142 -> 143 ;
144 [label=<DiabetesPedigreeFunction &le; 0.293<br/>gini = 0.444<br/>samples = 4<br/>value = [2, 4]<br/>class = 1>, fillcolor="#9ccef2"] ;
142 -> 144 ;
145 [label=<gini = 0.0<br/>samples = 3<br/>value = [0, 4]<br/>class = 1>, fillcolor="#399de5"] ;
144 -> 145 ;
146 [label=<gini = 0.0<br/>samples = 1<br/>value = [2, 0]<br/>class = 0>, fillcolor="#e58139"] ;
144 -> 146 ;
147 [label=<gini = 0.0<br/>samples = 23<br/>value = [0, 37]<br/>class = 1>, fillcolor="#399de5"] ;
139 -> 147 ;
148 [label=<Age &le; 45.5<br/>gini = 0.494<br/>samples = 6<br/>value = [5, 4]<br/>class = 0>, fillcolor="#fae6d7"] ;
138 -> 148 ;
149 [label=<gini = 0.0<br/>samples = 3<br/>value = [5, 0]<br/>class = 0>, fillcolor="#e58139"] ;
148 -> 149 ;
150 [label=<gini = 0.0<br/>samples = 3<br/>value = [0, 4]<br/>class = 1>, fillcolor="#399de5"] ;
148 -> 150 ;
151 [label=<gini = 0.0<br/>samples = 1<br/>value = [1, 0]<br/>class = 0>, fillcolor="#e58139"] ;
137 -> 151 ;
152 [label=<Glucose &le; 162.5<br/>gini = 0.487<br/>samples = 75<br/>value = [54, 75]<br/>class = 1>, fillcolor="#c8e4f8"] ;
0 -> 152 [labeldistance=2.5, labelangle=-45, headlabel="False"] ;
153 [label=<BMI &le; 27.85<br/>gini = 0.498<br/>samples = 60<br/>value = [54, 47]<br/>class = 0>, fillcolor="#fcefe5"] ;
152 -> 153 ;
154 [label=<Pregnancies &le; 8.5<br/>gini = 0.08<br/>samples = 14<br/>value = [23, 1]<br/>class = 0>, fillcolor="#e68642"] ;
153 -> 154 ;
155 [label=<Pregnancies &le; 7.5<br/>gini = 0.153<br/>samples = 7<br/>value = [11, 1]<br/>class = 0>, fillcolor="#e78c4b"] ;
154 -> 155 ;
156 [label=<gini = 0.0<br/>samples = 4<br/>value = [5, 0]<br/>class = 0>, fillcolor="#e58139"] ;
155 -> 156 ;
157 [label=<DiabetesPedigreeFunction &le; 0.234<br/>gini = 0.245<br/>samples = 3<br/>value = [6, 1]<br/>class = 0>, fillcolor="#e9965a"] ;
155 -> 157 ;
158 [label=<gini = 0.0<br/>samples = 1<br/>value = [0, 1]<br/>class = 1>, fillcolor="#399de5"] ;
157 -> 158 ;
159 [label=<gini = 0.0<br/>samples = 2<br/>value = [6, 0]<br/>class = 0>, fillcolor="#e58139"] ;
157 -> 159 ;
160 [label=<gini = 0.0<br/>samples = 7<br/>value = [12, 0]<br/>class = 0>, fillcolor="#e58139"] ;
154 -> 160 ;
161 [label=<Age &le; 34.0<br/>gini = 0.481<br/>samples = 46<br/>value = [31, 46]<br/>class = 1>, fillcolor="#bedff7"] ;
153 -> 161 ;
162 [label=<gini = 0.0<br/>samples = 6<br/>value = [0, 9]<br/>class = 1>, fillcolor="#399de5"] ;
161 -> 162 ;
163 [label=<DiabetesPedigreeFunction &le; 0.127<br/>gini = 0.496<br/>samples = 40<br/>value = [31, 37]<br/>class = 1>, fillcolor="#dfeffb"] ;
161 -> 163 ;
164 [label=<gini = 0.0<br/>samples = 2<br/>value = [4, 0]<br/>class = 0>, fillcolor="#e58139"] ;
163 -> 164 ;
165 [label=<Insulin &le; 109.0<br/>gini = 0.488<br/>samples = 38<br/>value = [27, 37]<br/>class = 1>, fillcolor="#c9e5f8"] ;
163 -> 165 ;
166 [label=<Insulin &le; 24.0<br/>gini = 0.464<br/>samples = 27<br/>value = [26, 15]<br/>class = 0>, fillcolor="#f4caab"] ;
165 -> 166 ;
167 [label=<SkinThickness &le; 27.5<br/>gini = 0.494<br/>samples = 18<br/>value = [12, 15]<br/>class = 1>, fillcolor="#d7ebfa"] ;
166 -> 167 ;
168 [label=<BMI &le; 32.2<br/>gini = 0.444<br/>samples = 11<br/>value = [12, 6]<br/>class = 0>, fillcolor="#f2c09c"] ;
167 -> 168 ;
169 [label=<gini = 0.0<br/>samples = 2<br/>value = [3, 0]<br/>class = 0>, fillcolor="#e58139"] ;
168 -> 169 ;
170 [label=<BMI &le; 32.95<br/>gini = 0.48<br/>samples = 9<br/>value = [9, 6]<br/>class = 0>, fillcolor="#f6d5bd"] ;
168 -> 170 ;
171 [label=<gini = 0.0<br/>samples = 2<br/>value = [0, 3]<br/>class = 1>, fillcolor="#399de5"] ;
170 -> 171 ;
172 [label=<Glucose &le; 140.5<br/>gini = 0.375<br/>samples = 7<br/>value = [9, 3]<br/>class = 0>, fillcolor="#eeab7b"] ;
170 -> 172 ;
173 [label=<gini = 0.0<br/>samples = 5<br/>value = [9, 0]<br/>class = 0>, fillcolor="#e58139"] ;
172 -> 173 ;
174 [label=<gini = 0.0<br/>samples = 2<br/>value = [0, 3]<br/>class = 1>, fillcolor="#399de5"] ;
172 -> 174 ;
175 [label=<gini = 0.0<br/>samples = 7<br/>value = [0, 9]<br/>class = 1>, fillcolor="#399de5"] ;
167 -> 175 ;
176 [label=<gini = 0.0<br/>samples = 9<br/>value = [14, 0]<br/>class = 0>, fillcolor="#e58139"] ;
166 -> 176 ;
177 [label=<Age &le; 39.5<br/>gini = 0.083<br/>samples = 11<br/>value = [1, 22]<br/>class = 1>, fillcolor="#42a1e6"] ;
165 -> 177 ;
178 [label=<SkinThickness &le; 34.5<br/>gini = 0.375<br/>samples = 3<br/>value = [1, 3]<br/>class = 1>, fillcolor="#7bbeee"] ;
177 -> 178 ;
179 [label=<gini = 0.0<br/>samples = 2<br/>value = [0, 3]<br/>class = 1>, fillcolor="#399de5"] ;
178 -> 179 ;
180 [label=<gini = 0.0<br/>samples = 1<br/>value = [1, 0]<br/>class = 0>, fillcolor="#e58139"] ;
178 -> 180 ;
181 [label=<gini = 0.0<br/>samples = 8<br/>value = [0, 19]<br/>class = 1>, fillcolor="#399de5"] ;
177 -> 181 ;
182 [label=<gini = 0.0<br/>samples = 15<br/>value = [0, 28]<br/>class = 1>, fillcolor="#399de5"] ;
152 -> 182 ;
}