digraph Tree {
node [shape=box, style="filled, rounded", color="black", fontname="helvetica"] ;
edge [fontname="helvetica"] ;
0 [label=<Glucose &le; 127.5<br/>gini = 0.453<br/>samples = 393<br/>value = [401, 213]<br/>class = 0>, fillcolor="#f3c4a2"] ;
1 [label=<SkinThickness &le; 29.5<br/>gini = 0.278<br/>samples = 246<br/>value = [319, 64]<br/>class = 0>, fillcolor="#ea9a61"] ;
0 -> 1 [labeldistance=2.5, labelangle=45, headlabel="True"] ;
2 [label=<Pregnancies &le; 8.5<br/>gini = 0.205<br/>samples = 166<br/>value = [229, 30]<br/>class = 0>, fillcolor="#e89253"] ;
1 -> 2 ;
3 [label=<Age &le; 31.5<br/>gini = 0.179<br/>samples = 153<br/>value = [217, 24]<br/>class = 0>, fillcolor="#e88f4f"] ;
2 -> 3 ;
4 [label=<DiabetesPedigreeFunction &le; 0.142<br/>gini = 0.045<br/>samples = 111<br/>value = [169, 4]<br/>class = 0>, fillcolor="#e6843e"] ;
3 -> 4 ;
5 [label=<SkinThickness &le; 6.5<br/>gini = 0.245<br/>samples = 10<br/>value = [12, 2]<br/>class = 0>, fillcolor="#e9965a"] ;
4 -> 5 ;
6 [label=<BMI &le; 28.75<br/>gini = 0.5<br/>samples = 4<br/>value = [2, 2]<br/>class = 0>, fillcolor="#ffffff"] ;
5 -> 6 ;
7 [label=<gini = 0.0<br/>samples = 2<br/>value = [2, 0]<br/>class = 0>, fillcolor="#e58139"] ;
6 -> 7 ;
8 [label=<gini = 0.0<br/>samples = 2<br/>value = [0, 2]<br/>class = 1>, fillcolor="#399de5"] ;
6 -> 8 ;
9 [label=<gini = 0.0<br/>samples = 6<br/>value = [10, 0]<br/>class = 0>, fillcolor="#e58139"] ;
5 -> 9 ;
10 [label=<BMI &le; 48.7<br/>gini = 0.025<br/>samples = 101<br/>value = [157, 2]<br/>class = 0>, fillcolor="#e5833c"] ;
4 -> 10 ;
11 [label=<DiabetesPedigreeFunction &le; 0.82<br/>gini = 0.013<br/>samples = 100<br/>value = [157, 1]<br/>class = 0>, fillcolor="#e5823a"] ;
10 -> 11 ;
12 [label=<gini = 0.0<br/>samples = 90<br/>value = [143, 0]<br/>class = 0>, fillcolor="#e58139"] ;
11 -> 12 ;
13 [label=<DiabetesPedigreeFunction &le; 0.873<br/>gini = 0.124<br/>samples = 10<br/>value = [14, 1]<br/>class = 0>, fillcolor="#e78a47"] ;
11 -> 13 ;
14 [label=<gini = 0.0<br/>samples = 1<br/>value = [0, 1]<br/>class = 1>, fillcolor="#399de5"] ;
13 -> 14 ;
15 [label=<gini = 0.0<br/>samples = 9<br/>value = [14, 0]<br/>class = 0>, fillcolor="#e58139"] ;
13 -> 15 ;
16 [label=<gini = 0.0<br/>samples = 1<br/>value = [0, 1]<br/>class = 1>, fillcolor="#399de5"] ;
10 -> 16 ;
17 [label=<DiabetesPedigreeFunction &le; 0.754<br/>gini = 0.415<br/>samples = 42<br/>value = [48, 20]<br/>class = 0>, fillcolor="#f0b58b"] ;
3 -> 17 ;
18 [label=<Pregnancies &le; 2.5<br/>gini = 0.459<br/>samples = 36<br/>value = [36, 20]<br/>class = 0>, fillcolor="#f3c7a7"] ;
17 -> 18 ;
19 [label=<SkinThickness &le; 27.0<br/>gini = 0.465<br/>samples = 11<br/>value = [7, 12]<br/>class = 1>, fillcolor="#acd6f4"] ;
18 -> 19 ;
20 [label=<Glucose &le; 76.0<br/>gini = 0.375<br/>samples = 10<br/>value = [4, 12]<br/>class = 1>, fillcolor="#7bbeee"] ;
19 -> 20 ;
21 [label=<gini = 0.0<br/>samples = 1<br/>value = [1, 0]<br/>class = 0>, fillcolor="#e58139"] ;
20 -> 21 ;
22 [label=<BloodPressure &le; 91.0<br/>gini = 0.32<br/>samples = 9<br/>value = [3, 12]<br/>class = 1>, fillcolor="#6ab6ec"] ;
20 -> 22 ;
23 [label=<Age &le; 38.0<br/>gini = 0.142<br/>samples = 8<br/>value = [1, 12]<br/>class = 1>, fillcolor="#49a5e7"] ;
22 -> 23 ;
24 [label=<DiabetesPedigreeFunction &le; 0.463<br/>gini = 0.444<br/>samples = 2<br/>value = [1, 2]<br/>class = 1>, fillcolor="#9ccef2"] ;
23 -> 24 ;
25 [label=<gini = 0.0<br/>samples = 1<br/>value = [0, 2]<br/>class = 1>, fillcolor="#399de5"] ;
24 -> 25 ;
26 [label=<gini = 0.0<br/>samples = 1<br/>value = [1, 0]<br/>class = 0>, fillcolor="#e58139"] ;
24 -> 26 ;
27 [label=<gini = 0.0<br/>samples = 6<br/>value = [0, 10]<br/>class = 1>, fillcolor="#399de5"] ;
23 -> 27 ;
28 [label=<gini = 0.0<br/>samples = 1<br/>value = [2, 0]<br/>class = 0>, fillcolor="#e58139"] ;
22 -> 28 ;
29 [label=<gini = 0.0<br/>samples = 1<br/>value = [3, 0]<br/>class = 0>, fillcolor="#e58139"] ;
19 -> 29 ;
30 [label=<Insulin &le; 117.5<br/>gini = 0.339<br/>samples = 25<br/>value = [29, 8]<br/>class = 0>, fillcolor="#eca470"] ;
18 -> 30 ;
31 [label=<BMI &le; 28.35<br/>gini = 0.313<br/>samples = 24<br/>value = [29, 7]<br/>class = 0>, fillcolor="#eb9f69"] ;
30 -> 31 ;
32 [label=<gini = 0.0<br/>samples = 9<br/>value = [16, 0]<br/>class = 0>, fillcolor="#e58139"] ;
31 -> 32 ;
33 [label=<BloodPressure &le; 75.0<br/>gini = 0.455<br/>samples = 15<br/>value = [13, 7]<br/>class = 0>, fillcolor="#f3c5a4"] ;
31 -> 33 ;
34 [label=<Glucose &le; 97.0<br/>gini = 0.42<br/>samples = 8<br/>value = [3, 7]<br/>class = 1>, fillcolor="#8ec7f0"] ;
33 -> 34 ;
35 [label=<gini = 0.0<br/>samples = 2<br/>value = [3, 0]<br/>class = 0>, fillcolor="#e58139"] ;
34 -> 35 ;
36 [label=<gini = 0.0<br/>samples = 6<br/>value = [0, 7]<br/>class = 1>, fillcolor="#399de5"] ;
34 -> 36 ;
37 [label=<gini = 0.0<br/>samples = 7<br/>value = [10, 0]<br/>class = 0>, fillcolor="#e58139"] ;
33 -> 37 ;
38 [label=<gini = 0.0<br/>samples = 1<br/>value = [0, 1]<br/>class = 1>, fillcolor="#399de5"] ;
30 -> 38 ;
39 [label=<gini = 0.0<br/>samples = 6<br/>value = [12, 0]<br/>class = 0>, fillcolor="#e58139"] ;
17 -> 39 ;
40 [label=<Glucose &le; 96.0<br/>gini = 0.444<br/>samples = 13<br/>value = [12, 6]<br/>class = 0>, fillcolor="#f2c09c"] ;
2 -> 40 ;
41 [label=<gini = 0.0<br/>samples = 5<br/>value = [8, 0]<br/>class = 0>, fillcolor="#e58139"] ;
40 -> 41 ;
42 [label=<SkinThickness &le; 23.0<br/>gini = 0.48<br/>samples = 8<br/>value = [4, 6]<br/>class = 1>, fillcolor="#bddef6"] ;
40 -> 42 ;
43 [label=<Glucose &le; 111.5<br/>gini = 0.32<br/>samples = 5<br/>value = [4, 1]<br/>class = 0>, fillcolor="#eca06a"] ;
42 -> 43 ;
44 [label=<BloodPressure &le; 68.0<br/>gini = 0.5<br/>samples = 2<br/>value = [1, 1]<br/>class = 0>, fillcolor="#ffffff"] ;
43 -> 44 ;
45 [label=<gini = 0.0<br/>samples = 1<br/>value = [0, 1]<br/>class = 1>, fillcolor="#399de5"] ;
44 -> 45 ;
46 [label=<gini = 0.0<br/>samples = 1<br/>value = [1, 0]<br/>class = 0>, fillcolor="#e58139"] ;
44 -> 46 ;
47 [label=<gini = 0.0<br/>samples = 3<br/>value = [3, 0]<br/>class = 0>, fillcolor="#e58139"] ;
43 -> 47 ;
48 [label=<gini = 0.0<br/>samples = 3<br/>value = [0, 5]<br/>class = 1>, fillcolor="#399de5"] ;
42 -> 48 ;
49 [label=<Glucose &le; 108.5<br/>gini = 0.398<br/>samples = 80<br/>value = [90, 34]<br/>class = 0>, fillcolor="#efb184"] ;
1 -> 49 ;
50 [label=<Age &le; 36.5<br/>gini = 0.317<br/>samples = 50<br/>value = [61.0, 15.0]<br/>class = 0>, fillcolor="#eba06a"] ;
49 -> 50 ;
51 [label=<BMI &le; 50.9<br/>gini = 0.212<br/>samples = 37<br/>value = [51, 7]<br/>class = 0>, fillcolor="#e99254"] ;
50 -> 51 ;
52 [label=<SkinThickness &le; 32.5<br/>gini = 0.163<br/>samples = 36<br/>value = [51, 5]<br/>class = 0>, fillcolor="#e88d4c"] ;
51 -> 52 ;
53 [label=<DiabetesPedigreeFunction &le; 0.643<br/>gini = 0.291<br/>samples = 12<br/>value = [14, 3]<br/>class = 0>, fillcolor="#eb9c63"] ;
52 -> 53 ;
54 [label=<DiabetesPedigreeFunction &le; 0.266<br/>gini = 0.133<br/>samples = 9<br/>value = [13, 1]<br/>class = 0>, fillcolor="#e78b48"] ;
53 -> 54 ;
55 [label=<BMI &le; 28.1<br/>gini = 0.5<br/>samples = 2<br/>value = [1, 1]<br/>class = 0>, fillcolor="#ffffff"] ;
54 -> 55 ;
56 [label=<gini = 0.0<br/>samples = 1<br/>value = [1, 0]<br/>class = 0>, fillcolor="#e58139"] ;
55 -> 56 ;
57 [label=<gini = 0.0<br/>samples = 1<br/>value = [0, 1]<br/>class = 1>, fillcolor="#399de5"] ;
55 -> 57 ;
58 [label=<gini = 0.0<br/>samples = 7<br/>value = [12, 0]<br/>class = 0>, fillcolor="#e58139"] ;
54 -> 58 ;
59 [label=<BMI &le; 34.4<br/>gini = 0.444<br/>samples = 3<br/>value = [1, 2]<br/>class = 1>, fillcolor="#9ccef2"] ;
53 -> 59 ;
60 [label=<gini = 0.0<br/>samples = 1<br/>value = [1, 0]<br/>class = 0>, fillcolor="#e58139"] ;
59 -> 60 ;
61 [label=<gini = 0.0<br/>samples = 2<br/>value = [0, 2]<br/>class = 1>, fillcolor="#399de5"] ;
59 -> 61 ;
62 [label=<Insulin &le; 184.5<br/>gini = 0.097<br/>samples = 24<br/>value = [37, 2]<br/>class = 0>, fillcolor="#e68844"] ;
52 -> 62 ;
63 [label=<Glucose &le; 91.5<br/>gini = 0.054<br/>samples = 22<br/>value = [35, 1]<br/>class = 0>, fillcolor="#e6853f"] ;
62 -> 63 ;
64 [label=<DiabetesPedigreeFunction &le; 0.446<br/>gini = 0.133<br/>samples = 8<br/>value = [13, 1]<br/>class = 0>, fillcolor="#e78b48"] ;
63 -> 64 ;
65 [label=<gini = 0.0<br/>samples = 4<br/>value = [9, 0]<br/>class = 0>, fillcolor="#e58139"] ;
64 -> 65 ;
66 [label=<Insulin &le; 24.0<br/>gini = 0.32<br/>samples = 4<br/>value = [4, 1]<br/>class = 0>, fillcolor="#eca06a"] ;
64 -> 66 ;
67 [label=<gini = 0.0<br/>samples = 1<br/>value = [0, 1]<br/>class = 1>, fillcolor="#399de5"] ;
66 -> 67 ;
68 [label=<gini = 0.0<br/>samples = 3<br/>value = [4, 0]<br/>class = 0>, fillcolor="#e58139"] ;
66 -> 68 ;
69 [label=<gini = 0.0<br/>samples = 14<br/>value = [22, 0]<br/>class = 0>, fillcolor="#e58139"] ;
63 -> 69 ;
70 [label=<Glucose &le; 104.0<br/>gini = 0.444<br/>samples = 2<br/>value = [2, 1]<br/>class = 0>, fillcolor="#f2c09c"] ;
62 -> 70 ;
71 [label=<gini = 0.0<br/>samples = 1<br/>value = [2, 0]<br/>class = 0>, fillcolor="#e58139"] ;
70 -> 71 ;
72 [label=<gini = 0.0<br/>samples = 1<br/>value = [0, 1]<br/>class = 1>, fillcolor="#399de5"] ;
70 -> 72 ;
73 [label=<gini = 0.0<br/>samples = 1<br/>value = [0, 2]<br/>class = 1>, fillcolor="#399de5"] ;
51 -> 73 ;
74 [label=<BloodPressure &le; 67.0<br/>gini = 0.494<br/>samples = 13<br/>value = [10, 8]<br/>class = 0>, fillcolor="#fae6d7"] ;
50 -> 74 ;
75 [label=<gini = 0.0<br/>samples = 2<br/>value = [4, 0]<br/>class = 0>, fillcolor="#e58139"] ;
74 -> 75 ;
76 [label=<Insulin &le; 27.0<br/>gini = 0.49<br/>samples = 11<br/>value = [6, 8]<br/>class = 1>, fillcolor="#cee6f8"] ;
74 -> 76 ;
77 [label=<Age &le; 44.0<br/>gini = 0.42<br/>samples = 8<br/>value = [3, 7]<br/>class = 1>, fillcolor="#8ec7f0"] ;
76 -> 77 ;
78 [label=<Age &le; 39.0<br/>gini = 0.5<br/>samples = 5<br/>value = [3, 3]<br/>class = 0>, fillcolor="#ffffff"] ;
77 -> 78 ;
79 [label=<gini = 0.0<br/>samples = 1<br/>value = [0, 2]<br/>class = 1>, fillcolor="#399de5"] ;
78 -> 79 ;
80 [label=<SkinThickness &le; 40.5<br/>gini = 0.375<br/>samples = 4<br/>value = [3, 1]<br/>class = 0>, fillcolor="#eeab7b"] ;
78 -> 80 ;
81 [label=<gini = 0.0<br/>samples = 3<br/>value = [3, 0]<br/>class = 0>, fillcolor="#e58139"] ;
80 -> 81 ;
82 [label=<gini = 0.0<br/>samples = 1<br/>value = [0, 1]<br/>class = 1>, fillcolor="#399de5"] ;
80 -> 82 ;
83 [label=<gini = 0.0<br/>samples = 3<br/>value = [0, 4]<br/>class = 1>, fillcolor="#399de5"] ;
77 -> 83 ;
84 [label=<BMI &le; 38.3<br/>gini = 0.375<br/>samples = 3<br/>value = [3, 1]<br/>class = 0>, fillcolor="#eeab7b"] ;
76 -> 84 ;
85 [label=<gini = 0.0<br/>samples = 2<br/>value = [3, 0]<br/>class = 0>, fillcolor="#e58139"] ;
84 -> 85 ;
86 [label=<gini = 0.0<br/>samples = 1<br/>value = [0, 1]<br/>class = 1>, fillcolor="#399de5"] ;
84 -> 86 ;
87 [label=<SkinThickness &le; 30.5<br/>gini = 0.478<br/>samples = 30<br/>value = [29, 19]<br/>class = 0>, fillcolor="#f6d4bb"] ;
49 -> 87 ;
88 [label=<BloodPressure &le; 80.0<br/>gini = 0.245<br/>samples = 4<br/>value = [1, 6]<br/>class = 1>, fillcolor="#5aade9"] ;
87 -> 88 ;
89 [label=<gini = 0.0<br/>samples = 3<br/>value = [0, 6]<br/>class = 1>, fillcolor="#399de5"] ;
88 -> 89 ;
90 [label=<gini = 0.0<br/>samples = 1<br/>value = [1, 0]<br/>class = 0>, fillcolor="#e58139"] ;
88 -> 90 ;
91 [label=<Pregnancies &le; 3.5<br/>gini = 0.433<br/>samples = 26<br/>value = [28.0, 13.0]<br/>class = 0>, fillcolor="#f1bc95"] ;
87 -> 91 ;
92 [label=<Insulin &le; 215.0<br/>gini = 0.165<br/>samples = 16<br/>value = [20, 2]<br/>class = 0>, fillcolor="#e88e4d"] ;
91 -> 92 ;
93 [label=<gini = 0.0<br/>samples = 12<br/>value = [17, 0]<br/>class = 0>, fillcolor="#e58139"] ;
92 -> 93 ;
94 [label=<DiabetesPedigreeFunction &le; 0.627<br/>gini = 0.48<br/>samples = 4<br/>value = [3, 2]<br/>class = 0>, fillcolor="#f6d5bd"] ;
92 -> 94 ;
95 [label=<Glucose &le; 116.0<br/>gini = 0.444<br/>samples = 3<br/>value = [1, 2]<br/>class = 1>, fillcolor="#9ccef2"] ;
94 -> 95 ;
96 [label=<gini = 0.0<br/>samples = 1<br/>value = [1, 0]<br/>class = 0>, fillcolor="#e58139"] ;
95 -> 96 ;
97 [label=<gini = 0.0<br/>samples = 2<br/>value = [0, 2]<br/>class = 1>, fillcolor="#399de5"] ;
95 -> 97 ;
98 [label=<gini = 0.0<br/>samples = 1<br/>value = [2, 0]<br/>class = 0>, fillcolor="#e58139"] ;
94 -> 98 ;
99 [label=<DiabetesPedigreeFunction &le; 0.513<br/>gini = 0.488<br/>samples = 10<br/>value = [8, 11]<br/>class = 1>, fillcolor="#c9e4f8"] ;
91 -> 99 ;
100 [label=<DiabetesPedigreeFunction &le; 0.264<br/>gini = 0.397<br/>samples = 6<br/>value = [8, 3]<br/>class = 0>, fillcolor="#efb083"] ;
99 -> 100 ;
101 [label=<SkinThickness &le; 35.5<br/>gini = 0.375<br/>samples = 2<br/>value = [1, 3]<br/>class = 1>, fillcolor="#7bbeee"] ;
100 -> 101 ;
102 [label=<gini = 0.0<br/>samples = 1<br/>value = [0, 3]<br/>class = 1>, fillcolor="#399de5"] ;
101 -> 102 ;
103 [label=<gini = 0.0<br/>samples = 1<br/>value = [1, 0]<br/>class = 0>, fillcolor="#e58139"] ;
101 -> 103 ;
104 [label=<gini = 0.0<br/>samples = 4<br/>value = [7, 0]<br/>class = 0>, fillcolor="#e58139"] ;
100 -> 104 ;
105 [label=<gini = 0.0<br/>samples = 4<br/>value = [0, 8]<br/>class = 1>, fillcolor="#399de5"] ;
99 -> 105 ;
106 [label=<SkinThickness &le; 16.5<br/>gini = 0.458<br/>samples = 147<br/>value = [82, 149]<br/>class = 1>, fillcolor="#a6d3f3"] ;
0 -> 106 [labeldistance=2.5, labelangle=-45, headlabel="False"] ;
107 [label=<BMI &le; 28.75<br/>gini = 0.5<br/>samples = 61<br/>value = [48, 50]<br/>class = 1>, fillcolor="#f7fbfe"] ;
106 -> 107 ;
108 [label=<DiabetesPedigreeFunction &le; 0.923<br/>gini = 0.339<br/>samples = 23<br/>value = [29, 8]<br/>class = 0>, fillcolor="#eca470"] ;
107 -> 108 ;
109 [label=<BloodPressure &le; 57.0<br/>gini = 0.257<br/>samples = 21<br/>value = [28, 5]<br/>class = 0>, fillcolor="#ea985c"] ;
108 -> 109 ;
110 [label=<Insulin &le; 187.5<br/>gini = 0.375<br/>samples = 3<br/>value = [1, 3]<br/>class = 1>, fillcolor="#7bbeee"] ;
109 -> 110 ;
111 [label=<gini = 0.0<br/>samples = 2<br/>value = [0, 3]<br/>class = 1>, fillcolor="#399de5"] ;
110 -> 111 ;
112 [label=<gini = 0.0<br/>samples = 1<br/>value = [1, 0]<br/>class = 0>, fillcolor="#e58139"] ;
110 -> 112 ;
113 [label=<SkinThickness &le; 6.0<br/>gini = 0.128<br/>samples = 18<br/>value = [27, 2]<br/>class = 0>, fillcolor="#e78a48"] ;
109 -> 113 ;
114 [label=<Pregnancies &le; 5.5<br/>gini = 0.159<br/>samples = 14<br/>value = [21, 2]<br/>class = 0>, fillcolor="#e78d4c"] ;
113 -> 114 ;
115 [label=<gini = 0.0<br/>samples = 6<br/>value = [10, 0]<br/>class = 0>, fillcolor="#e58139"] ;
114 -> 115 ;
116 [label=<BloodPressure &le; 85.0<br/>gini = 0.26<br/>samples = 8<br/>value = [11, 2]<br/>class = 0>, fillcolor="#ea985d"] ;
114 -> 116 ;
117 [label=<DiabetesPedigreeFunction &le; 0.14<br/>gini = 0.153<br/>samples = 7<br/>value = [11, 1]<br/>class = 0>, fillcolor="#e78c4b"] ;
116 -> 117 ;
118 [label=<gini = 0.0<br/>samples = 1<br/>value = [0, 1]<br/>class = 1>, fillcolor="#399de5"] ;
117 -> 118 ;
119 [label=<gini = 0.0<br/>samples = 6<br/>value = [11, 0]<br/>class = 0>, fillcolor="#e58139"] ;
117 -> 119 ;
120 [label=<gini = 0.0<br/>samples = 1<br/>value = [0, 1]<br/>class = 1>, fillcolor="#399de5"] ;
116 -> 120 ;
121 [label=<gini = 0.0<br/>samples = 4<br/>value = [6, 0]<br/>class = 0>, fillcolor="#e58139"] ;
113 -> 121 ;
122 [label=<BMI &le; 26.5<br/>gini = 0.375<br/>samples = 2<br/>value = [1, 3]<br/>class = 1>, fillcolor="#7bbeee"] ;
108 -> 122 ;
123 [label=<gini = 0.0<br/>samples = 1<br/>value = [0, 3]<br/>class = 1>, fillcolor="#399de5"] ;
122 -> 123 ;
124 [label=<gini = 0.0<br/>samples = 1<br/>value = [1, 0]<br/>class = 0>, fillcolor="#e58139"] ;
122 -> 124 ;
125 [label=<BMI &le; 35.7<br/>gini = 0.429<br/>samples = 38<br/>value = [19, 42]<br/>class = 1>, fillcolor="#93c9f1"] ;
107 -> 125 ;
126 [label=<BMI &le; 34.5<br/>gini = 0.482<br/>samples = 23<br/>value = [17, 25]<br/>class = 1>, fillcolor="#c0e0f7"] ;
125 -> 126 ;
127 [label=<Age &le; 38.0<br/>gini = 0.45<br/>samples = 21<br/>value = [13, 25]<br/>class = 1>, fillcolor="#a0d0f3"] ;
126 -> 127 ;
128 [label=<DiabetesPedigreeFunction &le; 0.3<br/>gini = 0.499<br/>samples = 13<br/>value = [13, 12]<br/>class = 0>, fillcolor="#fdf5f0"] ;
127 -> 128 ;
129 [label=<gini = 0.0<br/>samples = 4<br/>value = [10, 0]<br/>class = 0>, fillcolor="#e58139"] ;
128 -> 129 ;
130 [label=<BMI &le; 32.2<br/>gini = 0.32<br/>samples = 9<br/>value = [3, 12]<br/>class = 1>, fillcolor="#6ab6ec"] ;
128 -> 130 ;
131 [label=<Glucose &le; 159.5<br/>gini = 0.153<br/>samples = 6<br/>value = [1, 11]<br/>class = 1>, fillcolor="#4ba6e7"] ;
130 -> 131 ;
132 [label=<BloodPressure &le; 28.0<br/>gini = 0.32<br/>samples = 3<br/>value = [1, 4]<br/>class = 1>, fillcolor="#6ab6ec"] ;
131 -> 132 ;
133 [label=<gini = 0.0<br/>samples = 1<br/>value = [0, 2]<br/>class = 1>, fillcolor="#399de5"] ;
132 -> 133 ;
134 [label=<BloodPressure &le; 63.0<br/>gini = 0.444<br/>samples = 2<br/>value = [1, 2]<br/>class = 1>, fillcolor="#9ccef2"] ;
132 -> 134 ;
135 [label=<gini = 0.0<br/>samples = 1<br/>value = [1, 0]<br/>class = 0>, fillcolor="#e58139"] ;
134 -> 135 ;
136 [label=<gini = 0.0<br/>samples = 1<br/>value = [0, 2]<br/>class = 1>, fillcolor="#399de5"] ;
134 -> 136 ;
137 [label=<gini = 0.0<br/>samples = 3<br/>value = [0, 7]<br/>class = 1>, fillcolor="#399de5"] ;
131 -> 137 ;
138 [label=<DiabetesPedigreeFunction &le; 0.347<br/>gini = 0.444<br/>samples = 3<br/>value = [2, 1]<br/>class = 0>, fillcolor="#f2c09c"] ;
130 -> 138 ;
139 [label=<gini = 0.0<br/>samples = 1<br/>value = [0, 1]<br/>class = 1>, fillcolor="#399de5"] ;
138 -> 139 ;
140 [label=<gini = 0.0<br/>samples = 2<br/>value = [2, 0]<br/>class = 0>, fillcolor="#e58139"] ;
138 -> 140 ;
141 [label=<gini = 0.0<br/>samples = 8<br/>value = [0, 13]<br/>class = 1>, fillcolor="#399de5"] ;
127 -> 141 ;
142 [label=<gini = 0.0<br/>samples = 2<br/>value = [4, 0]<br/>class = 0>, fillcolor="#e58139"] ;
126 -> 142 ;
143 [label=<Age &le; 39.5<br/>gini = 0.188<br/>samples = 15<br/>value = [2, 17]<br/>class = 1>, fillcolor="#50a9e8"] ;
125 -> 143 ;
144 [label=<gini = 0.0<br/>samples = 11<br/>value = [0, 15]<br/>class = 1>, fillcolor="#399de5"] ;
143 -> 144 ;
145 [label=<DiabetesPedigreeFunction &le; 0.28<br/>gini = 0.5<br/>samples = 4<br/>value = [2, 2]<br/>class = 0>, fillcolor="#ffffff"] ;
143 -> 145 ;
146 [label=<gini = 0.0<br/>samples = 2<br/>value = [0, 2]<br/>class = 1>, fillcolor="#399de5"] ;
145 -> 146 ;
147 [label=<gini = 0.0<br/>samples = 2<br/>value = [2, 0]<br/>class = 0>, fillcolor="#e58139"] ;
145 -> 147 ;
148 [label=<BMI &le; 29.6<br/>gini = 0.381<br/>samples = 86<br/>value = [34, 99]<br/>class = 1>, fillcolor="#7dbfee"] ;
106 -> 148 ;
149 [label=<Insulin &le; 177.5<br/>gini = 0.48<br/>samples = 13<br/>value = [12, 8]<br/>class = 0>, fillcolor="#f6d5bd"] ;
148 -> 149 ;
150 [label=<BloodPressure &le; 66.0<br/>gini = 0.444<br/>samples = 9<br/>value = [4, 8]<br/>class = 1>, fillcolor="#9ccef2"] ;
149 -> 150 ;
151 [label=<gini = 0.0<br/>samples = 1<br/>value = [2, 0]<br/>class = 0>, fillcolor="#e58139"] ;
150 -> 151 ;
152 [label=<Insulin &le; 116.0<br/>gini = 0.32<br/>samples = 8<br/>value = [2, 8]<br/>class = 1>, fillcolor="#6ab6ec"] ;
150 -> 152 ;
153 [label=<BMI &le; 26.25<br/>gini = 0.444<br/>samples = 5<br/>value = [2, 4]<br/>class = 1>, fillcolor="#9ccef2"] ;
152 -> 153 ;
154 [label=<gini = 0.0<br/>samples = 1<br/>value = [1, 0]<br/>class = 0>, fillcolor="#e58139"] ;
153 -> 154 ;
155 [label=<Insulin &le; 98.0<br/>gini = 0.32<br/>samples = 4<br/>value = [1, 4]<br/>class = 1>, fillcolor="#6ab6ec"] ;
153 -> 155 ;
156 [label=<gini = 0.0<br/>samples = 3<br/>value = [0, 4]<br/>class = 1>, fillcolor="#399de5"] ;
155 -> 156 ;
157 [label=<gini = 0.0<br/>samples = 1<br/>value = [1, 0]<br/>class = 0>, fillcolor="#e58139"] ;
155 -> 157 ;
158 [label=<gini = 0.0<br/>samples = 3<br/>value = [0, 4]<br/>class = 1>, fillcolor="#399de5"] ;
152 -> 158 ;
159 [label=<gini = 0.0<br/>samples = 4<br/>value = [8, 0]<br/>class = 0>, fillcolor="#e58139"] ;
149 -> 159 ;
160 [label=<DiabetesPedigreeFunction &le; 0.264<br/>gini = 0.314<br/>samples = 73<br/>value = [22, 91]<br/>class = 1>, fillcolor="#69b5eb"] ;
148 -> 160 ;
161 [label=<Age &le; 48.0<br/>gini = 0.472<br/>samples = 16<br/>value = [8, 13]<br/>class = 1>, fillcolor="#b3d9f5"] ;
160 -> 161 ;
162 [label=<Insulin &le; 294.0<br/>gini = 0.5<br/>samples = 13<br/>value = [8, 8]<br/>class = 0>, fillcolor="#ffffff"] ;
161 -> 162 ;
163 [label=<BMI &le; 33.25<br/>gini = 0.444<br/>samples = 9<br/>value = [8, 4]<br/>class = 0>, fillcolor="#f2c09c"] ;
162 -> 163 ;
164 [label=<gini = 0.0<br/>samples = 3<br/>value = [4, 0]<br/>class = 0>, fillcolor="#e58139"] ;
163 -> 164 ;
165 [label=<DiabetesPedigreeFunction &le; 0.228<br/>gini = 0.5<br/>samples = 6<br/>value = [4, 4]<br/>class = 0>, fillcolor="#ffffff"] ;
163 -> 165 ;
166 [label=<gini = 0.0<br/>samples = 3<br/>value = [0, 4]<br/>class = 1>, fillcolor="#399de5"] ;
165 -> 166 ;
167 [label=<gini = 0.0<br/>samples = 3<br/>value = [4, 0]<br/>class = 0>, fillcolor="#e58139"] ;
165 -> 167 ;
168 [label=<gini = 0.0<br/>samples = 4<br/>value = [0, 4]<br/>class = 1>, fillcolor="#399de5"] ;
162 -> 168 ;
169 [label=<gini = 0.0<br/>samples = 3<br/>value = [0, 5]<br/>class = 1>, fillcolor="#399de5"] ;
161 -> 169 ;
170 [label=<Glucose &le; 154.5<br/>gini = 0.258<br/>samples = 57<br/>value = [14, 78]<br/>class = 1>, fillcolor="#5dafea"] ;
160 -> 170 ;
171 [label=<DiabetesPedigreeFunction &le; 0.402<br/>gini = 0.391<br/>samples = 27<br/>value = [12, 33]<br/>class = 1>, fillcolor="#81c1ee"] ;
170 -> 171 ;
172 [label=<gini = 0.0<br/>samples = 6<br/>value = [0, 10]<br/>class = 1>, fillcolor="#399de5"] ;
171 -> 172 ;
173 [label=<BMI &le; 39.95<br/>gini = 0.451<br/>samples = 21<br/>value = [12, 23]<br/>class = 1>, fillcolor="#a0d0f3"] ;
171 -> 173 ;
174 [label=<Glucose &le; 139.5<br/>gini = 0.33<br/>samples = 12<br/>value = [5, 19]<br/>class = 1>, fillcolor="#6db7ec"] ;
173 -> 174 ;
175 [label=<gini = 0.0<br/>samples = 8<br/>value = [0, 15]<br/>class = 1>, fillcolor="#399de5"] ;
174 -> 175 ;
176 [label=<SkinThickness &le; 32.5<br/>gini = 0.494<br/>samples = 4<br/>value = [5, 4]<br/>class = 0>, fillcolor="#fae6d7"] ;
174 -> 176 ;
177 [label=<gini = 0.0<br/>samples = 2<br/>value = [5, 0]<br/>class = 0>, fillcolor="#e58139"] ;
176 -> 177 ;
178 [label=<gini = 0.0<br/>samples = 2<br/>value = [0, 4]<br/>class = 1>, fillcolor="#399de5"] ;
176 -> 178 ;
179 [label=<Glucose &le; 152.0<br/>gini = 0.463<br/>samples = 9<br/>value = [7, 4]<br/>class = 0>, fillcolor="#f4c9aa"] ;
173 -> 179 ;
180 [label=<Age &le; 28.5<br/>gini = 0.444<br/>samples = 6<br/>value = [2, 4]<br/>class = 1>, fillcolor="#9ccef2"] ;
179 -> 180 ;
181 [label=<Insulin &le; 97.0<br/>gini = 0.444<br/>samples = 3<br/>value = [2, 1]<br/>class = 0>, fillcolor="#f2c09c"] ;
180 -> 181 ;
182 [label=<gini = 0.0<br/>samples = 1<br/>value = [1, 0]<br/>class = 0>, fillcolor="#e58139"] ;
181 -> 182 ;
183 [label=<SkinThickness &le; 34.0<br/>gini = 0.5<br/>samples = 2<br/>value = [1, 1]<br/>class = 0>, fillcolor="#ffffff"] ;
181 -> 183 ;
184 [label=<gini = 0.0<br/>samples = 1<br/>value = [1, 0]<br/>class = 0>, fillcolor="#e58139"] ;
183 -> 184 ;
185 [label=<gini = 0.0<br/>samples = 1<br/>value = [0, 1]<br/>class = 1>, fillcolor="#399de5"] ;
183 -> 185 ;
186 [label=<gini = 0.0<br/>samples = 3<br/>value = [0, 3]<br/>class = 1>, fillcolor="#399de5"] ;
180 -> 186 ;
187 [label=<gini = 0.0<br/>samples = 3<br/>value = [5, 0]<br/>class = 0>, fillcolor="#e58139"] ;
179 -> 187 ;
188 [label=<SkinThickness &le; 32.5<br/>gini = 0.081<br/>samples = 30<br/>value = [2, 45]<br/>class = 1>, fillcolor="#42a1e6"] ;
170 -> 188 ;
189 [label=<gini = 0.0<br/>samples = 17<br/>value = [0, 25]<br/>class = 1>, fillcolor="#399de5"] ;
188 -> 189 ;
190 [label=<Age &le; 23.5<br/>gini = 0.165<br/>samples = 13<br/>value = [2, 20]<br/>class = 1>, fillcolor="#4da7e8"] ;
188 -> 190 ;
191 [label=<gini = 0.0<br/>samples = 1<br/>value = [1, 0]<br/>class = 0>, fillcolor="#e58139"] ;
190 -> 191 ;
192 [label=<BMI &le; 36.6<br/>gini = 0.091<br/>samples = 12<br/>value = [1, 20]<br/>class = 1>, fillcolor="#43a2e6"] ;
190 -> 192 ;
193 [label=<gini = 0.0<br/>samples = 6<br/>value = [0, 14]<br/>class = 1>, fillcolor="#399de5"] ;
192 -> 193 ;
194 [label=<Pregnancies &le; 3.5<br/>gini = 0.245<br/>samples = 6<br/>value = [1, 6]<br/>class = 1>, fillcolor="#5aade9"] ;
192 -> 194 ;
195 [label=<gini = 0.0<br/>samples = 4<br/>value = [0, 5]<br/>class = 1>, fillcolor="#399de5"] ;
194 -> 195 ;
196 [label=<SkinThickness &le; 40.0<br/>gini = 0.5<br/>samples = 2<br/>value = [1, 1]<br/>class = 0>, fillcolor="#ffffff"] ;
194 -> 196 ;
197 [label=<gini = 0.0<br/>samples = 1<br/>value = [1, 0]<br/>class = 0>, fillcolor="#e58139"] ;
196 -> 197 ;
198 [label=<gini = 0.0<br/>samples = 1<br/>value = [0, 1]<br/>class = 1>, fillcolor="#399de5"] ;
196 -> 198 ;
}