digraph Tree {
node [shape=box, style="filled, rounded", color="black", fontname="helvetica"] ;
edge [fontname="helvetica"] ;
0 [label=<Insulin &le; 122.5<br/>gini = 0.453<br/>samples = 400<br/>value = [401, 213]<br/>class = 0>, fillcolor="#f3c4a2"] ;
1 [label=<Glucose &le; 129.5<br/>gini = 0.402<br/>samples = 286<br/>value = [314.0, 121.0]<br/>class = 0>, fillcolor="#efb285"] ;
0 -> 1 [labeldistance=2.5, labelangle=45, headlabel="True"] ;
2 [label=<BMI &le; 39.05<br/>gini = 0.258<br/>samples = 214<br/>value = [278, 50]<br/>class = 0>, fillcolor="#ea985d"] ;
1 -> 2 ;
3 [label=<SkinThickness &le; 5.0<br/>gini = 0.215<br/>samples = 197<br/>value = [265, 37]<br/>class = 0>, fillcolor="#e99355"] ;
2 -> 3 ;
4 [label=<Glucose &le; 106.5<br/>gini = 0.344<br/>samples = 67<br/>value = [81, 23]<br/>class = 0>, fillcolor="#eca571"] ;
3 -> 4 ;
5 [label=<BloodPressure &le; 63.0<br/>gini = 0.083<br/>samples = 28<br/>value = [44, 2]<br/>class = 0>, fillcolor="#e68742"] ;
4 -> 5 ;
6 [label=<gini = 0.0<br/>samples = 15<br/>value = [25, 0]<br/>class = 0>, fillcolor="#e58139"] ;
5 -> 6 ;
7 [label=<Pregnancies &le; 7.0<br/>gini = 0.172<br/>samples = 13<br/>value = [19, 2]<br/>class = 0>, fillcolor="#e88e4e"] ;
5 -> 7 ;
8 [label=<DiabetesPedigreeFunction &le; 0.189<br/>gini = 0.298<br/>samples = 7<br/>value = [9, 2]<br/>class = 0>, fillcolor="#eb9d65"] ;
7 -> 8 ;
9 [label=<DiabetesPedigreeFunction &le; 0.122<br/>gini = 0.444<br/>samples = 3<br/>value = [1, 2]<br/>class = 1>, fillcolor="#9ccef2"] ;
8 -> 9 ;
10 [label=<gini = 0.0<br/>samples = 1<br/>value = [1, 0]<br/>class = 0>, fillcolor="#e58139"] ;
9 -> 10 ;
11 [label=<gini = 0.0<br/>samples = 2<br/>value = [0, 2]<br/>class = 1>, fillcolor="#399de5"] ;
9 -> 11 ;
12 [label=<gini = 0.0<br/>samples = 4<br/>value = [8, 0]<br/>class = 0>, fillcolor="#e58139"] ;
8 -> 12 ;
13 [label=<gini = 0.0<br/>samples = 6<br/>value = [10, 0]<br/>class = 0>, fillcolor="#e58139"] ;
7 -> 13 ;
14 [label=<Age &le; 54.5<br/>gini = 0.462<br/>samples = 39<br/>value = [37, 21]<br/>class = 0>, fillcolor="#f4c9a9"] ;
4 -> 14 ;
15 [label=<BloodPressure &le; 71.0<br/>gini = 0.484<br/>samples = 33<br/>value = [30, 21]<br/>class = 0>, fillcolor="#f7d9c4"] ;
14 -> 15 ;
16 [label=<BMI &le; 27.1<br/>gini = 0.366<br/>samples = 18<br/>value = [22, 7]<br/>class = 0>, fillcolor="#eda978"] ;
15 -> 16 ;
17 [label=<gini = 0.0<br/>samples = 7<br/>value = [15, 0]<br/>class = 0>, fillcolor="#e58139"] ;
16 -> 17 ;
18 [label=<BMI &le; 33.55<br/>gini = 0.5<br/>samples = 11<br/>value = [7, 7]<br/>class = 0>, fillcolor="#ffffff"] ;
16 -> 18 ;
19 [label=<Pregnancies &le; 9.0<br/>gini = 0.463<br/>samples = 9<br/>value = [4, 7]<br/>class = 1>, fillcolor="#aad5f4"] ;
18 -> 19 ;
20 [label=<Pregnancies &le; 5.5<br/>gini = 0.42<br/>samples = 8<br/>value = [3, 7]<br/>class = 1>, fillcolor="#8ec7f0"] ;
19 -> 20 ;
21 [label=<BMI &le; 29.85<br/>gini = 0.5<br/>samples = 5<br/>value = [3, 3]<br/>class = 0>, fillcolor="#ffffff"] ;
20 -> 21 ;
22 [label=<gini = 0.0<br/>samples = 2<br/>value = [2, 0]<br/>class = 0>, fillcolor="#e58139"] ;
21 -> 22 ;
23 [label=<DiabetesPedigreeFunction &le; 0.188<br/>gini = 0.375<br/>samples = 3<br/>value = [1, 3]<br/>class = 1>, fillcolor="#7bbeee"] ;
21 -> 23 ;
24 [label=<gini = 0.0<br/>samples = 1<br/>value = [1, 0]<br/>class = 0>, fillcolor="#e58139"] ;
23 -> 24 ;
25 [label=<gini = 0.0<br/>samples = 2<br/>value = [0, 3]<br/>class = 1>, fillcolor="#399de5"] ;
23 -> 25 ;
26 [label=<gini = 0.0<br/>samples = 3<br/>value = [0, 4]<br/>class = 1>, fillcolor="#399de5"] ;
20 -> 26 ;
27 [label=<gini = 0.0<br/>samples = 1<br/>value = [1, 0]<br/>class = 0>, fillcolor="#e58139"] ;
19 -> 27 ;
28 [label=<gini = 0.0<br/>samples = 2<br/>value = [3, 0]<br/>class = 0>, fillcolor="#e58139"] ;
18 -> 28 ;
29 [label=<BloodPressure &le; 77.0<br/>gini = 0.463<br/>samples = 15<br/>value = [8, 14]<br/>class = 1>, fillcolor="#aad5f4"] ;
15 -> 29 ;
30 [label=<gini = 0.0<br/>samples = 6<br/>value = [0, 12]<br/>class = 1>, fillcolor="#399de5"] ;
29 -> 30 ;
31 [label=<DiabetesPedigreeFunction &le; 0.262<br/>gini = 0.32<br/>samples = 9<br/>value = [8, 2]<br/>class = 0>, fillcolor="#eca06a"] ;
29 -> 31 ;
32 [label=<Age &le; 51.5<br/>gini = 0.48<br/>samples = 5<br/>value = [3, 2]<br/>class = 0>, fillcolor="#f6d5bd"] ;
31 -> 32 ;
33 [label=<gini = 0.0<br/>samples = 3<br/>value = [3, 0]<br/>class = 0>, fillcolor="#e58139"] ;
32 -> 33 ;
34 [label=<gini = 0.0<br/>samples = 2<br/>value = [0, 2]<br/>class = 1>, fillcolor="#399de5"] ;
32 -> 34 ;
35 [label=<gini = 0.0<br/>samples = 4<br/>value = [5, 0]<br/>class = 0>, fillcolor="#e58139"] ;
31 -> 35 ;
36 [label=<gini = 0.0<br/>samples = 6<br/>value = [7, 0]<br/>class = 0>, fillcolor="#e58139"] ;
14 -> 36 ;
37 [label=<SkinThickness &le; 28.5<br/>gini = 0.131<br/>samples = 130<br/>value = [184, 14]<br/>class = 0>, fillcolor="#e78b48"] ;
3 -> 37 ;
38 [label=<BloodPressure &le; 81.0<br/>gini = 0.062<br/>samples = 83<br/>value = [121, 4]<br/>class = 0>, fillcolor="#e68540"] ;
37 -> 38 ;
39 [label=<Age &le; 28.5<br/>gini = 0.05<br/>samples = 76<br/>value = [113, 3]<br/>class = 0>, fillcolor="#e6843e"] ;
38 -> 39 ;
40 [label=<BMI &le; 23.0<br/>gini = 0.021<br/>samples = 59<br/>value = [93, 1]<br/>class = 0>, fillcolor="#e5823b"] ;
39 -> 40 ;
41 [label=<SkinThickness &le; 14.0<br/>gini = 0.111<br/>samples = 12<br/>value = [16, 1]<br/>class = 0>, fillcolor="#e78945"] ;
40 -> 41 ;
42 [label=<Glucose &le; 105.0<br/>gini = 0.278<br/>samples = 5<br/>value = [5, 1]<br/>class = 0>, fillcolor="#ea9a61"] ;
41 -> 42 ;
43 [label=<gini = 0.0<br/>samples = 4<br/>value = [5, 0]<br/>class = 0>, fillcolor="#e58139"] ;
42 -> 43 ;
44 [label=<gini = 0.0<br/>samples = 1<br/>value = [0, 1]<br/>class = 1>, fillcolor="#399de5"] ;
42 -> 44 ;
45 [label=<gini = 0.0<br/>samples = 7<br/>value = [11, 0]<br/>class = 0>, fillcolor="#e58139"] ;
41 -> 45 ;
46 [label=<gini = 0.0<br/>samples = 47<br/>value = [77, 0]<br/>class = 0>, fillcolor="#e58139"] ;
40 -> 46 ;
47 [label=<Glucose &le; 122.5<br/>gini = 0.165<br/>samples = 17<br/>value = [20, 2]<br/>class = 0>, fillcolor="#e88e4d"] ;
39 -> 47 ;
48 [label=<DiabetesPedigreeFunction &le; 0.319<br/>gini = 0.091<br/>samples = 16<br/>value = [20, 1]<br/>class = 0>, fillcolor="#e68743"] ;
47 -> 48 ;
49 [label=<Age &le; 29.5<br/>gini = 0.278<br/>samples = 4<br/>value = [5, 1]<br/>class = 0>, fillcolor="#ea9a61"] ;
48 -> 49 ;
50 [label=<gini = 0.0<br/>samples = 1<br/>value = [0, 1]<br/>class = 1>, fillcolor="#399de5"] ;
49 -> 50 ;
51 [label=<gini = 0.0<br/>samples = 3<br/>value = [5, 0]<br/>class = 0>, fillcolor="#e58139"] ;
49 -> 51 ;
52 [label=<gini = 0.0<br/>samples = 12<br/>value = [15, 0]<br/>class = 0>, fillcolor="#e58139"] ;
48 -> 52 ;
53 [label=<gini = 0.0<br/>samples = 1<br/>value = [0, 1]<br/>class = 1>, fillcolor="#399de5"] ;
47 -> 53 ;
54 [label=<Age &le; 49.0<br/>gini = 0.198<br/>samples = 7<br/>value = [8, 1]<br/>class = 0>, fillcolor="#e89152"] ;
38 -> 54 ;
55 [label=<gini = 0.0<br/>samples = 6<br/>value = [8, 0]<br/>class = 0>, fillcolor="#e58139"] ;
54 -> 55 ;
56 [label=<gini = 0.0<br/>samples = 1<br/>value = [0, 1]<br/>class = 1>, fillcolor="#399de5"] ;
54 -> 56 ;
57 [label=<Age &le; 34.0<br/>gini = 0.236<br/>samples = 47<br/>value = [63, 10]<br/>class = 0>, fillcolor="#e99558"] ;
37 -> 57 ;
58 [label=<DiabetesPedigreeFunction &le; 0.519<br/>gini = 0.111<br/>samples = 31<br/>value = [48, 3]<br/>class = 0>, fillcolor="#e78945"] ;
57 -> 58 ;
59 [label=<gini = 0.0<br/>samples = 25<br/>value = [44, 0]<br/>class = 0>, fillcolor="#e58139"] ;
58 -> 59 ;
60 [label=<Pregnancies &le; 0.5<br/>gini = 0.49<br/>samples = 6<br/>value = [4, 3]<br/>class = 0>, fillcolor="#f8e0ce"] ;
58 -> 60 ;
61 [label=<gini = 0.0<br/>samples = 1<br/>value = [2, 0]<br/>class = 0>, fillcolor="#e58139"] ;
60 -> 61 ;
62 [label=<BMI &le; 32.85<br/>gini = 0.48<br/>samples = 5<br/>value = [2, 3]<br/>class = 1>, fillcolor="#bddef6"] ;
60 -> 62 ;
63 [label=<gini = 0.0<br/>samples = 2<br/>value = [2, 0]<br/>class = 0>, fillcolor="#e58139"] ;
62 -> 63 ;
64 [label=<gini = 0.0<br/>samples = 3<br/>value = [0, 3]<br/>class = 1>, fillcolor="#399de5"] ;
62 -> 64 ;
65 [label=<Age &le; 47.0<br/>gini = 0.434<br/>samples = 16<br/>value = [15.0, 7.0]<br/>class = 0>, fillcolor="#f1bc95"] ;
57 -> 65 ;
66 [label=<Age &le; 45.5<br/>gini = 0.475<br/>samples = 14<br/>value = [11, 7]<br/>class = 0>, fillcolor="#f6d1b7"] ;
65 -> 66 ;
67 [label=<Pregnancies &le; 6.5<br/>gini = 0.43<br/>samples = 12<br/>value = [11, 5]<br/>class = 0>, fillcolor="#f1ba93"] ;
66 -> 67 ;
68 [label=<Glucose &le; 110.0<br/>gini = 0.496<br/>samples = 8<br/>value = [6, 5]<br/>class = 0>, fillcolor="#fbeade"] ;
67 -> 68 ;
69 [label=<gini = 0.0<br/>samples = 5<br/>value = [6, 0]<br/>class = 0>, fillcolor="#e58139"] ;
68 -> 69 ;
70 [label=<gini = 0.0<br/>samples = 3<br/>value = [0, 5]<br/>class = 1>, fillcolor="#399de5"] ;
68 -> 70 ;
71 [label=<gini = 0.0<br/>samples = 4<br/>value = [5, 0]<br/>class = 0>, fillcolor="#e58139"] ;
67 -> 71 ;
72 [label=<gini = 0.0<br/>samples = 2<br/>value = [0, 2]<br/>class = 1>, fillcolor="#399de5"] ;
66 -> 72 ;
73 [label=<gini = 0.0<br/>samples = 2<br/>value = [4, 0]<br/>class = 0>, fillcolor="#e58139"] ;
65 -> 73 ;
74 [label=<Pregnancies &le; 4.5<br/>gini = 0.5<br/>samples = 17<br/>value = [13, 13]<br/>class = 0>, fillcolor="#ffffff"] ;
2 -> 74 ;
75 [label=<BMI &le; 50.9<br/>gini = 0.391<br/>samples = 9<br/>value = [11, 4]<br/>class = 0>, fillcolor="#eeaf81"] ;
74 -> 75 ;
76 [label=<BloodPressure &le; 78.0<br/>gini = 0.26<br/>samples = 8<br/>value = [11, 2]<br/>class = 0>, fillcolor="#ea985d"] ;
75 -> 76 ;
77 [label=<gini = 0.0<br/>samples = 6<br/>value = [10, 0]<br/>class = 0>, fillcolor="#e58139"] ;
76 -> 77 ;
78 [label=<Age &le; 26.0<br/>gini = 0.444<br/>samples = 2<br/>value = [1, 2]<br/>class = 1>, fillcolor="#9ccef2"] ;
76 -> 78 ;
79 [label=<gini = 0.0<br/>samples = 1<br/>value = [0, 2]<br/>class = 1>, fillcolor="#399de5"] ;
78 -> 79 ;
80 [label=<gini = 0.0<br/>samples = 1<br/>value = [1, 0]<br/>class = 0>, fillcolor="#e58139"] ;
78 -> 80 ;
81 [label=<gini = 0.0<br/>samples = 1<br/>value = [0, 2]<br/>class = 1>, fillcolor="#399de5"] ;
75 -> 81 ;
82 [label=<SkinThickness &le; 31.0<br/>gini = 0.298<br/>samples = 8<br/>value = [2, 9]<br/>class = 1>, fillcolor="#65b3eb"] ;
74 -> 82 ;
83 [label=<Glucose &le; 110.5<br/>gini = 0.5<br/>samples = 2<br/>value = [1, 1]<br/>class = 0>, fillcolor="#ffffff"] ;
82 -> 83 ;
84 [label=<gini = 0.0<br/>samples = 1<br/>value = [1, 0]<br/>class = 0>, fillcolor="#e58139"] ;
83 -> 84 ;
85 [label=<gini = 0.0<br/>samples = 1<br/>value = [0, 1]<br/>class = 1>, fillcolor="#399de5"] ;
83 -> 85 ;
86 [label=<Age &le; 29.5<br/>gini = 0.198<br/>samples = 6<br/>value = [1, 8]<br/>class = 1>, fillcolor="#52a9e8"] ;
82 -> 86 ;
87 [label=<gini = 0.0<br/>samples = 1<br/>value = [1, 0]<br/>class = 0>, fillcolor="#e58139"] ;
86 -> 87 ;
88 [label=<gini = 0.0<br/>samples = 5<br/>value = [0, 8]<br/>class = 1>, fillcolor="#399de5"] ;
86 -> 88 ;
89 [label=<Age &le; 21.5<br/>gini = 0.447<br/>samples = 72<br/>value = [36, 71]<br/>class = 1>, fillcolor="#9dcff2"] ;
1 -> 89 ;
90 [label=<gini = 0.0<br/>samples = 3<br/>value = [4, 0]<br/>class = 0>, fillcolor="#e58139"] ;
89 -> 90 ;
91 [label=<BMI &le; 29.85<br/>gini = 0.428<br/>samples = 69<br/>value = [32.0, 71.0]<br/>class = 1>, fillcolor="#92c9f1"] ;
89 -> 91 ;
92 [label=<BMI &le; 22.7<br/>gini = 0.365<br/>samples = 16<br/>value = [19, 6]<br/>class = 0>, fillcolor="#eda978"] ;
91 -> 92 ;
93 [label=<gini = 0.0<br/>samples = 3<br/>value = [6, 0]<br/>class = 0>, fillcolor="#e58139"] ;
92 -> 93 ;
94 [label=<Age &le; 45.0<br/>gini = 0.432<br/>samples = 13<br/>value = [13, 6]<br/>class = 0>, fillcolor="#f1bb94"] ;
92 -> 94 ;
95 [label=<BMI &le; 26.8<br/>gini = 0.198<br/>samples = 7<br/>value = [8, 1]<br/>class = 0>, fillcolor="#e89152"] ;
94 -> 95 ;
96 [label=<gini = 0.0<br/>samples = 1<br/>value = [0, 1]<br/>class = 1>, fillcolor="#399de5"] ;
95 -> 96 ;
97 [label=<gini = 0.0<br/>samples = 6<br/>value = [8, 0]<br/>class = 0>, fillcolor="#e58139"] ;
95 -> 97 ;
98 [label=<BloodPressure &le; 76.0<br/>gini = 0.5<br/>samples = 6<br/>value = [5, 5]<br/>class = 0>, fillcolor="#ffffff"] ;
94 -> 98 ;
99 [label=<gini = 0.0<br/>samples = 2<br/>value = [4, 0]<br/>class = 0>, fillcolor="#e58139"] ;
98 -> 99 ;
100 [label=<BMI &le; 26.25<br/>gini = 0.278<br/>samples = 4<br/>value = [1, 5]<br/>class = 1>, fillcolor="#61b1ea"] ;
98 -> 100 ;
101 [label=<gini = 0.0<br/>samples = 2<br/>value = [0, 3]<br/>class = 1>, fillcolor="#399de5"] ;
100 -> 101 ;
102 [label=<Age &le; 52.0<br/>gini = 0.444<br/>samples = 2<br/>value = [1, 2]<br/>class = 1>, fillcolor="#9ccef2"] ;
100 -> 102 ;
103 [label=<gini = 0.0<br/>samples = 1<br/>value = [0, 2]<br/>class = 1>, fillcolor="#399de5"] ;
102 -> 103 ;
104 [label=<gini = 0.0<br/>samples = 1<br/>value = [1, 0]<br/>class = 0>, fillcolor="#e58139"] ;
102 -> 104 ;
105 [label=<Insulin &le; 42.0<br/>gini = 0.278<br/>samples = 53<br/>value = [13, 65]<br/>class = 1>, fillcolor="#61b1ea"] ;
91 -> 105 ;
106 [label=<Age &le; 22.5<br/>gini = 0.221<br/>samples = 47<br/>value = [9.0, 62.0]<br/>class = 1>, fillcolor="#56abe9"] ;
105 -> 106 ;
107 [label=<DiabetesPedigreeFunction &le; 0.539<br/>gini = 0.444<br/>samples = 6<br/>value = [3, 6]<br/>class = 1>, fillcolor="#9ccef2"] ;
106 -> 107 ;
108 [label=<DiabetesPedigreeFunction &le; 0.226<br/>gini = 0.375<br/>samples = 4<br/>value = [3, 1]<br/>class = 0>, fillcolor="#eeab7b"] ;
107 -> 108 ;
109 [label=<BloodPressure &le; 68.0<br/>gini = 0.5<br/>samples = 2<br/>value = [1, 1]<br/>class = 0>, fillcolor="#ffffff"] ;
108 -> 109 ;
110 [label=<gini = 0.0<br/>samples = 1<br/>value = [0, 1]<br/>class = 1>, fillcolor="#399de5"] ;
109 -> 110 ;
111 [label=<gini = 0.0<br/>samples = 1<br/>value = [1, 0]<br/>class = 0>, fillcolor="#e58139"] ;
109 -> 111 ;
112 [label=<gini = 0.0<br/>samples = 2<br/>value = [2, 0]<br/>class = 0>, fillcolor="#e58139"] ;
108 -> 112 ;
113 [label=<gini = 0.0<br/>samples = 2<br/>value = [0, 5]<br/>class = 1>, fillcolor="#399de5"] ;
107 -> 113 ;
114 [label=<DiabetesPedigreeFunction &le; 0.255<br/>gini = 0.175<br/>samples = 41<br/>value = [6, 56]<br/>class = 1>, fillcolor="#4ea8e8"] ;
106 -> 114 ;
115 [label=<Glucose &le; 139.5<br/>gini = 0.375<br/>samples = 13<br/>value = [4, 12]<br/>class = 1>, fillcolor="#7bbeee"] ;
114 -> 115 ;
116 [label=<gini = 0.0<br/>samples = 2<br/>value = [2, 0]<br/>class = 0>, fillcolor="#e58139"] ;
115 -> 116 ;
117 [label=<DiabetesPedigreeFunction &le; 0.178<br/>gini = 0.245<br/>samples = 11<br/>value = [2, 12]<br/>class = 1>, fillcolor="#5aade9"] ;
115 -> 117 ;
118 [label=<gini = 0.0<br/>samples = 6<br/>value = [0, 9]<br/>class = 1>, fillcolor="#399de5"] ;
117 -> 118 ;
119 [label=<Age &le; 33.0<br/>gini = 0.48<br/>samples = 5<br/>value = [2, 3]<br/>class = 1>, fillcolor="#bddef6"] ;
117 -> 119 ;
120 [label=<gini = 0.0<br/>samples = 2<br/>value = [0, 2]<br/>class = 1>, fillcolor="#399de5"] ;
119 -> 120 ;
121 [label=<Pregnancies &le; 4.5<br/>gini = 0.444<br/>samples = 3<br/>value = [2, 1]<br/>class = 0>, fillcolor="#f2c09c"] ;
119 -> 121 ;
122 [label=<gini = 0.0<br/>samples = 1<br/>value = [0, 1]<br/>class = 1>, fillcolor="#399de5"] ;
121 -> 122 ;
123 [label=<gini = 0.0<br/>samples = 2<br/>value = [2, 0]<br/>class = 0>, fillcolor="#e58139"] ;
121 -> 123 ;
124 [label=<BMI &le; 40.15<br/>gini = 0.083<br/>samples = 28<br/>value = [2, 44]<br/>class = 1>, fillcolor="#42a1e6"] ;
114 -> 124 ;
125 [label=<gini = 0.0<br/>samples = 19<br/>value = [0, 31]<br/>class = 1>, fillcolor="#399de5"] ;
124 -> 125 ;
126 [label=<Glucose &le; 181.5<br/>gini = 0.231<br/>samples = 9<br/>value = [2, 13]<br/>class = 1>, fillcolor="#57ace9"] ;
124 -> 126 ;
127 [label=<BMI &le; 41.25<br/>gini = 0.133<br/>samples = 8<br/>value = [1, 13]<br/>class = 1>, fillcolor="#48a5e7"] ;
126 -> 127 ;
128 [label=<gini = 0.0<br/>samples = 1<br/>value = [1, 0]<br/>class = 0>, fillcolor="#e58139"] ;
127 -> 128 ;
129 [label=<gini = 0.0<br/>samples = 7<br/>value = [0, 13]<br/>class = 1>, fillcolor="#399de5"] ;
127 -> 129 ;
130 [label=<gini = 0.0<br/>samples = 1<br/>value = [1, 0]<br/>class = 0>, fillcolor="#e58139"] ;
126 -> 130 ;
131 [label=<SkinThickness &le; 31.5<br/>gini = 0.49<br/>samples = 6<br/>value = [4, 3]<br/>class = 0>, fillcolor="#f8e0ce"] ;
105 -> 131 ;
132 [label=<DiabetesPedigreeFunction &le; 0.27<br/>gini = 0.32<br/>samples = 4<br/>value = [4, 1]<br/>class = 0>, fillcolor="#eca06a"] ;
131 -> 132 ;
133 [label=<BloodPressure &le; 74.0<br/>gini = 0.5<br/>samples = 2<br/>value = [1, 1]<br/>class = 0>, fillcolor="#ffffff"] ;
132 -> 133 ;
134 [label=<gini = 0.0<br/>samples = 1<br/>value = [0, 1]<br/>class = 1>, fillcolor="#399de5"] ;
133 -> 134 ;
135 [label=<gini = 0.0<br/>samples = 1<br/>value = [1, 0]<br/>class = 0>, fillcolor="#e58139"] ;
133 -> 135 ;
136 [label=<gini = 0.0<br/>samples = 2<br/>value = [3, 0]<br/>class = 0>, fillcolor="#e58139"] ;
132 -> 136 ;
137 [label=<gini = 0.0<br/>samples = 2<br/>value = [0, 2]<br/>class = 1>, fillcolor="#399de5"] ;
131 -> 137 ;
138 [label=<Pregnancies &le; 4.5<br/>gini = 0.5<br/>samples = 114<br/>value = [87, 92]<br/>class = 1>, fillcolor="#f4fafe"] ;
0 -> 138 [labeldistance=2.5, labelangle=-45, headlabel="False"] ;
139 [label=<Glucose &le; 137.5<br/>gini = 0.475<br/>samples = 74<br/>value = [71, 45]<br/>class = 0>, fillcolor="#f5d1b6"] ;
138 -> 139 ;
140 [label=<Pregnancies &le; 1.5<br/>gini = 0.357<br/>samples = 46<br/>value = [56, 17]<br/>class = 0>, fillcolor="#eda775"] ;
139 -> 140 ;
141 [label=<BloodPressure &le; 83.0<br/>gini = 0.469<br/>samples = 26<br/>value = [25, 15]<br/>class = 0>, fillcolor="#f5cdb0"] ;
140 -> 141 ;
142 [label=<Age &le; 28.5<br/>gini = 0.391<br/>samples = 19<br/>value = [22, 8]<br/>class = 0>, fillcolor="#eeaf81"] ;
141 -> 142 ;
143 [label=<DiabetesPedigreeFunction &le; 0.609<br/>gini = 0.302<br/>samples = 17<br/>value = [22, 5]<br/>class = 0>, fillcolor="#eb9e66"] ;
142 -> 143 ;
144 [label=<Insulin &le; 230.0<br/>gini = 0.091<br/>samples = 13<br/>value = [20, 1]<br/>class = 0>, fillcolor="#e68743"] ;
143 -> 144 ;
145 [label=<gini = 0.0<br/>samples = 10<br/>value = [18, 0]<br/>class = 0>, fillcolor="#e58139"] ;
144 -> 145 ;
146 [label=<DiabetesPedigreeFunction &le; 0.359<br/>gini = 0.444<br/>samples = 3<br/>value = [2, 1]<br/>class = 0>, fillcolor="#f2c09c"] ;
144 -> 146 ;
147 [label=<gini = 0.0<br/>samples = 2<br/>value = [2, 0]<br/>class = 0>, fillcolor="#e58139"] ;
146 -> 147 ;
148 [label=<gini = 0.0<br/>samples = 1<br/>value = [0, 1]<br/>class = 1>, fillcolor="#399de5"] ;
146 -> 148 ;
149 [label=<SkinThickness &le; 24.0<br/>gini = 0.444<br/>samples = 4<br/>value = [2, 4]<br/>class = 1>, fillcolor="#9ccef2"] ;
143 -> 149 ;
150 [label=<gini = 0.0<br/>samples = 1<br/>value = [0, 2]<br/>class = 1>, fillcolor="#399de5"] ;
149 -> 150 ;
151 [label=<BloodPressure &le; 52.0<br/>gini = 0.5<br/>samples = 3<br/>value = [2, 2]<br/>class = 0>, fillcolor="#ffffff"] ;
149 -> 151 ;
152 [label=<gini = 0.0<br/>samples = 1<br/>value = [0, 2]<br/>class = 1>, fillcolor="#399de5"] ;
151 -> 152 ;
153 [label=<gini = 0.0<br/>samples = 2<br/>value = [2, 0]<br/>class = 0>, fillcolor="#e58139"] ;
151 -> 153 ;
154 [label=<gini = 0.0<br/>samples = 2<br/>value = [0, 3]<br/>class = 1>, fillcolor="#399de5"] ;
142 -> 154 ;
155 [label=<BMI &le; 45.45<br/>gini = 0.42<br/>samples = 7<br/>value = [3, 7]<br/>class = 1>, fillcolor="#8ec7f0"] ;
141 -> 155 ;
156 [label=<DiabetesPedigreeFunction &le; 0.455<br/>gini = 0.48<br/>samples = 3<br/>value = [3, 2]<br/>class = 0>, fillcolor="#f6d5bd"] ;
155 -> 156 ;
157 [label=<gini = 0.0<br/>samples = 2<br/>value = [0, 2]<br/>class = 1>, fillcolor="#399de5"] ;
156 -> 157 ;
158 [label=<gini = 0.0<br/>samples = 1<br/>value = [3, 0]<br/>class = 0>, fillcolor="#e58139"] ;
156 -> 158 ;
159 [label=<gini = 0.0<br/>samples = 4<br/>value = [0, 5]<br/>class = 1>, fillcolor="#399de5"] ;
155 -> 159 ;
160 [label=<BloodPressure &le; 90.0<br/>gini = 0.114<br/>samples = 20<br/>value = [31, 2]<br/>class = 0>, fillcolor="#e78946"] ;
140 -> 160 ;
161 [label=<BMI &le; 37.3<br/>gini = 0.061<br/>samples = 19<br/>value = [31, 1]<br/>class = 0>, fillcolor="#e6853f"] ;
160 -> 161 ;
162 [label=<gini = 0.0<br/>samples = 14<br/>value = [24, 0]<br/>class = 0>, fillcolor="#e58139"] ;
161 -> 162 ;
163 [label=<Pregnancies &le; 2.5<br/>gini = 0.219<br/>samples = 5<br/>value = [7, 1]<br/>class = 0>, fillcolor="#e99355"] ;
161 -> 163 ;
164 [label=<Age &le; 23.5<br/>gini = 0.5<br/>samples = 2<br/>value = [1, 1]<br/>class = 0>, fillcolor="#ffffff"] ;
163 -> 164 ;
165 [label=<gini = 0.0<br/>samples = 1<br/>value = [0, 1]<br/>class = 1>, fillcolor="#399de5"] ;
164 -> 165 ;
166 [label=<gini = 0.0<br/>samples = 1<br/>value = [1, 0]<br/>class = 0>, fillcolor="#e58139"] ;
164 -> 166 ;
167 [label=<gini = 0.0<br/>samples = 3<br/>value = [6, 0]<br/>class = 0>, fillcolor="#e58139"] ;
163 -> 167 ;
168 [label=<gini = 0.0<br/>samples = 1<br/>value = [0, 1]<br/>class = 1>, fillcolor="#399de5"] ;
160 -> 168 ;
169 [label=<Age &le; 24.5<br/>gini = 0.454<br/>samples = 28<br/>value = [15.0, 28.0]<br/>class = 1>, fillcolor="#a3d2f3"] ;
139 -> 169 ;
170 [label=<Glucose &le; 168.0<br/>gini = 0.499<br/>samples = 11<br/>value = [10, 9]<br/>class = 0>, fillcolor="#fcf2eb"] ;
169 -> 170 ;
171 [label=<SkinThickness &le; 34.0<br/>gini = 0.397<br/>samples = 6<br/>value = [8, 3]<br/>class = 0>, fillcolor="#efb083"] ;
170 -> 171 ;
172 [label=<gini = 0.0<br/>samples = 5<br/>value = [8, 0]<br/>class = 0>, fillcolor="#e58139"] ;
171 -> 172 ;
173 [label=<gini = 0.0<br/>samples = 1<br/>value = [0, 3]<br/>class = 1>, fillcolor="#399de5"] ;
171 -> 173 ;
174 [label=<Glucose &le; 190.5<br/>gini = 0.375<br/>samples = 5<br/>value = [2, 6]<br/>class = 1>, fillcolor="#7bbeee"] ;
170 -> 174 ;
175 [label=<gini = 0.0<br/>samples = 4<br/>value = [0, 6]<br/>class = 1>, fillcolor="#399de5"] ;
174 -> 175 ;
176 [label=<gini = 0.0<br/>samples = 1<br/>value = [2, 0]<br/>class = 0>, fillcolor="#e58139"] ;
174 -> 176 ;
177 [label=<Pregnancies &le; 3.5<br/>gini = 0.33<br/>samples = 17<br/>value = [5, 19]<br/>class = 1>, fillcolor="#6db7ec"] ;
169 -> 177 ;
178 [label=<DiabetesPedigreeFunction &le; 0.317<br/>gini = 0.245<br/>samples = 14<br/>value = [3, 18]<br/>class = 1>, fillcolor="#5aade9"] ;
177 -> 178 ;
179 [label=<SkinThickness &le; 43.5<br/>gini = 0.5<br/>samples = 6<br/>value = [3, 3]<br/>class = 0>, fillcolor="#ffffff"] ;
178 -> 179 ;
180 [label=<BloodPressure &le; 60.0<br/>gini = 0.375<br/>samples = 4<br/>value = [3, 1]<br/>class = 0>, fillcolor="#eeab7b"] ;
179 -> 180 ;
181 [label=<gini = 0.0<br/>samples = 1<br/>value = [0, 1]<br/>class = 1>, fillcolor="#399de5"] ;
180 -> 181 ;
182 [label=<gini = 0.0<br/>samples = 3<br/>value = [3, 0]<br/>class = 0>, fillcolor="#e58139"] ;
180 -> 182 ;
183 [label=<gini = 0.0<br/>samples = 2<br/>value = [0, 2]<br/>class = 1>, fillcolor="#399de5"] ;
179 -> 183 ;
184 [label=<gini = 0.0<br/>samples = 8<br/>value = [0, 15]<br/>class = 1>, fillcolor="#399de5"] ;
178 -> 184 ;
185 [label=<BloodPressure &le; 64.0<br/>gini = 0.444<br/>samples = 3<br/>value = [2, 1]<br/>class = 0>, fillcolor="#f2c09c"] ;
177 -> 185 ;
186 [label=<gini = 0.0<br/>samples = 1<br/>value = [1, 0]<br/>class = 0>, fillcolor="#e58139"] ;
185 -> 186 ;
187 [label=<Glucose &le; 185.0<br/>gini = 0.5<br/>samples = 2<br/>value = [1, 1]<br/>class = 0>, fillcolor="#ffffff"] ;
185 -> 187 ;
188 [label=<gini = 0.0<br/>samples = 1<br/>value = [0, 1]<br/>class = 1>, fillcolor="#399de5"] ;
187 -> 188 ;
189 [label=<gini = 0.0<br/>samples = 1<br/>value = [1, 0]<br/>class = 0>, fillcolor="#e58139"] ;
187 -> 189 ;
190 [label=<Glucose &le; 156.5<br/>gini = 0.379<br/>samples = 40<br/>value = [16, 47]<br/>class = 1>, fillcolor="#7cbeee"] ;
138 -> 190 ;
191 [label=<Age &le; 40.5<br/>gini = 0.472<br/>samples = 26<br/>value = [16, 26]<br/>class = 1>, fillcolor="#b3d9f5"] ;
190 -> 191 ;
192 [label=<Age &le; 26.0<br/>gini = 0.408<br/>samples = 14<br/>value = [15, 6]<br/>class = 0>, fillcolor="#efb388"] ;
191 -> 192 ;
193 [label=<gini = 0.0<br/>samples = 2<br/>value = [0, 3]<br/>class = 1>, fillcolor="#399de5"] ;
192 -> 193 ;
194 [label=<SkinThickness &le; 25.0<br/>gini = 0.278<br/>samples = 12<br/>value = [15, 3]<br/>class = 0>, fillcolor="#ea9a61"] ;
192 -> 194 ;
195 [label=<DiabetesPedigreeFunction &le; 0.402<br/>gini = 0.444<br/>samples = 3<br/>value = [1, 2]<br/>class = 1>, fillcolor="#9ccef2"] ;
194 -> 195 ;
196 [label=<gini = 0.0<br/>samples = 1<br/>value = [1, 0]<br/>class = 0>, fillcolor="#e58139"] ;
195 -> 196 ;
197 [label=<gini = 0.0<br/>samples = 2<br/>value = [0, 2]<br/>class = 1>, fillcolor="#399de5"] ;
195 -> 197 ;
198 [label=<BloodPressure &le; 79.0<br/>gini = 0.124<br/>samples = 9<br/>value = [14, 1]<br/>class = 0>, fillcolor="#e78a47"] ;
194 -> 198 ;
199 [label=<gini = 0.0<br/>samples = 6<br/>value = [9, 0]<br/>class = 0>, fillcolor="#e58139"] ;
198 -> 199 ;
200 [label=<BloodPressure &le; 82.0<br/>gini = 0.278<br/>samples = 3<br/>value = [5, 1]<br/>class = 0>, fillcolor="#ea9a61"] ;
198 -> 200 ;
201 [label=<gini = 0.0<br/>samples = 1<br/>value = [0, 1]<br/>class = 1>, fillcolor="#399de5"] ;
200 -> 201 ;
202 [label=<gini = 0.0<br/>samples = 2<br/>value = [5, 0]<br/>class = 0>, fillcolor="#e58139"] ;
200 -> 202 ;
203 [label=<Pregnancies &le; 6.5<br/>gini = 0.091<br/>samples = 12<br/>value = [1, 20]<br/>class = 1>, fillcolor="#43a2e6"] ;
191 -> 203 ;
204 [label=<BMI &le; 30.95<br/>gini = 0.278<br/>samples = 4<br/>value = [1, 5]<br/>class = 1>, fillcolor="#61b1ea"] ;
203 -> 204 ;
205 [label=<gini = 0.0<br/>samples = 1<br/>value = [0, 3]<br/>class = 1>, fillcolor="#399de5"] ;
204 -> 205 ;
206 [label=<BloodPressure &le; 71.0<br/>gini = 0.444<br/>samples = 3<br/>value = [1, 2]<br/>class = 1>, fillcolor="#9ccef2"] ;
204 -> 206 ;
207 [label=<gini = 0.0<br/>samples = 1<br/>value = [1, 0]<br/>class = 0>, fillcolor="#e58139"] ;
206 -> 207 ;
208 [label=<gini = 0.0<br/>samples = 2<br/>value = [0, 2]<br/>class = 1>, fillcolor="#399de5"] ;
206 -> 208 ;
209 [label=<gini = 0.0<br/>samples = 8<br/>value = [0, 15]<br/>class = 1>, fillcolor="#399de5"] ;
203 -> 209 ;
210 [label=<gini = 0.0<br/>samples = 14<br/>value = [0, 21]<br/>class = 1>, fillcolor="#399de5"] ;
190 -> 210 ;
}