digraph Tree {
node [shape=box, style="filled, rounded", color="black", fontname="helvetica"] ;
edge [fontname="helvetica"] ;
0 [label=<Glucose &le; 127.5<br/>gini = 0.463<br/>samples = 384<br/>value = [391.0, 223.0]<br/>class = 0>, fillcolor="#f4c9aa"] ;
1 [label=<Glucose &le; 102.5<br/>gini = 0.306<br/>samples = 240<br/>value = [310, 72]<br/>class = 0>, fillcolor="#eb9e67"] ;
0 -> 1 [labeldistance=2.5, labelangle=45, headlabel="True"] ;
2 [label=<SkinThickness &le; 24.5<br/>gini = 0.201<br/>samples = 117<br/>value = [156, 20]<br/>class = 0>, fillcolor="#e89152"] ;
1 -> 2 ;
3 [label=<Age &le; 27.5<br/>gini = 0.091<br/>samples = 68<br/>value = [100, 5]<br/>class = 0>, fillcolor="#e68743"] ;
2 -> 3 ;
4 [label=<gini = 0.0<br/>samples = 50<br/>value = [79, 0]<br/>class = 0>, fillcolor="#e58139"] ;
3 -> 4 ;
5 [label=<BMI &le; 30.3<br/>gini = 0.311<br/>samples = 18<br/>value = [21, 5]<br/>class = 0>, fillcolor="#eb9f68"] ;
3 -> 5 ;
6 [label=<gini = 0.0<br/>samples = 9<br/>value = [11, 0]<br/>class = 0>, fillcolor="#e58139"] ;
5 -> 6 ;
7 [label=<DiabetesPedigreeFunction &le; 0.187<br/>gini = 0.444<br/>samples = 9<br/>value = [10, 5]<br/>class = 0>, fillcolor="#f2c09c"] ;
5 -> 7 ;
8 [label=<gini = 0.0<br/>samples = 2<br/>value = [0, 3]<br/>class = 1>, fillcolor="#399de5"] ;
7 -> 8 ;
9 [label=<Glucose &le; 99.5<br/>gini = 0.278<br/>samples = 7<br/>value = [10, 2]<br/>class = 0>, fillcolor="#ea9a61"] ;
7 -> 9 ;
10 [label=<gini = 0.0<br/>samples = 5<br/>value = [9, 0]<br/>class = 0>, fillcolor="#e58139"] ;
9 -> 10 ;
11 [label=<Insulin &le; 85.5<br/>gini = 0.444<br/>samples = 2<br/>value = [1, 2]<br/>class = 1>, fillcolor="#9ccef2"] ;
9 -> 11 ;
12 [label=<gini = 0.0<br/>samples = 1<br/>value = [1, 0]<br/>class = 0>, fillcolor="#e58139"] ;
11 -> 12 ;
13 [label=<gini = 0.0<br/>samples = 1<br/>value = [0, 2]<br/>class = 1>, fillcolor="#399de5"] ;
11 -> 13 ;
14 [label=<BloodPressure &le; 71.0<br/>gini = 0.333<br/>samples = 49<br/>value = [56.0, 15.0]<br/>class = 0>, fillcolor="#eca36e"] ;
2 -> 14 ;
15 [label=<Glucose &le; 93.5<br/>gini = 0.214<br/>samples = 29<br/>value = [36, 5]<br/>class = 0>, fillcolor="#e99254"] ;
14 -> 15 ;
16 [label=<DiabetesPedigreeFunction &le; 0.442<br/>gini = 0.351<br/>samples = 16<br/>value = [17, 5]<br/>class = 0>, fillcolor="#eda673"] ;
15 -> 16 ;
17 [label=<Glucose &le; 79.0<br/>gini = 0.124<br/>samples = 10<br/>value = [14, 1]<br/>class = 0>, fillcolor="#e78a47"] ;
16 -> 17 ;
18 [label=<DiabetesPedigreeFunction &le; 0.29<br/>gini = 0.375<br/>samples = 3<br/>value = [3, 1]<br/>class = 0>, fillcolor="#eeab7b"] ;
17 -> 18 ;
19 [label=<gini = 0.0<br/>samples = 1<br/>value = [0, 1]<br/>class = 1>, fillcolor="#399de5"] ;
18 -> 19 ;
20 [label=<gini = 0.0<br/>samples = 2<br/>value = [3, 0]<br/>class = 0>, fillcolor="#e58139"] ;
18 -> 20 ;
21 [label=<gini = 0.0<br/>samples = 7<br/>value = [11, 0]<br/>class = 0>, fillcolor="#e58139"] ;
17 -> 21 ;
22 [label=<BMI &le; 37.6<br/>gini = 0.49<br/>samples = 6<br/>value = [3, 4]<br/>class = 1>, fillcolor="#cee6f8"] ;
16 -> 22 ;
23 [label=<gini = 0.0<br/>samples = 1<br/>value = [1, 0]<br/>class = 0>, fillcolor="#e58139"] ;
22 -> 23 ;
24 [label=<Insulin &le; 82.0<br/>gini = 0.444<br/>samples = 5<br/>value = [2, 4]<br/>class = 1>, fillcolor="#9ccef2"] ;
22 -> 24 ;
25 [label=<BloodPressure &le; 67.0<br/>gini = 0.444<br/>samples = 3<br/>value = [2, 1]<br/>class = 0>, fillcolor="#f2c09c"] ;
24 -> 25 ;
26 [label=<gini = 0.0<br/>samples = 2<br/>value = [2, 0]<br/>class = 0>, fillcolor="#e58139"] ;
25 -> 26 ;
27 [label=<gini = 0.0<br/>samples = 1<br/>value = [0, 1]<br/>class = 1>, fillcolor="#399de5"] ;
25 -> 27 ;
28 [label=<gini = 0.0<br/>samples = 2<br/>value = [0, 3]<br/>class = 1>, fillcolor="#399de5"] ;
24 -> 28 ;
29 [label=<gini = 0.0<br/>samples = 13<br/>value = [19, 0]<br/>class = 0>, fillcolor="#e58139"] ;
15 -> 29 ;
30 [label=<Pregnancies &le; 9.5<br/>gini = 0.444<br/>samples = 20<br/>value = [20, 10]<br/>class = 0>, fillcolor="#f2c09c"] ;
14 -> 30 ;
31 [label=<Glucose &le; 94.0<br/>gini = 0.32<br/>samples = 17<br/>value = [20, 5]<br/>class = 0>, fillcolor="#eca06a"] ;
30 -> 31 ;
32 [label=<gini = 0.0<br/>samples = 10<br/>value = [15, 0]<br/>class = 0>, fillcolor="#e58139"] ;
31 -> 32 ;
33 [label=<BloodPressure &le; 75.0<br/>gini = 0.5<br/>samples = 7<br/>value = [5, 5]<br/>class = 0>, fillcolor="#ffffff"] ;
31 -> 33 ;
34 [label=<gini = 0.0<br/>samples = 2<br/>value = [3, 0]<br/>class = 0>, fillcolor="#e58139"] ;
33 -> 34 ;
35 [label=<Glucose &le; 98.5<br/>gini = 0.408<br/>samples = 5<br/>value = [2, 5]<br/>class = 1>, fillcolor="#88c4ef"] ;
33 -> 35 ;
36 [label=<gini = 0.0<br/>samples = 2<br/>value = [0, 4]<br/>class = 1>, fillcolor="#399de5"] ;
35 -> 36 ;
37 [label=<Insulin &le; 45.0<br/>gini = 0.444<br/>samples = 3<br/>value = [2, 1]<br/>class = 0>, fillcolor="#f2c09c"] ;
35 -> 37 ;
38 [label=<gini = 0.0<br/>samples = 1<br/>value = [0, 1]<br/>class = 1>, fillcolor="#399de5"] ;
37 -> 38 ;
39 [label=<gini = 0.0<br/>samples = 2<br/>value = [2, 0]<br/>class = 0>, fillcolor="#e58139"] ;
37 -> 39 ;
40 [label=<gini = 0.0<br/>samples = 3<br/>value = [0, 5]<br/>class = 1>, fillcolor="#399de5"] ;
30 -> 40 ;
41 [label=<BMI &le; 45.55<br/>gini = 0.377<br/>samples = 123<br/>value = [154, 52]<br/>class = 0>, fillcolor="#eeac7c"] ;
1 -> 41 ;
42 [label=<Age &le; 28.5<br/>gini = 0.354<br/>samples = 120<br/>value = [154, 46]<br/>class = 0>, fillcolor="#eda774"] ;
41 -> 42 ;
43 [label=<DiabetesPedigreeFunction &le; 0.505<br/>gini = 0.232<br/>samples = 60<br/>value = [84, 13]<br/>class = 0>, fillcolor="#e99458"] ;
42 -> 43 ;
44 [label=<BMI &le; 31.2<br/>gini = 0.116<br/>samples = 42<br/>value = [61, 4]<br/>class = 0>, fillcolor="#e78946"] ;
43 -> 44 ;
45 [label=<gini = 0.0<br/>samples = 21<br/>value = [32, 0]<br/>class = 0>, fillcolor="#e58139"] ;
44 -> 45 ;
46 [label=<SkinThickness &le; 10.5<br/>gini = 0.213<br/>samples = 21<br/>value = [29, 4]<br/>class = 0>, fillcolor="#e99254"] ;
44 -> 46 ;
47 [label=<Pregnancies &le; 0.5<br/>gini = 0.48<br/>samples = 4<br/>value = [2, 3]<br/>class = 1>, fillcolor="#bddef6"] ;
46 -> 47 ;
48 [label=<gini = 0.0<br/>samples = 1<br/>value = [0, 2]<br/>class = 1>, fillcolor="#399de5"] ;
47 -> 48 ;
49 [label=<BloodPressure &le; 55.0<br/>gini = 0.444<br/>samples = 3<br/>value = [2, 1]<br/>class = 0>, fillcolor="#f2c09c"] ;
47 -> 49 ;
50 [label=<gini = 0.0<br/>samples = 1<br/>value = [0, 1]<br/>class = 1>, fillcolor="#399de5"] ;
49 -> 50 ;
51 [label=<gini = 0.0<br/>samples = 2<br/>value = [2, 0]<br/>class = 0>, fillcolor="#e58139"] ;
49 -> 51 ;
52 [label=<Pregnancies &le; 2.5<br/>gini = 0.069<br/>samples = 17<br/>value = [27, 1]<br/>class = 0>, fillcolor="#e68640"] ;
46 -> 52 ;
53 [label=<gini = 0.0<br/>samples = 11<br/>value = [19, 0]<br/>class = 0>, fillcolor="#e58139"] ;
52 -> 53 ;
54 [label=<Age &le; 26.5<br/>gini = 0.198<br/>samples = 6<br/>value = [8, 1]<br/>class = 0>, fillcolor="#e89152"] ;
52 -> 54 ;
55 [label=<Insulin &le; 60.0<br/>gini = 0.444<br/>samples = 3<br/>value = [2, 1]<br/>class = 0>, fillcolor="#f2c09c"] ;
54 -> 55 ;
56 [label=<SkinThickness &le; 34.5<br/>gini = 0.5<br/>samples = 2<br/>value = [1, 1]<br/>class = 0>, fillcolor="#ffffff"] ;
55 -> 56 ;
57 [label=<gini = 0.0<br/>samples = 1<br/>value = [0, 1]<br/>class = 1>, fillcolor="#399de5"] ;
56 -> 57 ;
58 [label=<gini = 0.0<br/>samples = 1<br/>value = [1, 0]<br/>class = 0>, fillcolor="#e58139"] ;
56 -> 58 ;
59 [label=<gini = 0.0<br/>samples = 1<br/>value = [1, 0]<br/>class = 0>, fillcolor="#e58139"] ;
55 -> 59 ;
60 [label=<gini = 0.0<br/>samples = 3<br/>value = [6, 0]<br/>class = 0>, fillcolor="#e58139"] ;
54 -> 60 ;
61 [label=<DiabetesPedigreeFunction &le; 0.57<br/>gini = 0.404<br/>samples = 18<br/>value = [23, 9]<br/>class = 0>, fillcolor="#efb286"] ;
43 -> 61 ;
62 [label=<gini = 0.0<br/>samples = 2<br/>value = [0, 5]<br/>class = 1>, fillcolor="#399de5"] ;
61 -> 62 ;
63 [label=<SkinThickness &le; 43.5<br/>gini = 0.252<br/>samples = 16<br/>value = [23, 4]<br/>class = 0>, fillcolor="#ea975b"] ;
61 -> 63 ;
64 [label=<BloodPressure &le; 66.0<br/>gini = 0.204<br/>samples = 15<br/>value = [23, 3]<br/>class = 0>, fillcolor="#e89153"] ;
63 -> 64 ;
65 [label=<Insulin &le; 90.0<br/>gini = 0.355<br/>samples = 8<br/>value = [10, 3]<br/>class = 0>, fillcolor="#eda774"] ;
64 -> 65 ;
66 [label=<gini = 0.0<br/>samples = 2<br/>value = [0, 3]<br/>class = 1>, fillcolor="#399de5"] ;
65 -> 66 ;
67 [label=<gini = 0.0<br/>samples = 6<br/>value = [10, 0]<br/>class = 0>, fillcolor="#e58139"] ;
65 -> 67 ;
68 [label=<gini = 0.0<br/>samples = 7<br/>value = [13, 0]<br/>class = 0>, fillcolor="#e58139"] ;
64 -> 68 ;
69 [label=<gini = 0.0<br/>samples = 1<br/>value = [0, 1]<br/>class = 1>, fillcolor="#399de5"] ;
63 -> 69 ;
70 [label=<BMI &le; 26.35<br/>gini = 0.435<br/>samples = 60<br/>value = [70, 33]<br/>class = 0>, fillcolor="#f1bc96"] ;
42 -> 70 ;
71 [label=<Pregnancies &le; 7.5<br/>gini = 0.111<br/>samples = 17<br/>value = [32, 2]<br/>class = 0>, fillcolor="#e78945"] ;
70 -> 71 ;
72 [label=<gini = 0.0<br/>samples = 11<br/>value = [20, 0]<br/>class = 0>, fillcolor="#e58139"] ;
71 -> 72 ;
73 [label=<Glucose &le; 122.5<br/>gini = 0.245<br/>samples = 6<br/>value = [12, 2]<br/>class = 0>, fillcolor="#e9965a"] ;
71 -> 73 ;
74 [label=<gini = 0.0<br/>samples = 5<br/>value = [12, 0]<br/>class = 0>, fillcolor="#e58139"] ;
73 -> 74 ;
75 [label=<gini = 0.0<br/>samples = 1<br/>value = [0, 2]<br/>class = 1>, fillcolor="#399de5"] ;
73 -> 75 ;
76 [label=<SkinThickness &le; 41.5<br/>gini = 0.495<br/>samples = 43<br/>value = [38, 31]<br/>class = 0>, fillcolor="#fae8db"] ;
70 -> 76 ;
77 [label=<BloodPressure &le; 79.0<br/>gini = 0.5<br/>samples = 40<br/>value = [33, 31]<br/>class = 0>, fillcolor="#fdf7f3"] ;
76 -> 77 ;
78 [label=<Glucose &le; 108.5<br/>gini = 0.454<br/>samples = 28<br/>value = [15.0, 28.0]<br/>class = 1>, fillcolor="#a3d2f3"] ;
77 -> 78 ;
79 [label=<Glucose &le; 104.5<br/>gini = 0.497<br/>samples = 6<br/>value = [7, 6]<br/>class = 0>, fillcolor="#fbede3"] ;
78 -> 79 ;
80 [label=<gini = 0.0<br/>samples = 1<br/>value = [0, 2]<br/>class = 1>, fillcolor="#399de5"] ;
79 -> 80 ;
81 [label=<BMI &le; 26.9<br/>gini = 0.463<br/>samples = 5<br/>value = [7, 4]<br/>class = 0>, fillcolor="#f4c9aa"] ;
79 -> 81 ;
82 [label=<gini = 0.0<br/>samples = 1<br/>value = [0, 3]<br/>class = 1>, fillcolor="#399de5"] ;
81 -> 82 ;
83 [label=<Age &le; 31.5<br/>gini = 0.219<br/>samples = 4<br/>value = [7, 1]<br/>class = 0>, fillcolor="#e99355"] ;
81 -> 83 ;
84 [label=<BMI &le; 28.95<br/>gini = 0.444<br/>samples = 2<br/>value = [2, 1]<br/>class = 0>, fillcolor="#f2c09c"] ;
83 -> 84 ;
85 [label=<gini = 0.0<br/>samples = 1<br/>value = [2, 0]<br/>class = 0>, fillcolor="#e58139"] ;
84 -> 85 ;
86 [label=<gini = 0.0<br/>samples = 1<br/>value = [0, 1]<br/>class = 1>, fillcolor="#399de5"] ;
84 -> 86 ;
87 [label=<gini = 0.0<br/>samples = 2<br/>value = [5, 0]<br/>class = 0>, fillcolor="#e58139"] ;
83 -> 87 ;
88 [label=<Insulin &le; 11.0<br/>gini = 0.391<br/>samples = 22<br/>value = [8, 22]<br/>class = 1>, fillcolor="#81c1ee"] ;
78 -> 88 ;
89 [label=<Glucose &le; 122.5<br/>gini = 0.198<br/>samples = 13<br/>value = [2, 16]<br/>class = 1>, fillcolor="#52a9e8"] ;
88 -> 89 ;
90 [label=<Pregnancies &le; 4.5<br/>gini = 0.346<br/>samples = 6<br/>value = [2, 7]<br/>class = 1>, fillcolor="#72b9ec"] ;
89 -> 90 ;
91 [label=<SkinThickness &le; 6.0<br/>gini = 0.5<br/>samples = 3<br/>value = [2, 2]<br/>class = 0>, fillcolor="#ffffff"] ;
90 -> 91 ;
92 [label=<BloodPressure &le; 70.0<br/>gini = 0.444<br/>samples = 2<br/>value = [2, 1]<br/>class = 0>, fillcolor="#f2c09c"] ;
91 -> 92 ;
93 [label=<gini = 0.0<br/>samples = 1<br/>value = [2, 0]<br/>class = 0>, fillcolor="#e58139"] ;
92 -> 93 ;
94 [label=<gini = 0.0<br/>samples = 1<br/>value = [0, 1]<br/>class = 1>, fillcolor="#399de5"] ;
92 -> 94 ;
95 [label=<gini = 0.0<br/>samples = 1<br/>value = [0, 1]<br/>class = 1>, fillcolor="#399de5"] ;
91 -> 95 ;
96 [label=<gini = 0.0<br/>samples = 3<br/>value = [0, 5]<br/>class = 1>, fillcolor="#399de5"] ;
90 -> 96 ;
97 [label=<gini = 0.0<br/>samples = 7<br/>value = [0, 9]<br/>class = 1>, fillcolor="#399de5"] ;
89 -> 97 ;
98 [label=<BloodPressure &le; 67.0<br/>gini = 0.5<br/>samples = 9<br/>value = [6, 6]<br/>class = 0>, fillcolor="#ffffff"] ;
88 -> 98 ;
99 [label=<gini = 0.0<br/>samples = 2<br/>value = [0, 3]<br/>class = 1>, fillcolor="#399de5"] ;
98 -> 99 ;
100 [label=<SkinThickness &le; 38.0<br/>gini = 0.444<br/>samples = 7<br/>value = [6, 3]<br/>class = 0>, fillcolor="#f2c09c"] ;
98 -> 100 ;
101 [label=<Insulin &le; 100.5<br/>gini = 0.375<br/>samples = 6<br/>value = [6, 2]<br/>class = 0>, fillcolor="#eeab7b"] ;
100 -> 101 ;
102 [label=<Glucose &le; 120.5<br/>gini = 0.444<br/>samples = 2<br/>value = [1, 2]<br/>class = 1>, fillcolor="#9ccef2"] ;
101 -> 102 ;
103 [label=<gini = 0.0<br/>samples = 1<br/>value = [0, 2]<br/>class = 1>, fillcolor="#399de5"] ;
102 -> 103 ;
104 [label=<gini = 0.0<br/>samples = 1<br/>value = [1, 0]<br/>class = 0>, fillcolor="#e58139"] ;
102 -> 104 ;
105 [label=<gini = 0.0<br/>samples = 4<br/>value = [5, 0]<br/>class = 0>, fillcolor="#e58139"] ;
101 -> 105 ;
106 [label=<gini = 0.0<br/>samples = 1<br/>value = [0, 1]<br/>class = 1>, fillcolor="#399de5"] ;
100 -> 106 ;
107 [label=<SkinThickness &le; 19.5<br/>gini = 0.245<br/>samples = 12<br/>value = [18, 3]<br/>class = 0>, fillcolor="#e9965a"] ;
77 -> 107 ;
108 [label=<gini = 0.0<br/>samples = 8<br/>value = [14, 0]<br/>class = 0>, fillcolor="#e58139"] ;
107 -> 108 ;
109 [label=<DiabetesPedigreeFunction &le; 0.245<br/>gini = 0.49<br/>samples = 4<br/>value = [4, 3]<br/>class = 0>, fillcolor="#f8e0ce"] ;
107 -> 109 ;
110 [label=<gini = 0.0<br/>samples = 1<br/>value = [0, 2]<br/>class = 1>, fillcolor="#399de5"] ;
109 -> 110 ;
111 [label=<DiabetesPedigreeFunction &le; 0.376<br/>gini = 0.32<br/>samples = 3<br/>value = [4, 1]<br/>class = 0>, fillcolor="#eca06a"] ;
109 -> 111 ;
112 [label=<gini = 0.0<br/>samples = 2<br/>value = [4, 0]<br/>class = 0>, fillcolor="#e58139"] ;
111 -> 112 ;
113 [label=<gini = 0.0<br/>samples = 1<br/>value = [0, 1]<br/>class = 1>, fillcolor="#399de5"] ;
111 -> 113 ;
114 [label=<gini = 0.0<br/>samples = 3<br/>value = [5, 0]<br/>class = 0>, fillcolor="#e58139"] ;
76 -> 114 ;
115 [label=<gini = 0.0<br/>samples = 3<br/>value = [0, 6]<br/>class = 1>, fillcolor="#399de5"] ;
41 -> 115 ;
116 [label=<BMI &le; 29.8<br/>gini = 0.454<br/>samples = 144<br/>value = [81, 151]<br/>class = 1>, fillcolor="#a3d2f3"] ;
0 -> 116 [labeldistance=2.5, labelangle=-45, headlabel="False"] ;
117 [label=<Glucose &le; 145.5<br/>gini = 0.433<br/>samples = 34<br/>value = [41, 19]<br/>class = 0>, fillcolor="#f1bb95"] ;
116 -> 117 ;
118 [label=<BloodPressure &le; 56.0<br/>gini = 0.193<br/>samples = 22<br/>value = [33, 4]<br/>class = 0>, fillcolor="#e89051"] ;
117 -> 118 ;
119 [label=<gini = 0.0<br/>samples = 1<br/>value = [0, 2]<br/>class = 1>, fillcolor="#399de5"] ;
118 -> 119 ;
120 [label=<BMI &le; 24.0<br/>gini = 0.108<br/>samples = 21<br/>value = [33, 2]<br/>class = 0>, fillcolor="#e78945"] ;
118 -> 120 ;
121 [label=<BMI &le; 23.75<br/>gini = 0.278<br/>samples = 4<br/>value = [5, 1]<br/>class = 0>, fillcolor="#ea9a61"] ;
120 -> 121 ;
122 [label=<gini = 0.0<br/>samples = 3<br/>value = [5, 0]<br/>class = 0>, fillcolor="#e58139"] ;
121 -> 122 ;
123 [label=<gini = 0.0<br/>samples = 1<br/>value = [0, 1]<br/>class = 1>, fillcolor="#399de5"] ;
121 -> 123 ;
124 [label=<Glucose &le; 129.5<br/>gini = 0.067<br/>samples = 17<br/>value = [28, 1]<br/>class = 0>, fillcolor="#e68640"] ;
120 -> 124 ;
125 [label=<DiabetesPedigreeFunction &le; 0.252<br/>gini = 0.444<br/>samples = 3<br/>value = [2, 1]<br/>class = 0>, fillcolor="#f2c09c"] ;
124 -> 125 ;
126 [label=<gini = 0.0<br/>samples = 1<br/>value = [0, 1]<br/>class = 1>, fillcolor="#399de5"] ;
125 -> 126 ;
127 [label=<gini = 0.0<br/>samples = 2<br/>value = [2, 0]<br/>class = 0>, fillcolor="#e58139"] ;
125 -> 127 ;
128 [label=<gini = 0.0<br/>samples = 14<br/>value = [26, 0]<br/>class = 0>, fillcolor="#e58139"] ;
124 -> 128 ;
129 [label=<DiabetesPedigreeFunction &le; 0.126<br/>gini = 0.454<br/>samples = 12<br/>value = [8, 15]<br/>class = 1>, fillcolor="#a3d1f3"] ;
117 -> 129 ;
130 [label=<gini = 0.0<br/>samples = 1<br/>value = [2, 0]<br/>class = 0>, fillcolor="#e58139"] ;
129 -> 130 ;
131 [label=<SkinThickness &le; 9.5<br/>gini = 0.408<br/>samples = 11<br/>value = [6, 15]<br/>class = 1>, fillcolor="#88c4ef"] ;
129 -> 131 ;
132 [label=<Pregnancies &le; 1.5<br/>gini = 0.48<br/>samples = 8<br/>value = [6, 9]<br/>class = 1>, fillcolor="#bddef6"] ;
131 -> 132 ;
133 [label=<gini = 0.0<br/>samples = 2<br/>value = [3, 0]<br/>class = 0>, fillcolor="#e58139"] ;
132 -> 133 ;
134 [label=<DiabetesPedigreeFunction &le; 0.395<br/>gini = 0.375<br/>samples = 6<br/>value = [3, 9]<br/>class = 1>, fillcolor="#7bbeee"] ;
132 -> 134 ;
135 [label=<Glucose &le; 148.0<br/>gini = 0.198<br/>samples = 4<br/>value = [1, 8]<br/>class = 1>, fillcolor="#52a9e8"] ;
134 -> 135 ;
136 [label=<gini = 0.0<br/>samples = 1<br/>value = [0, 4]<br/>class = 1>, fillcolor="#399de5"] ;
135 -> 136 ;
137 [label=<Pregnancies &le; 4.5<br/>gini = 0.32<br/>samples = 3<br/>value = [1, 4]<br/>class = 1>, fillcolor="#6ab6ec"] ;
135 -> 137 ;
138 [label=<gini = 0.0<br/>samples = 1<br/>value = [1, 0]<br/>class = 0>, fillcolor="#e58139"] ;
137 -> 138 ;
139 [label=<gini = 0.0<br/>samples = 2<br/>value = [0, 4]<br/>class = 1>, fillcolor="#399de5"] ;
137 -> 139 ;
140 [label=<DiabetesPedigreeFunction &le; 0.871<br/>gini = 0.444<br/>samples = 2<br/>value = [2, 1]<br/>class = 0>, fillcolor="#f2c09c"] ;
134 -> 140 ;
141 [label=<gini = 0.0<br/>samples = 1<br/>value = [2, 0]<br/>class = 0>, fillcolor="#e58139"] ;
140 -> 141 ;
142 [label=<gini = 0.0<br/>samples = 1<br/>value = [0, 1]<br/>class = 1>, fillcolor="#399de5"] ;
140 -> 142 ;
143 [label=<gini = 0.0<br/>samples = 3<br/>value = [0, 6]<br/>class = 1>, fillcolor="#399de5"] ;
131 -> 143 ;
144 [label=<BMI &le; 42.65<br/>gini = 0.357<br/>samples = 110<br/>value = [40, 132]<br/>class = 1>, fillcolor="#75bbed"] ;
116 -> 144 ;
145 [label=<Glucose &le; 159.0<br/>gini = 0.392<br/>samples = 92<br/>value = [38, 104]<br/>class = 1>, fillcolor="#81c1ee"] ;
144 -> 145 ;
146 [label=<DiabetesPedigreeFunction &le; 0.188<br/>gini = 0.474<br/>samples = 58<br/>value = [34, 54]<br/>class = 1>, fillcolor="#b6dbf5"] ;
145 -> 146 ;
147 [label=<Pregnancies &le; 10.0<br/>gini = 0.198<br/>samples = 5<br/>value = [8, 1]<br/>class = 0>, fillcolor="#e89152"] ;
146 -> 147 ;
148 [label=<gini = 0.0<br/>samples = 4<br/>value = [8, 0]<br/>class = 0>, fillcolor="#e58139"] ;
147 -> 148 ;
149 [label=<gini = 0.0<br/>samples = 1<br/>value = [0, 1]<br/>class = 1>, fillcolor="#399de5"] ;
147 -> 149 ;
150 [label=<BMI &le; 39.95<br/>gini = 0.442<br/>samples = 53<br/>value = [26, 53]<br/>class = 1>, fillcolor="#9acdf2"] ;
146 -> 150 ;
151 [label=<BloodPressure &le; 91.0<br/>gini = 0.379<br/>samples = 40<br/>value = [16, 47]<br/>class = 1>, fillcolor="#7cbeee"] ;
150 -> 151 ;
152 [label=<BloodPressure &le; 57.0<br/>gini = 0.426<br/>samples = 35<br/>value = [16, 36]<br/>class = 1>, fillcolor="#91c9f1"] ;
151 -> 152 ;
153 [label=<Age &le; 33.0<br/>gini = 0.198<br/>samples = 5<br/>value = [1, 8]<br/>class = 1>, fillcolor="#52a9e8"] ;
152 -> 153 ;
154 [label=<gini = 0.0<br/>samples = 3<br/>value = [0, 7]<br/>class = 1>, fillcolor="#399de5"] ;
153 -> 154 ;
155 [label=<Age &le; 42.5<br/>gini = 0.5<br/>samples = 2<br/>value = [1, 1]<br/>class = 0>, fillcolor="#ffffff"] ;
153 -> 155 ;
156 [label=<gini = 0.0<br/>samples = 1<br/>value = [1, 0]<br/>class = 0>, fillcolor="#e58139"] ;
155 -> 156 ;
157 [label=<gini = 0.0<br/>samples = 1<br/>value = [0, 1]<br/>class = 1>, fillcolor="#399de5"] ;
155 -> 157 ;
158 [label=<Insulin &le; 197.0<br/>gini = 0.454<br/>samples = 30<br/>value = [15.0, 28.0]<br/>class = 1>, fillcolor="#a3d2f3"] ;
152 -> 158 ;
159 [label=<DiabetesPedigreeFunction &le; 0.416<br/>gini = 0.367<br/>samples = 22<br/>value = [8, 25]<br/>class = 1>, fillcolor="#78bced"] ;
158 -> 159 ;
160 [label=<BloodPressure &le; 84.5<br/>gini = 0.497<br/>samples = 10<br/>value = [6, 7]<br/>class = 1>, fillcolor="#e3f1fb"] ;
159 -> 160 ;
161 [label=<Glucose &le; 134.0<br/>gini = 0.346<br/>samples = 7<br/>value = [2, 7]<br/>class = 1>, fillcolor="#72b9ec"] ;
160 -> 161 ;
162 [label=<gini = 0.0<br/>samples = 1<br/>value = [1, 0]<br/>class = 0>, fillcolor="#e58139"] ;
161 -> 162 ;
163 [label=<Glucose &le; 147.5<br/>gini = 0.219<br/>samples = 6<br/>value = [1, 7]<br/>class = 1>, fillcolor="#55abe9"] ;
161 -> 163 ;
164 [label=<gini = 0.0<br/>samples = 5<br/>value = [0, 7]<br/>class = 1>, fillcolor="#399de5"] ;
163 -> 164 ;
165 [label=<gini = 0.0<br/>samples = 1<br/>value = [1, 0]<br/>class = 0>, fillcolor="#e58139"] ;
163 -> 165 ;
166 [label=<gini = 0.0<br/>samples = 3<br/>value = [4, 0]<br/>class = 0>, fillcolor="#e58139"] ;
160 -> 166 ;
167 [label=<Age &le; 30.5<br/>gini = 0.18<br/>samples = 12<br/>value = [2, 18]<br/>class = 1>, fillcolor="#4fa8e8"] ;
159 -> 167 ;
168 [label=<Age &le; 27.5<br/>gini = 0.48<br/>samples = 4<br/>value = [2, 3]<br/>class = 1>, fillcolor="#bddef6"] ;
167 -> 168 ;
169 [label=<gini = 0.0<br/>samples = 2<br/>value = [0, 3]<br/>class = 1>, fillcolor="#399de5"] ;
168 -> 169 ;
170 [label=<gini = 0.0<br/>samples = 2<br/>value = [2, 0]<br/>class = 0>, fillcolor="#e58139"] ;
168 -> 170 ;
171 [label=<gini = 0.0<br/>samples = 8<br/>value = [0, 15]<br/>class = 1>, fillcolor="#399de5"] ;
167 -> 171 ;
172 [label=<BloodPressure &le; 63.0<br/>gini = 0.42<br/>samples = 8<br/>value = [7, 3]<br/>class = 0>, fillcolor="#f0b78e"] ;
158 -> 172 ;
173 [label=<gini = 0.0<br/>samples = 1<br/>value = [0, 1]<br/>class = 1>, fillcolor="#399de5"] ;
172 -> 173 ;
174 [label=<Glucose &le; 156.5<br/>gini = 0.346<br/>samples = 7<br/>value = [7, 2]<br/>class = 0>, fillcolor="#eca572"] ;
172 -> 174 ;
175 [label=<gini = 0.0<br/>samples = 4<br/>value = [5, 0]<br/>class = 0>, fillcolor="#e58139"] ;
174 -> 175 ;
176 [label=<SkinThickness &le; 21.5<br/>gini = 0.5<br/>samples = 3<br/>value = [2, 2]<br/>class = 0>, fillcolor="#ffffff"] ;
174 -> 176 ;
177 [label=<gini = 0.0<br/>samples = 1<br/>value = [2, 0]<br/>class = 0>, fillcolor="#e58139"] ;
176 -> 177 ;
178 [label=<gini = 0.0<br/>samples = 2<br/>value = [0, 2]<br/>class = 1>, fillcolor="#399de5"] ;
176 -> 178 ;
179 [label=<gini = 0.0<br/>samples = 5<br/>value = [0, 11]<br/>class = 1>, fillcolor="#399de5"] ;
151 -> 179 ;
180 [label=<BMI &le; 41.8<br/>gini = 0.469<br/>samples = 13<br/>value = [10, 6]<br/>class = 0>, fillcolor="#f5cdb0"] ;
150 -> 180 ;
181 [label=<SkinThickness &le; 43.5<br/>gini = 0.298<br/>samples = 9<br/>value = [9, 2]<br/>class = 0>, fillcolor="#eb9d65"] ;
180 -> 181 ;
182 [label=<Pregnancies &le; 8.5<br/>gini = 0.18<br/>samples = 8<br/>value = [9, 1]<br/>class = 0>, fillcolor="#e88f4f"] ;
181 -> 182 ;
183 [label=<gini = 0.0<br/>samples = 6<br/>value = [8, 0]<br/>class = 0>, fillcolor="#e58139"] ;
182 -> 183 ;
184 [label=<Glucose &le; 141.0<br/>gini = 0.5<br/>samples = 2<br/>value = [1, 1]<br/>class = 0>, fillcolor="#ffffff"] ;
182 -> 184 ;
185 [label=<gini = 0.0<br/>samples = 1<br/>value = [0, 1]<br/>class = 1>, fillcolor="#399de5"] ;
184 -> 185 ;
186 [label=<gini = 0.0<br/>samples = 1<br/>value = [1, 0]<br/>class = 0>, fillcolor="#e58139"] ;
184 -> 186 ;
187 [label=<gini = 0.0<br/>samples = 1<br/>value = [0, 1]<br/>class = 1>, fillcolor="#399de5"] ;
181 -> 187 ;
188 [label=<Age &le; 23.0<br/>gini = 0.32<br/>samples = 4<br/>value = [1, 4]<br/>class = 1>, fillcolor="#6ab6ec"] ;
180 -> 188 ;
189 [label=<Insulin &le; 155.0<br/>gini = 0.5<br/>samples = 2<br/>value = [1, 1]<br/>class = 0>, fillcolor="#ffffff"] ;
188 -> 189 ;
190 [label=<gini = 0.0<br/>samples = 1<br/>value = [0, 1]<br/>class = 1>, fillcolor="#399de5"] ;
189 -> 190 ;
191 [label=<gini = 0.0<br/>samples = 1<br/>value = [1, 0]<br/>class = 0>, fillcolor="#e58139"] ;
189 -> 191 ;
192 [label=<gini = 0.0<br/>samples = 2<br/>value = [0, 3]<br/>class = 1>, fillcolor="#399de5"] ;
188 -> 192 ;
193 [label=<BloodPressure &le; 71.0<br/>gini = 0.137<br/>samples = 34<br/>value = [4, 50]<br/>class = 1>, fillcolor="#49a5e7"] ;
145 -> 193 ;
194 [label=<Age &le; 37.5<br/>gini = 0.298<br/>samples = 13<br/>value = [4, 18]<br/>class = 1>, fillcolor="#65b3eb"] ;
193 -> 194 ;
195 [label=<Glucose &le; 183.0<br/>gini = 0.426<br/>samples = 8<br/>value = [4, 9]<br/>class = 1>, fillcolor="#91c9f1"] ;
194 -> 195 ;
196 [label=<Pregnancies &le; 5.0<br/>gini = 0.375<br/>samples = 2<br/>value = [3, 1]<br/>class = 0>, fillcolor="#eeab7b"] ;
195 -> 196 ;
197 [label=<gini = 0.0<br/>samples = 1<br/>value = [0, 1]<br/>class = 1>, fillcolor="#399de5"] ;
196 -> 197 ;
198 [label=<gini = 0.0<br/>samples = 1<br/>value = [3, 0]<br/>class = 0>, fillcolor="#e58139"] ;
196 -> 198 ;
199 [label=<SkinThickness &le; 23.0<br/>gini = 0.198<br/>samples = 6<br/>value = [1, 8]<br/>class = 1>, fillcolor="#52a9e8"] ;
195 -> 199 ;
200 [label=<BloodPressure &le; 69.0<br/>gini = 0.5<br/>samples = 2<br/>value = [1, 1]<br/>class = 0>, fillcolor="#ffffff"] ;
199 -> 200 ;
201 [label=<gini = 0.0<br/>samples = 1<br/>value = [1, 0]<br/>class = 0>, fillcolor="#e58139"] ;
200 -> 201 ;
202 [label=<gini = 0.0<br/>samples = 1<br/>value = [0, 1]<br/>class = 1>, fillcolor="#399de5"] ;
200 -> 202 ;
203 [label=<gini = 0.0<br/>samples = 4<br/>value = [0, 7]<br/>class = 1>, fillcolor="#399de5"] ;
199 -> 203 ;
204 [label=<gini = 0.0<br/>samples = 5<br/>value = [0, 9]<br/>class = 1>, fillcolor="#399de5"] ;
194 -> 204 ;
205 [label=<gini = 0.0<br/>samples = 21<br/>value = [0, 32]<br/>class = 1>, fillcolor="#399de5"] ;
193 -> 205 ;
206 [label=<BMI &le; 50.95<br/>gini = 0.124<br/>samples = 18<br/>value = [2, 28]<br/>class = 1>, fillcolor="#47a4e7"] ;
144 -> 206 ;
207 [label=<gini = 0.0<br/>samples = 15<br/>value = [0, 26]<br/>class = 1>, fillcolor="#399de5"] ;
206 -> 207 ;
208 [label=<Age &le; 24.0<br/>gini = 0.5<br/>samples = 3<br/>value = [2, 2]<br/>class = 0>, fillcolor="#ffffff"] ;
206 -> 208 ;
209 [label=<gini = 0.0<br/>samples = 1<br/>value = [2, 0]<br/>class = 0>, fillcolor="#e58139"] ;
208 -> 209 ;
210 [label=<gini = 0.0<br/>samples = 2<br/>value = [0, 2]<br/>class = 1>, fillcolor="#399de5"] ;
208 -> 210 ;
}