digraph Tree {
node [shape=box, style="filled, rounded", color="black", fontname="helvetica"] ;
edge [fontname="helvetica"] ;
0 [label=<Insulin &le; 121.0<br/>gini = 0.45<br/>samples = 385<br/>value = [404, 210]<br/>class = 0>, fillcolor="#f3c2a0"] ;
1 [label=<Age &le; 30.5<br/>gini = 0.406<br/>samples = 284<br/>value = [326, 129]<br/>class = 0>, fillcolor="#efb387"] ;
0 -> 1 [labeldistance=2.5, labelangle=45, headlabel="True"] ;
2 [label=<DiabetesPedigreeFunction &le; 1.812<br/>gini = 0.267<br/>samples = 162<br/>value = [217, 41]<br/>class = 0>, fillcolor="#ea995e"] ;
1 -> 2 ;
3 [label=<Glucose &le; 123.5<br/>gini = 0.244<br/>samples = 160<br/>value = [217, 36]<br/>class = 0>, fillcolor="#e9965a"] ;
2 -> 3 ;
4 [label=<BMI &le; 36.55<br/>gini = 0.134<br/>samples = 128<br/>value = [193.0, 15.0]<br/>class = 0>, fillcolor="#e78b48"] ;
3 -> 4 ;
5 [label=<Pregnancies &le; 6.5<br/>gini = 0.076<br/>samples = 108<br/>value = [169, 7]<br/>class = 0>, fillcolor="#e68641"] ;
4 -> 5 ;
6 [label=<Glucose &le; 111.5<br/>gini = 0.066<br/>samples = 107<br/>value = [169, 6]<br/>class = 0>, fillcolor="#e68540"] ;
5 -> 6 ;
7 [label=<DiabetesPedigreeFunction &le; 0.891<br/>gini = 0.015<br/>samples = 83<br/>value = [135, 1]<br/>class = 0>, fillcolor="#e5823a"] ;
6 -> 7 ;
8 [label=<gini = 0.0<br/>samples = 78<br/>value = [128, 0]<br/>class = 0>, fillcolor="#e58139"] ;
7 -> 8 ;
9 [label=<SkinThickness &le; 33.5<br/>gini = 0.219<br/>samples = 5<br/>value = [7, 1]<br/>class = 0>, fillcolor="#e99355"] ;
7 -> 9 ;
10 [label=<gini = 0.0<br/>samples = 4<br/>value = [7, 0]<br/>class = 0>, fillcolor="#e58139"] ;
9 -> 10 ;
11 [label=<gini = 0.0<br/>samples = 1<br/>value = [0, 1]<br/>class = 1>, fillcolor="#399de5"] ;
9 -> 11 ;
12 [label=<SkinThickness &le; 28.5<br/>gini = 0.224<br/>samples = 24<br/>value = [34, 5]<br/>class = 0>, fillcolor="#e99456"] ;
6 -> 12 ;
13 [label=<Insulin &le; 25.0<br/>gini = 0.121<br/>samples = 19<br/>value = [29, 2]<br/>class = 0>, fillcolor="#e78a47"] ;
12 -> 13 ;
14 [label=<DiabetesPedigreeFunction &le; 0.24<br/>gini = 0.219<br/>samples = 11<br/>value = [14, 2]<br/>class = 0>, fillcolor="#e99355"] ;
13 -> 14 ;
15 [label=<gini = 0.0<br/>samples = 6<br/>value = [9, 0]<br/>class = 0>, fillcolor="#e58139"] ;
14 -> 15 ;
16 [label=<BMI &le; 32.15<br/>gini = 0.408<br/>samples = 5<br/>value = [5, 2]<br/>class = 0>, fillcolor="#efb388"] ;
14 -> 16 ;
17 [label=<Age &le; 28.5<br/>gini = 0.278<br/>samples = 4<br/>value = [5, 1]<br/>class = 0>, fillcolor="#ea9a61"] ;
16 -> 17 ;
18 [label=<gini = 0.0<br/>samples = 3<br/>value = [5, 0]<br/>class = 0>, fillcolor="#e58139"] ;
17 -> 18 ;
19 [label=<gini = 0.0<br/>samples = 1<br/>value = [0, 1]<br/>class = 1>, fillcolor="#399de5"] ;
17 -> 19 ;
20 [label=<gini = 0.0<br/>samples = 1<br/>value = [0, 1]<br/>class = 1>, fillcolor="#399de5"] ;
16 -> 20 ;
21 [label=<gini = 0.0<br/>samples = 8<br/>value = [15, 0]<br/>class = 0>, fillcolor="#e58139"] ;
13 -> 21 ;
22 [label=<Age &le; 26.5<br/>gini = 0.469<br/>samples = 5<br/>value = [5, 3]<br/>class = 0>, fillcolor="#f5cdb0"] ;
12 -> 22 ;
23 [label=<Pregnancies &le; 2.0<br/>gini = 0.48<br/>samples = 3<br/>value = [2, 3]<br/>class = 1>, fillcolor="#bddef6"] ;
22 -> 23 ;
24 [label=<BloodPressure &le; 54.0<br/>gini = 0.444<br/>samples = 2<br/>value = [2, 1]<br/>class = 0>, fillcolor="#f2c09c"] ;
23 -> 24 ;
25 [label=<gini = 0.0<br/>samples = 1<br/>value = [2, 0]<br/>class = 0>, fillcolor="#e58139"] ;
24 -> 25 ;
26 [label=<gini = 0.0<br/>samples = 1<br/>value = [0, 1]<br/>class = 1>, fillcolor="#399de5"] ;
24 -> 26 ;
27 [label=<gini = 0.0<br/>samples = 1<br/>value = [0, 2]<br/>class = 1>, fillcolor="#399de5"] ;
23 -> 27 ;
28 [label=<gini = 0.0<br/>samples = 2<br/>value = [3, 0]<br/>class = 0>, fillcolor="#e58139"] ;
22 -> 28 ;
29 [label=<gini = 0.0<br/>samples = 1<br/>value = [0, 1]<br/>class = 1>, fillcolor="#399de5"] ;
5 -> 29 ;
30 [label=<Pregnancies &le; 1.5<br/>gini = 0.375<br/>samples = 20<br/>value = [24, 8]<br/>class = 0>, fillcolor="#eeab7b"] ;
4 -> 30 ;
31 [label=<DiabetesPedigreeFunction &le; 0.722<br/>gini = 0.236<br/>samples = 12<br/>value = [19, 3]<br/>class = 0>, fillcolor="#e99558"] ;
30 -> 31 ;
32 [label=<gini = 0.0<br/>samples = 10<br/>value = [17, 0]<br/>class = 0>, fillcolor="#e58139"] ;
31 -> 32 ;
33 [label=<Pregnancies &le; 0.5<br/>gini = 0.48<br/>samples = 2<br/>value = [2, 3]<br/>class = 1>, fillcolor="#bddef6"] ;
31 -> 33 ;
34 [label=<gini = 0.0<br/>samples = 1<br/>value = [0, 3]<br/>class = 1>, fillcolor="#399de5"] ;
33 -> 34 ;
35 [label=<gini = 0.0<br/>samples = 1<br/>value = [2, 0]<br/>class = 0>, fillcolor="#e58139"] ;
33 -> 35 ;
36 [label=<Insulin &le; 27.0<br/>gini = 0.5<br/>samples = 8<br/>value = [5, 5]<br/>class = 0>, fillcolor="#ffffff"] ;
30 -> 36 ;
37 [label=<DiabetesPedigreeFunction &le; 0.799<br/>gini = 0.408<br/>samples = 5<br/>value = [2, 5]<br/>class = 1>, fillcolor="#88c4ef"] ;
36 -> 37 ;
38 [label=<gini = 0.0<br/>samples = 3<br/>value = [0, 5]<br/>class = 1>, fillcolor="#399de5"] ;
37 -> 38 ;
39 [label=<gini = 0.0<br/>samples = 2<br/>value = [2, 0]<br/>class = 0>, fillcolor="#e58139"] ;
37 -> 39 ;
40 [label=<gini = 0.0<br/>samples = 3<br/>value = [3, 0]<br/>class = 0>, fillcolor="#e58139"] ;
36 -> 40 ;
41 [label=<BMI &le; 34.6<br/>gini = 0.498<br/>samples = 32<br/>value = [24, 21]<br/>class = 0>, fillcolor="#fcefe6"] ;
3 -> 41 ;
42 [label=<BloodPressure &le; 28.0<br/>gini = 0.451<br/>samples = 24<br/>value = [23, 12]<br/>class = 0>, fillcolor="#f3c3a0"] ;
41 -> 42 ;
43 [label=<gini = 0.0<br/>samples = 3<br/>value = [0, 4]<br/>class = 1>, fillcolor="#399de5"] ;
42 -> 43 ;
44 [label=<DiabetesPedigreeFunction &le; 0.341<br/>gini = 0.383<br/>samples = 21<br/>value = [23, 8]<br/>class = 0>, fillcolor="#eead7e"] ;
42 -> 44 ;
45 [label=<Insulin &le; 112.5<br/>gini = 0.124<br/>samples = 12<br/>value = [14, 1]<br/>class = 0>, fillcolor="#e78a47"] ;
44 -> 45 ;
46 [label=<gini = 0.0<br/>samples = 11<br/>value = [14, 0]<br/>class = 0>, fillcolor="#e58139"] ;
45 -> 46 ;
47 [label=<gini = 0.0<br/>samples = 1<br/>value = [0, 1]<br/>class = 1>, fillcolor="#399de5"] ;
45 -> 47 ;
48 [label=<DiabetesPedigreeFunction &le; 0.381<br/>gini = 0.492<br/>samples = 9<br/>value = [9, 7]<br/>class = 0>, fillcolor="#f9e3d3"] ;
44 -> 48 ;
49 [label=<gini = 0.0<br/>samples = 1<br/>value = [0, 4]<br/>class = 1>, fillcolor="#399de5"] ;
48 -> 49 ;
50 [label=<BMI &le; 32.35<br/>gini = 0.375<br/>samples = 8<br/>value = [9, 3]<br/>class = 0>, fillcolor="#eeab7b"] ;
48 -> 50 ;
51 [label=<BloodPressure &le; 63.0<br/>gini = 0.5<br/>samples = 6<br/>value = [3, 3]<br/>class = 0>, fillcolor="#ffffff"] ;
50 -> 51 ;
52 [label=<gini = 0.0<br/>samples = 1<br/>value = [1, 0]<br/>class = 0>, fillcolor="#e58139"] ;
51 -> 52 ;
53 [label=<DiabetesPedigreeFunction &le; 0.504<br/>gini = 0.48<br/>samples = 5<br/>value = [2, 3]<br/>class = 1>, fillcolor="#bddef6"] ;
51 -> 53 ;
54 [label=<DiabetesPedigreeFunction &le; 0.433<br/>gini = 0.444<br/>samples = 3<br/>value = [2, 1]<br/>class = 0>, fillcolor="#f2c09c"] ;
53 -> 54 ;
55 [label=<gini = 0.0<br/>samples = 1<br/>value = [0, 1]<br/>class = 1>, fillcolor="#399de5"] ;
54 -> 55 ;
56 [label=<gini = 0.0<br/>samples = 2<br/>value = [2, 0]<br/>class = 0>, fillcolor="#e58139"] ;
54 -> 56 ;
57 [label=<gini = 0.0<br/>samples = 2<br/>value = [0, 2]<br/>class = 1>, fillcolor="#399de5"] ;
53 -> 57 ;
58 [label=<gini = 0.0<br/>samples = 2<br/>value = [6, 0]<br/>class = 0>, fillcolor="#e58139"] ;
50 -> 58 ;
59 [label=<Pregnancies &le; 2.5<br/>gini = 0.18<br/>samples = 8<br/>value = [1, 9]<br/>class = 1>, fillcolor="#4fa8e8"] ;
41 -> 59 ;
60 [label=<Pregnancies &le; 1.0<br/>gini = 0.32<br/>samples = 5<br/>value = [1, 4]<br/>class = 1>, fillcolor="#6ab6ec"] ;
59 -> 60 ;
61 [label=<gini = 0.0<br/>samples = 3<br/>value = [0, 3]<br/>class = 1>, fillcolor="#399de5"] ;
60 -> 61 ;
62 [label=<SkinThickness &le; 39.5<br/>gini = 0.5<br/>samples = 2<br/>value = [1, 1]<br/>class = 0>, fillcolor="#ffffff"] ;
60 -> 62 ;
63 [label=<gini = 0.0<br/>samples = 1<br/>value = [0, 1]<br/>class = 1>, fillcolor="#399de5"] ;
62 -> 63 ;
64 [label=<gini = 0.0<br/>samples = 1<br/>value = [1, 0]<br/>class = 0>, fillcolor="#e58139"] ;
62 -> 64 ;
65 [label=<gini = 0.0<br/>samples = 3<br/>value = [0, 5]<br/>class = 1>, fillcolor="#399de5"] ;
59 -> 65 ;
66 [label=<gini = 0.0<br/>samples = 2<br/>value = [0, 5]<br/>class = 1>, fillcolor="#399de5"] ;
2 -> 66 ;
67 [label=<Pregnancies &le; 10.5<br/>gini = 0.494<br/>samples = 122<br/>value = [109, 88]<br/>class = 0>, fillcolor="#fae7d9"] ;
1 -> 67 ;
68 [label=<Age &le; 54.5<br/>gini = 0.499<br/>samples = 112<br/>value = [93.0, 86.0]<br/>class = 0>, fillcolor="#fdf6f0"] ;
67 -> 68 ;
69 [label=<BMI &le; 26.95<br/>gini = 0.498<br/>samples = 94<br/>value = [71, 80]<br/>class = 1>, fillcolor="#e9f4fc"] ;
68 -> 69 ;
70 [label=<Age &le; 49.0<br/>gini = 0.26<br/>samples = 19<br/>value = [22, 4]<br/>class = 0>, fillcolor="#ea985d"] ;
69 -> 70 ;
71 [label=<Pregnancies &le; 7.5<br/>gini = 0.083<br/>samples = 17<br/>value = [22, 1]<br/>class = 0>, fillcolor="#e68742"] ;
70 -> 71 ;
72 [label=<gini = 0.0<br/>samples = 10<br/>value = [15, 0]<br/>class = 0>, fillcolor="#e58139"] ;
71 -> 72 ;
73 [label=<Glucose &le; 161.5<br/>gini = 0.219<br/>samples = 7<br/>value = [7, 1]<br/>class = 0>, fillcolor="#e99355"] ;
71 -> 73 ;
74 [label=<gini = 0.0<br/>samples = 6<br/>value = [7, 0]<br/>class = 0>, fillcolor="#e58139"] ;
73 -> 74 ;
75 [label=<gini = 0.0<br/>samples = 1<br/>value = [0, 1]<br/>class = 1>, fillcolor="#399de5"] ;
73 -> 75 ;
76 [label=<gini = 0.0<br/>samples = 2<br/>value = [0, 3]<br/>class = 1>, fillcolor="#399de5"] ;
70 -> 76 ;
77 [label=<Age &le; 32.5<br/>gini = 0.477<br/>samples = 75<br/>value = [49, 76]<br/>class = 1>, fillcolor="#b9dcf6"] ;
69 -> 77 ;
78 [label=<BloodPressure &le; 32.0<br/>gini = 0.117<br/>samples = 11<br/>value = [1, 15]<br/>class = 1>, fillcolor="#46a4e7"] ;
77 -> 78 ;
79 [label=<Pregnancies &le; 2.0<br/>gini = 0.5<br/>samples = 2<br/>value = [1, 1]<br/>class = 0>, fillcolor="#ffffff"] ;
78 -> 79 ;
80 [label=<gini = 0.0<br/>samples = 1<br/>value = [0, 1]<br/>class = 1>, fillcolor="#399de5"] ;
79 -> 80 ;
81 [label=<gini = 0.0<br/>samples = 1<br/>value = [1, 0]<br/>class = 0>, fillcolor="#e58139"] ;
79 -> 81 ;
82 [label=<gini = 0.0<br/>samples = 9<br/>value = [0, 14]<br/>class = 1>, fillcolor="#399de5"] ;
78 -> 82 ;
83 [label=<BloodPressure &le; 67.0<br/>gini = 0.493<br/>samples = 64<br/>value = [48, 61]<br/>class = 1>, fillcolor="#d5eaf9"] ;
77 -> 83 ;
84 [label=<SkinThickness &le; 12.5<br/>gini = 0.105<br/>samples = 10<br/>value = [1, 17]<br/>class = 1>, fillcolor="#45a3e7"] ;
83 -> 84 ;
85 [label=<gini = 0.0<br/>samples = 7<br/>value = [0, 15]<br/>class = 1>, fillcolor="#399de5"] ;
84 -> 85 ;
86 [label=<Age &le; 40.5<br/>gini = 0.444<br/>samples = 3<br/>value = [1, 2]<br/>class = 1>, fillcolor="#9ccef2"] ;
84 -> 86 ;
87 [label=<gini = 0.0<br/>samples = 2<br/>value = [0, 2]<br/>class = 1>, fillcolor="#399de5"] ;
86 -> 87 ;
88 [label=<gini = 0.0<br/>samples = 1<br/>value = [1, 0]<br/>class = 0>, fillcolor="#e58139"] ;
86 -> 88 ;
89 [label=<Pregnancies &le; 3.5<br/>gini = 0.499<br/>samples = 54<br/>value = [47.0, 44.0]<br/>class = 0>, fillcolor="#fdf7f2"] ;
83 -> 89 ;
90 [label=<Age &le; 49.0<br/>gini = 0.464<br/>samples = 16<br/>value = [11, 19]<br/>class = 1>, fillcolor="#acd6f4"] ;
89 -> 90 ;
91 [label=<Insulin &le; 75.5<br/>gini = 0.497<br/>samples = 13<br/>value = [11, 13]<br/>class = 1>, fillcolor="#e1f0fb"] ;
90 -> 91 ;
92 [label=<SkinThickness &le; 24.0<br/>gini = 0.475<br/>samples = 10<br/>value = [11, 7]<br/>class = 0>, fillcolor="#f6d1b7"] ;
91 -> 92 ;
93 [label=<BloodPressure &le; 81.0<br/>gini = 0.48<br/>samples = 6<br/>value = [4, 6]<br/>class = 1>, fillcolor="#bddef6"] ;
92 -> 93 ;
94 [label=<BMI &le; 33.45<br/>gini = 0.375<br/>samples = 4<br/>value = [2, 6]<br/>class = 1>, fillcolor="#7bbeee"] ;
93 -> 94 ;
95 [label=<Glucose &le; 101.0<br/>gini = 0.444<br/>samples = 2<br/>value = [2, 1]<br/>class = 0>, fillcolor="#f2c09c"] ;
94 -> 95 ;
96 [label=<gini = 0.0<br/>samples = 1<br/>value = [2, 0]<br/>class = 0>, fillcolor="#e58139"] ;
95 -> 96 ;
97 [label=<gini = 0.0<br/>samples = 1<br/>value = [0, 1]<br/>class = 1>, fillcolor="#399de5"] ;
95 -> 97 ;
98 [label=<gini = 0.0<br/>samples = 2<br/>value = [0, 5]<br/>class = 1>, fillcolor="#399de5"] ;
94 -> 98 ;
99 [label=<gini = 0.0<br/>samples = 2<br/>value = [2, 0]<br/>class = 0>, fillcolor="#e58139"] ;
93 -> 99 ;
100 [label=<BMI &le; 32.75<br/>gini = 0.219<br/>samples = 4<br/>value = [7, 1]<br/>class = 0>, fillcolor="#e99355"] ;
92 -> 100 ;
101 [label=<gini = 0.0<br/>samples = 1<br/>value = [0, 1]<br/>class = 1>, fillcolor="#399de5"] ;
100 -> 101 ;
102 [label=<gini = 0.0<br/>samples = 3<br/>value = [7, 0]<br/>class = 0>, fillcolor="#e58139"] ;
100 -> 102 ;
103 [label=<gini = 0.0<br/>samples = 3<br/>value = [0, 6]<br/>class = 1>, fillcolor="#399de5"] ;
91 -> 103 ;
104 [label=<gini = 0.0<br/>samples = 3<br/>value = [0, 6]<br/>class = 1>, fillcolor="#399de5"] ;
90 -> 104 ;
105 [label=<BMI &le; 39.5<br/>gini = 0.484<br/>samples = 38<br/>value = [36, 25]<br/>class = 0>, fillcolor="#f7d8c2"] ;
89 -> 105 ;
106 [label=<DiabetesPedigreeFunction &le; 0.722<br/>gini = 0.423<br/>samples = 31<br/>value = [32, 14]<br/>class = 0>, fillcolor="#f0b890"] ;
105 -> 106 ;
107 [label=<BMI &le; 30.0<br/>gini = 0.369<br/>samples = 28<br/>value = [31, 10]<br/>class = 0>, fillcolor="#edaa79"] ;
106 -> 107 ;
108 [label=<gini = 0.0<br/>samples = 4<br/>value = [7, 0]<br/>class = 0>, fillcolor="#e58139"] ;
107 -> 108 ;
109 [label=<Glucose &le; 130.5<br/>gini = 0.415<br/>samples = 24<br/>value = [24, 10]<br/>class = 0>, fillcolor="#f0b58b"] ;
107 -> 109 ;
110 [label=<DiabetesPedigreeFunction &le; 0.376<br/>gini = 0.269<br/>samples = 18<br/>value = [21, 4]<br/>class = 0>, fillcolor="#ea995f"] ;
109 -> 110 ;
111 [label=<Glucose &le; 123.5<br/>gini = 0.165<br/>samples = 15<br/>value = [20, 2]<br/>class = 0>, fillcolor="#e88e4d"] ;
110 -> 111 ;
112 [label=<gini = 0.0<br/>samples = 10<br/>value = [16, 0]<br/>class = 0>, fillcolor="#e58139"] ;
111 -> 112 ;
113 [label=<BloodPressure &le; 77.0<br/>gini = 0.444<br/>samples = 5<br/>value = [4, 2]<br/>class = 0>, fillcolor="#f2c09c"] ;
111 -> 113 ;
114 [label=<gini = 0.0<br/>samples = 2<br/>value = [0, 2]<br/>class = 1>, fillcolor="#399de5"] ;
113 -> 114 ;
115 [label=<gini = 0.0<br/>samples = 3<br/>value = [4, 0]<br/>class = 0>, fillcolor="#e58139"] ;
113 -> 115 ;
116 [label=<Pregnancies &le; 6.5<br/>gini = 0.444<br/>samples = 3<br/>value = [1, 2]<br/>class = 1>, fillcolor="#9ccef2"] ;
110 -> 116 ;
117 [label=<gini = 0.0<br/>samples = 2<br/>value = [0, 2]<br/>class = 1>, fillcolor="#399de5"] ;
116 -> 117 ;
118 [label=<gini = 0.0<br/>samples = 1<br/>value = [1, 0]<br/>class = 0>, fillcolor="#e58139"] ;
116 -> 118 ;
119 [label=<Glucose &le; 170.5<br/>gini = 0.444<br/>samples = 6<br/>value = [3, 6]<br/>class = 1>, fillcolor="#9ccef2"] ;
109 -> 119 ;
120 [label=<gini = 0.0<br/>samples = 5<br/>value = [0, 6]<br/>class = 1>, fillcolor="#399de5"] ;
119 -> 120 ;
121 [label=<gini = 0.0<br/>samples = 1<br/>value = [3, 0]<br/>class = 0>, fillcolor="#e58139"] ;
119 -> 121 ;
122 [label=<Insulin &le; 35.5<br/>gini = 0.32<br/>samples = 3<br/>value = [1, 4]<br/>class = 1>, fillcolor="#6ab6ec"] ;
106 -> 122 ;
123 [label=<gini = 0.0<br/>samples = 2<br/>value = [0, 4]<br/>class = 1>, fillcolor="#399de5"] ;
122 -> 123 ;
124 [label=<gini = 0.0<br/>samples = 1<br/>value = [1, 0]<br/>class = 0>, fillcolor="#e58139"] ;
122 -> 124 ;
125 [label=<Pregnancies &le; 6.0<br/>gini = 0.391<br/>samples = 7<br/>value = [4, 11]<br/>class = 1>, fillcolor="#81c1ee"] ;
105 -> 125 ;
126 [label=<Glucose &le; 71.5<br/>gini = 0.444<br/>samples = 2<br/>value = [2, 1]<br/>class = 0>, fillcolor="#f2c09c"] ;
125 -> 126 ;
127 [label=<gini = 0.0<br/>samples = 1<br/>value = [0, 1]<br/>class = 1>, fillcolor="#399de5"] ;
126 -> 127 ;
128 [label=<gini = 0.0<br/>samples = 1<br/>value = [2, 0]<br/>class = 0>, fillcolor="#e58139"] ;
126 -> 128 ;
129 [label=<DiabetesPedigreeFunction &le; 0.549<br/>gini = 0.278<br/>samples = 5<br/>value = [2, 10]<br/>class = 1>, fillcolor="#61b1ea"] ;
125 -> 129 ;
130 [label=<gini = 0.0<br/>samples = 3<br/>value = [0, 9]<br/>class = 1>, fillcolor="#399de5"] ;
129 -> 130 ;
131 [label=<Glucose &le; 117.0<br/>gini = 0.444<br/>samples = 2<br/>value = [2, 1]<br/>class = 0>, fillcolor="#f2c09c"] ;
129 -> 131 ;
132 [label=<gini = 0.0<br/>samples = 1<br/>value = [0, 1]<br/>class = 1>, fillcolor="#399de5"] ;
131 -> 132 ;
133 [label=<gini = 0.0<br/>samples = 1<br/>value = [2, 0]<br/>class = 0>, fillcolor="#e58139"] ;
131 -> 133 ;
134 [label=<BloodPressure &le; 89.0<br/>gini = 0.337<br/>samples = 18<br/>value = [22, 6]<br/>class = 0>, fillcolor="#eca36f"] ;
68 -> 134 ;
135 [label=<Age &le; 61.5<br/>gini = 0.211<br/>samples = 17<br/>value = [22, 3]<br/>class = 0>, fillcolor="#e99254"] ;
134 -> 135 ;
136 [label=<BMI &le; 31.35<br/>gini = 0.375<br/>samples = 8<br/>value = [9, 3]<br/>class = 0>, fillcolor="#eeab7b"] ;
135 -> 136 ;
137 [label=<Age &le; 59.5<br/>gini = 0.298<br/>samples = 7<br/>value = [9, 2]<br/>class = 0>, fillcolor="#eb9d65"] ;
136 -> 137 ;
138 [label=<gini = 0.0<br/>samples = 6<br/>value = [9, 0]<br/>class = 0>, fillcolor="#e58139"] ;
137 -> 138 ;
139 [label=<gini = 0.0<br/>samples = 1<br/>value = [0, 2]<br/>class = 1>, fillcolor="#399de5"] ;
137 -> 139 ;
140 [label=<gini = 0.0<br/>samples = 1<br/>value = [0, 1]<br/>class = 1>, fillcolor="#399de5"] ;
136 -> 140 ;
141 [label=<gini = 0.0<br/>samples = 9<br/>value = [13, 0]<br/>class = 0>, fillcolor="#e58139"] ;
135 -> 141 ;
142 [label=<gini = 0.0<br/>samples = 1<br/>value = [0, 3]<br/>class = 1>, fillcolor="#399de5"] ;
134 -> 142 ;
143 [label=<Age &le; 45.5<br/>gini = 0.198<br/>samples = 10<br/>value = [16, 2]<br/>class = 0>, fillcolor="#e89152"] ;
67 -> 143 ;
144 [label=<SkinThickness &le; 16.0<br/>gini = 0.346<br/>samples = 6<br/>value = [7, 2]<br/>class = 0>, fillcolor="#eca572"] ;
143 -> 144 ;
145 [label=<gini = 0.0<br/>samples = 3<br/>value = [6, 0]<br/>class = 0>, fillcolor="#e58139"] ;
144 -> 145 ;
146 [label=<Pregnancies &le; 11.5<br/>gini = 0.444<br/>samples = 3<br/>value = [1, 2]<br/>class = 1>, fillcolor="#9ccef2"] ;
144 -> 146 ;
147 [label=<gini = 0.0<br/>samples = 1<br/>value = [0, 1]<br/>class = 1>, fillcolor="#399de5"] ;
146 -> 147 ;
148 [label=<Insulin &le; 55.0<br/>gini = 0.5<br/>samples = 2<br/>value = [1, 1]<br/>class = 0>, fillcolor="#ffffff"] ;
146 -> 148 ;
149 [label=<gini = 0.0<br/>samples = 1<br/>value = [1, 0]<br/>class = 0>, fillcolor="#e58139"] ;
148 -> 149 ;
150 [label=<gini = 0.0<br/>samples = 1<br/>value = [0, 1]<br/>class = 1>, fillcolor="#399de5"] ;
148 -> 150 ;
151 [label=<gini = 0.0<br/>samples = 4<br/>value = [9, 0]<br/>class = 0>, fillcolor="#e58139"] ;
143 -> 151 ;
152 [label=<BMI &le; 28.85<br/>gini = 0.5<br/>samples = 101<br/>value = [78, 81]<br/>class = 1>, fillcolor="#f8fbfe"] ;
0 -> 152 [labeldistance=2.5, labelangle=-45, headlabel="False"] ;
153 [label=<Insulin &le; 133.5<br/>gini = 0.312<br/>samples = 22<br/>value = [25, 6]<br/>class = 0>, fillcolor="#eb9f69"] ;
152 -> 153 ;
154 [label=<gini = 0.0<br/>samples = 1<br/>value = [0, 2]<br/>class = 1>, fillcolor="#399de5"] ;
153 -> 154 ;
155 [label=<Pregnancies &le; 5.0<br/>gini = 0.238<br/>samples = 21<br/>value = [25, 4]<br/>class = 0>, fillcolor="#e99559"] ;
153 -> 155 ;
156 [label=<DiabetesPedigreeFunction &le; 0.551<br/>gini = 0.087<br/>samples = 15<br/>value = [21, 1]<br/>class = 0>, fillcolor="#e68742"] ;
155 -> 156 ;
157 [label=<Insulin &le; 146.0<br/>gini = 0.18<br/>samples = 7<br/>value = [9, 1]<br/>class = 0>, fillcolor="#e88f4f"] ;
156 -> 157 ;
158 [label=<gini = 0.0<br/>samples = 1<br/>value = [0, 1]<br/>class = 1>, fillcolor="#399de5"] ;
157 -> 158 ;
159 [label=<gini = 0.0<br/>samples = 6<br/>value = [9, 0]<br/>class = 0>, fillcolor="#e58139"] ;
157 -> 159 ;
160 [label=<gini = 0.0<br/>samples = 8<br/>value = [12, 0]<br/>class = 0>, fillcolor="#e58139"] ;
156 -> 160 ;
161 [label=<BMI &le; 28.75<br/>gini = 0.49<br/>samples = 6<br/>value = [4, 3]<br/>class = 0>, fillcolor="#f8e0ce"] ;
155 -> 161 ;
162 [label=<BMI &le; 26.55<br/>gini = 0.48<br/>samples = 5<br/>value = [2, 3]<br/>class = 1>, fillcolor="#bddef6"] ;
161 -> 162 ;
163 [label=<Glucose &le; 165.5<br/>gini = 0.444<br/>samples = 3<br/>value = [2, 1]<br/>class = 0>, fillcolor="#f2c09c"] ;
162 -> 163 ;
164 [label=<gini = 0.0<br/>samples = 2<br/>value = [2, 0]<br/>class = 0>, fillcolor="#e58139"] ;
163 -> 164 ;
165 [label=<gini = 0.0<br/>samples = 1<br/>value = [0, 1]<br/>class = 1>, fillcolor="#399de5"] ;
163 -> 165 ;
166 [label=<gini = 0.0<br/>samples = 2<br/>value = [0, 2]<br/>class = 1>, fillcolor="#399de5"] ;
162 -> 166 ;
167 [label=<gini = 0.0<br/>samples = 1<br/>value = [2, 0]<br/>class = 0>, fillcolor="#e58139"] ;
161 -> 167 ;
168 [label=<Glucose &le; 116.5<br/>gini = 0.485<br/>samples = 79<br/>value = [53, 75]<br/>class = 1>, fillcolor="#c5e2f7"] ;
152 -> 168 ;
169 [label=<DiabetesPedigreeFunction &le; 0.505<br/>gini = 0.384<br/>samples = 17<br/>value = [20, 7]<br/>class = 0>, fillcolor="#eead7e"] ;
168 -> 169 ;
170 [label=<Pregnancies &le; 7.5<br/>gini = 0.287<br/>samples = 13<br/>value = [19, 4]<br/>class = 0>, fillcolor="#ea9c63"] ;
169 -> 170 ;
171 [label=<gini = 0.0<br/>samples = 11<br/>value = [19, 0]<br/>class = 0>, fillcolor="#e58139"] ;
170 -> 171 ;
172 [label=<gini = 0.0<br/>samples = 2<br/>value = [0, 4]<br/>class = 1>, fillcolor="#399de5"] ;
170 -> 172 ;
173 [label=<Glucose &le; 109.5<br/>gini = 0.375<br/>samples = 4<br/>value = [1, 3]<br/>class = 1>, fillcolor="#7bbeee"] ;
169 -> 173 ;
174 [label=<gini = 0.0<br/>samples = 3<br/>value = [0, 3]<br/>class = 1>, fillcolor="#399de5"] ;
173 -> 174 ;
175 [label=<gini = 0.0<br/>samples = 1<br/>value = [1, 0]<br/>class = 0>, fillcolor="#e58139"] ;
173 -> 175 ;
176 [label=<DiabetesPedigreeFunction &le; 0.233<br/>gini = 0.44<br/>samples = 62<br/>value = [33, 68]<br/>class = 1>, fillcolor="#99cdf2"] ;
168 -> 176 ;
177 [label=<gini = 0.0<br/>samples = 3<br/>value = [3, 0]<br/>class = 0>, fillcolor="#e58139"] ;
176 -> 177 ;
178 [label=<Glucose &le; 167.5<br/>gini = 0.425<br/>samples = 59<br/>value = [30, 68]<br/>class = 1>, fillcolor="#90c8f0"] ;
176 -> 178 ;
179 [label=<BloodPressure &le; 73.0<br/>gini = 0.467<br/>samples = 46<br/>value = [29, 49]<br/>class = 1>, fillcolor="#aed7f4"] ;
178 -> 179 ;
180 [label=<Pregnancies &le; 2.5<br/>gini = 0.337<br/>samples = 16<br/>value = [6, 22]<br/>class = 1>, fillcolor="#6fb8ec"] ;
179 -> 180 ;
181 [label=<gini = 0.0<br/>samples = 6<br/>value = [0, 15]<br/>class = 1>, fillcolor="#399de5"] ;
180 -> 181 ;
182 [label=<SkinThickness &le; 25.5<br/>gini = 0.497<br/>samples = 10<br/>value = [6, 7]<br/>class = 1>, fillcolor="#e3f1fb"] ;
180 -> 182 ;
183 [label=<gini = 0.0<br/>samples = 2<br/>value = [0, 4]<br/>class = 1>, fillcolor="#399de5"] ;
182 -> 183 ;
184 [label=<Age &le; 34.5<br/>gini = 0.444<br/>samples = 8<br/>value = [6, 3]<br/>class = 0>, fillcolor="#f2c09c"] ;
182 -> 184 ;
185 [label=<gini = 0.0<br/>samples = 3<br/>value = [3, 0]<br/>class = 0>, fillcolor="#e58139"] ;
184 -> 185 ;
186 [label=<Age &le; 47.5<br/>gini = 0.5<br/>samples = 5<br/>value = [3, 3]<br/>class = 0>, fillcolor="#ffffff"] ;
184 -> 186 ;
187 [label=<DiabetesPedigreeFunction &le; 0.316<br/>gini = 0.375<br/>samples = 4<br/>value = [1, 3]<br/>class = 1>, fillcolor="#7bbeee"] ;
186 -> 187 ;
188 [label=<gini = 0.0<br/>samples = 1<br/>value = [1, 0]<br/>class = 0>, fillcolor="#e58139"] ;
187 -> 188 ;
189 [label=<gini = 0.0<br/>samples = 3<br/>value = [0, 3]<br/>class = 1>, fillcolor="#399de5"] ;
187 -> 189 ;
190 [label=<gini = 0.0<br/>samples = 1<br/>value = [2, 0]<br/>class = 0>, fillcolor="#e58139"] ;
186 -> 190 ;
191 [label=<Glucose &le; 151.5<br/>gini = 0.497<br/>samples = 30<br/>value = [23, 27]<br/>class = 1>, fillcolor="#e2f0fb"] ;
179 -> 191 ;
192 [label=<Glucose &le; 127.5<br/>gini = 0.444<br/>samples = 24<br/>value = [13, 26]<br/>class = 1>, fillcolor="#9ccef2"] ;
191 -> 192 ;
193 [label=<Age &le; 29.5<br/>gini = 0.48<br/>samples = 8<br/>value = [9, 6]<br/>class = 0>, fillcolor="#f6d5bd"] ;
192 -> 193 ;
194 [label=<gini = 0.0<br/>samples = 5<br/>value = [8, 0]<br/>class = 0>, fillcolor="#e58139"] ;
193 -> 194 ;
195 [label=<Glucose &le; 119.0<br/>gini = 0.245<br/>samples = 3<br/>value = [1, 6]<br/>class = 1>, fillcolor="#5aade9"] ;
193 -> 195 ;
196 [label=<gini = 0.0<br/>samples = 2<br/>value = [0, 6]<br/>class = 1>, fillcolor="#399de5"] ;
195 -> 196 ;
197 [label=<gini = 0.0<br/>samples = 1<br/>value = [1, 0]<br/>class = 0>, fillcolor="#e58139"] ;
195 -> 197 ;
198 [label=<Age &le; 30.5<br/>gini = 0.278<br/>samples = 16<br/>value = [4, 20]<br/>class = 1>, fillcolor="#61b1ea"] ;
192 -> 198 ;
199 [label=<Insulin &le; 182.0<br/>gini = 0.444<br/>samples = 5<br/>value = [4, 2]<br/>class = 0>, fillcolor="#f2c09c"] ;
198 -> 199 ;
200 [label=<gini = 0.0<br/>samples = 2<br/>value = [0, 2]<br/>class = 1>, fillcolor="#399de5"] ;
199 -> 200 ;
201 [label=<gini = 0.0<br/>samples = 3<br/>value = [4, 0]<br/>class = 0>, fillcolor="#e58139"] ;
199 -> 201 ;
202 [label=<gini = 0.0<br/>samples = 11<br/>value = [0, 18]<br/>class = 1>, fillcolor="#399de5"] ;
198 -> 202 ;
203 [label=<BloodPressure &le; 83.0<br/>gini = 0.165<br/>samples = 6<br/>value = [10, 1]<br/>class = 0>, fillcolor="#e88e4d"] ;
191 -> 203 ;
204 [label=<gini = 0.0<br/>samples = 3<br/>value = [6, 0]<br/>class = 0>, fillcolor="#e58139"] ;
203 -> 204 ;
205 [label=<DiabetesPedigreeFunction &le; 0.507<br/>gini = 0.32<br/>samples = 3<br/>value = [4, 1]<br/>class = 0>, fillcolor="#eca06a"] ;
203 -> 205 ;
206 [label=<gini = 0.0<br/>samples = 1<br/>value = [0, 1]<br/>class = 1>, fillcolor="#399de5"] ;
205 -> 206 ;
207 [label=<gini = 0.0<br/>samples = 2<br/>value = [4, 0]<br/>class = 0>, fillcolor="#e58139"] ;
205 -> 207 ;
208 [label=<BMI &le; 36.6<br/>gini = 0.095<br/>samples = 13<br/>value = [1, 19]<br/>class = 1>, fillcolor="#43a2e6"] ;
178 -> 208 ;
209 [label=<gini = 0.0<br/>samples = 7<br/>value = [0, 12]<br/>class = 1>, fillcolor="#399de5"] ;
208 -> 209 ;
210 [label=<SkinThickness &le; 35.5<br/>gini = 0.219<br/>samples = 6<br/>value = [1, 7]<br/>class = 1>, fillcolor="#55abe9"] ;
208 -> 210 ;
211 [label=<gini = 0.0<br/>samples = 3<br/>value = [0, 5]<br/>class = 1>, fillcolor="#399de5"] ;
210 -> 211 ;
212 [label=<Insulin &le; 604.5<br/>gini = 0.444<br/>samples = 3<br/>value = [1, 2]<br/>class = 1>, fillcolor="#9ccef2"] ;
210 -> 212 ;
213 [label=<gini = 0.0<br/>samples = 2<br/>value = [0, 2]<br/>class = 1>, fillcolor="#399de5"] ;
212 -> 213 ;
214 [label=<gini = 0.0<br/>samples = 1<br/>value = [1, 0]<br/>class = 0>, fillcolor="#e58139"] ;
212 -> 214 ;
}