digraph Tree {
node [shape=box, style="filled, rounded", color="black", fontname="helvetica"] ;
edge [fontname="helvetica"] ;
0 [label=<BMI &le; 26.35<br/>gini = 0.448<br/>samples = 394<br/>value = [406, 208]<br/>class = 0>, fillcolor="#f2c29e"] ;
1 [label=<Glucose &le; 155.5<br/>gini = 0.158<br/>samples = 91<br/>value = [137, 13]<br/>class = 0>, fillcolor="#e78d4c"] ;
0 -> 1 [labeldistance=2.5, labelangle=45, headlabel="True"] ;
2 [label=<Age &le; 52.5<br/>gini = 0.029<br/>samples = 83<br/>value = [133, 2]<br/>class = 0>, fillcolor="#e5833c"] ;
1 -> 2 ;
3 [label=<gini = 0.0<br/>samples = 73<br/>value = [122, 0]<br/>class = 0>, fillcolor="#e58139"] ;
2 -> 3 ;
4 [label=<Age &le; 54.5<br/>gini = 0.26<br/>samples = 10<br/>value = [11, 2]<br/>class = 0>, fillcolor="#ea985d"] ;
2 -> 4 ;
5 [label=<gini = 0.0<br/>samples = 1<br/>value = [0, 1]<br/>class = 1>, fillcolor="#399de5"] ;
4 -> 5 ;
6 [label=<BMI &le; 23.45<br/>gini = 0.153<br/>samples = 9<br/>value = [11, 1]<br/>class = 0>, fillcolor="#e78c4b"] ;
4 -> 6 ;
7 [label=<gini = 0.0<br/>samples = 5<br/>value = [8, 0]<br/>class = 0>, fillcolor="#e58139"] ;
6 -> 7 ;
8 [label=<Age &le; 62.0<br/>gini = 0.375<br/>samples = 4<br/>value = [3, 1]<br/>class = 0>, fillcolor="#eeab7b"] ;
6 -> 8 ;
9 [label=<Glucose &le; 124.0<br/>gini = 0.5<br/>samples = 2<br/>value = [1, 1]<br/>class = 0>, fillcolor="#ffffff"] ;
8 -> 9 ;
10 [label=<gini = 0.0<br/>samples = 1<br/>value = [1, 0]<br/>class = 0>, fillcolor="#e58139"] ;
9 -> 10 ;
11 [label=<gini = 0.0<br/>samples = 1<br/>value = [0, 1]<br/>class = 1>, fillcolor="#399de5"] ;
9 -> 11 ;
12 [label=<gini = 0.0<br/>samples = 2<br/>value = [2, 0]<br/>class = 0>, fillcolor="#e58139"] ;
8 -> 12 ;
13 [label=<SkinThickness &le; 16.5<br/>gini = 0.391<br/>samples = 8<br/>value = [4, 11]<br/>class = 1>, fillcolor="#81c1ee"] ;
1 -> 13 ;
14 [label=<SkinThickness &le; 8.0<br/>gini = 0.32<br/>samples = 4<br/>value = [4, 1]<br/>class = 0>, fillcolor="#eca06a"] ;
13 -> 14 ;
15 [label=<DiabetesPedigreeFunction &le; 0.192<br/>gini = 0.375<br/>samples = 3<br/>value = [3, 1]<br/>class = 0>, fillcolor="#eeab7b"] ;
14 -> 15 ;
16 [label=<gini = 0.0<br/>samples = 1<br/>value = [0, 1]<br/>class = 1>, fillcolor="#399de5"] ;
15 -> 16 ;
17 [label=<gini = 0.0<br/>samples = 2<br/>value = [3, 0]<br/>class = 0>, fillcolor="#e58139"] ;
15 -> 17 ;
18 [label=<gini = 0.0<br/>samples = 1<br/>value = [1, 0]<br/>class = 0>, fillcolor="#e58139"] ;
14 -> 18 ;
19 [label=<gini = 0.0<br/>samples = 4<br/>value = [0, 10]<br/>class = 1>, fillcolor="#399de5"] ;
13 -> 19 ;
20 [label=<Pregnancies &le; 6.5<br/>gini = 0.487<br/>samples = 303<br/>value = [269, 195]<br/>class = 0>, fillcolor="#f8dcc9"] ;
0 -> 20 [labeldistance=2.5, labelangle=-45, headlabel="False"] ;
21 [label=<Age &le; 32.5<br/>gini = 0.46<br/>samples = 239<br/>value = [234, 131]<br/>class = 0>, fillcolor="#f4c8a8"] ;
20 -> 21 ;
22 [label=<Glucose &le; 154.5<br/>gini = 0.366<br/>samples = 168<br/>value = [195, 62]<br/>class = 0>, fillcolor="#eda978"] ;
21 -> 22 ;
23 [label=<SkinThickness &le; 5.0<br/>gini = 0.285<br/>samples = 147<br/>value = [188, 39]<br/>class = 0>, fillcolor="#ea9b62"] ;
22 -> 23 ;
24 [label=<Glucose &le; 93.5<br/>gini = 0.454<br/>samples = 28<br/>value = [30, 16]<br/>class = 0>, fillcolor="#f3c4a3"] ;
23 -> 24 ;
25 [label=<gini = 0.0<br/>samples = 7<br/>value = [12, 0]<br/>class = 0>, fillcolor="#e58139"] ;
24 -> 25 ;
26 [label=<BloodPressure &le; 53.0<br/>gini = 0.498<br/>samples = 21<br/>value = [18, 16]<br/>class = 0>, fillcolor="#fcf1e9"] ;
24 -> 26 ;
27 [label=<gini = 0.0<br/>samples = 5<br/>value = [0, 8]<br/>class = 1>, fillcolor="#399de5"] ;
26 -> 27 ;
28 [label=<BMI &le; 31.8<br/>gini = 0.426<br/>samples = 16<br/>value = [18, 8]<br/>class = 0>, fillcolor="#f1b991"] ;
26 -> 28 ;
29 [label=<BMI &le; 27.8<br/>gini = 0.133<br/>samples = 9<br/>value = [13, 1]<br/>class = 0>, fillcolor="#e78b48"] ;
28 -> 29 ;
30 [label=<BMI &le; 27.2<br/>gini = 0.5<br/>samples = 2<br/>value = [1, 1]<br/>class = 0>, fillcolor="#ffffff"] ;
29 -> 30 ;
31 [label=<gini = 0.0<br/>samples = 1<br/>value = [1, 0]<br/>class = 0>, fillcolor="#e58139"] ;
30 -> 31 ;
32 [label=<gini = 0.0<br/>samples = 1<br/>value = [0, 1]<br/>class = 1>, fillcolor="#399de5"] ;
30 -> 32 ;
33 [label=<gini = 0.0<br/>samples = 7<br/>value = [12, 0]<br/>class = 0>, fillcolor="#e58139"] ;
29 -> 33 ;
34 [label=<DiabetesPedigreeFunction &le; 0.72<br/>gini = 0.486<br/>samples = 7<br/>value = [5, 7]<br/>class = 1>, fillcolor="#c6e3f8"] ;
28 -> 34 ;
35 [label=<DiabetesPedigreeFunction &le; 0.465<br/>gini = 0.42<br/>samples = 6<br/>value = [3, 7]<br/>class = 1>, fillcolor="#8ec7f0"] ;
34 -> 35 ;
36 [label=<Age &le; 27.0<br/>gini = 0.5<br/>samples = 5<br/>value = [3, 3]<br/>class = 0>, fillcolor="#ffffff"] ;
35 -> 36 ;
37 [label=<gini = 0.0<br/>samples = 2<br/>value = [2, 0]<br/>class = 0>, fillcolor="#e58139"] ;
36 -> 37 ;
38 [label=<BMI &le; 39.0<br/>gini = 0.375<br/>samples = 3<br/>value = [1, 3]<br/>class = 1>, fillcolor="#7bbeee"] ;
36 -> 38 ;
39 [label=<gini = 0.0<br/>samples = 2<br/>value = [0, 3]<br/>class = 1>, fillcolor="#399de5"] ;
38 -> 39 ;
40 [label=<gini = 0.0<br/>samples = 1<br/>value = [1, 0]<br/>class = 0>, fillcolor="#e58139"] ;
38 -> 40 ;
41 [label=<gini = 0.0<br/>samples = 1<br/>value = [0, 4]<br/>class = 1>, fillcolor="#399de5"] ;
35 -> 41 ;
42 [label=<gini = 0.0<br/>samples = 1<br/>value = [2, 0]<br/>class = 0>, fillcolor="#e58139"] ;
34 -> 42 ;
43 [label=<DiabetesPedigreeFunction &le; 1.096<br/>gini = 0.222<br/>samples = 119<br/>value = [158, 23]<br/>class = 0>, fillcolor="#e99356"] ;
23 -> 43 ;
44 [label=<DiabetesPedigreeFunction &le; 0.553<br/>gini = 0.209<br/>samples = 115<br/>value = [156, 21]<br/>class = 0>, fillcolor="#e89254"] ;
43 -> 44 ;
45 [label=<BloodPressure &le; 89.0<br/>gini = 0.259<br/>samples = 80<br/>value = [100, 18]<br/>class = 0>, fillcolor="#ea985d"] ;
44 -> 45 ;
46 [label=<Glucose &le; 127.5<br/>gini = 0.227<br/>samples = 77<br/>value = [100, 15]<br/>class = 0>, fillcolor="#e99457"] ;
45 -> 46 ;
47 [label=<SkinThickness &le; 40.5<br/>gini = 0.108<br/>samples = 62<br/>value = [82, 5]<br/>class = 0>, fillcolor="#e78945"] ;
46 -> 47 ;
48 [label=<BloodPressure &le; 51.0<br/>gini = 0.051<br/>samples = 56<br/>value = [75, 2]<br/>class = 0>, fillcolor="#e6843e"] ;
47 -> 48 ;
49 [label=<BMI &le; 30.9<br/>gini = 0.32<br/>samples = 5<br/>value = [4, 1]<br/>class = 0>, fillcolor="#eca06a"] ;
48 -> 49 ;
50 [label=<gini = 0.0<br/>samples = 3<br/>value = [3, 0]<br/>class = 0>, fillcolor="#e58139"] ;
49 -> 50 ;
51 [label=<Insulin &le; 211.5<br/>gini = 0.5<br/>samples = 2<br/>value = [1, 1]<br/>class = 0>, fillcolor="#ffffff"] ;
49 -> 51 ;
52 [label=<gini = 0.0<br/>samples = 1<br/>value = [0, 1]<br/>class = 1>, fillcolor="#399de5"] ;
51 -> 52 ;
53 [label=<gini = 0.0<br/>samples = 1<br/>value = [1, 0]<br/>class = 0>, fillcolor="#e58139"] ;
51 -> 53 ;
54 [label=<Age &le; 21.5<br/>gini = 0.027<br/>samples = 51<br/>value = [71, 1]<br/>class = 0>, fillcolor="#e5833c"] ;
48 -> 54 ;
55 [label=<Glucose &le; 106.0<br/>gini = 0.18<br/>samples = 7<br/>value = [9, 1]<br/>class = 0>, fillcolor="#e88f4f"] ;
54 -> 55 ;
56 [label=<gini = 0.0<br/>samples = 5<br/>value = [7, 0]<br/>class = 0>, fillcolor="#e58139"] ;
55 -> 56 ;
57 [label=<Pregnancies &le; 1.5<br/>gini = 0.444<br/>samples = 2<br/>value = [2, 1]<br/>class = 0>, fillcolor="#f2c09c"] ;
55 -> 57 ;
58 [label=<gini = 0.0<br/>samples = 1<br/>value = [0, 1]<br/>class = 1>, fillcolor="#399de5"] ;
57 -> 58 ;
59 [label=<gini = 0.0<br/>samples = 1<br/>value = [2, 0]<br/>class = 0>, fillcolor="#e58139"] ;
57 -> 59 ;
60 [label=<gini = 0.0<br/>samples = 44<br/>value = [62, 0]<br/>class = 0>, fillcolor="#e58139"] ;
54 -> 60 ;
61 [label=<BMI &le; 39.4<br/>gini = 0.42<br/>samples = 6<br/>value = [7, 3]<br/>class = 0>, fillcolor="#f0b78e"] ;
47 -> 61 ;
62 [label=<gini = 0.0<br/>samples = 2<br/>value = [0, 2]<br/>class = 1>, fillcolor="#399de5"] ;
61 -> 62 ;
63 [label=<Age &le; 24.0<br/>gini = 0.219<br/>samples = 4<br/>value = [7, 1]<br/>class = 0>, fillcolor="#e99355"] ;
61 -> 63 ;
64 [label=<gini = 0.0<br/>samples = 2<br/>value = [4, 0]<br/>class = 0>, fillcolor="#e58139"] ;
63 -> 64 ;
65 [label=<Insulin &le; 134.5<br/>gini = 0.375<br/>samples = 2<br/>value = [3, 1]<br/>class = 0>, fillcolor="#eeab7b"] ;
63 -> 65 ;
66 [label=<gini = 0.0<br/>samples = 1<br/>value = [0, 1]<br/>class = 1>, fillcolor="#399de5"] ;
65 -> 66 ;
67 [label=<gini = 0.0<br/>samples = 1<br/>value = [3, 0]<br/>class = 0>, fillcolor="#e58139"] ;
65 -> 67 ;
68 [label=<Pregnancies &le; 3.5<br/>gini = 0.459<br/>samples = 15<br/>value = [18, 10]<br/>class = 0>, fillcolor="#f3c7a7"] ;
46 -> 68 ;
69 [label=<Glucose &le; 146.0<br/>gini = 0.484<br/>samples = 9<br/>value = [7, 10]<br/>class = 1>, fillcolor="#c4e2f7"] ;
68 -> 69 ;
70 [label=<SkinThickness &le; 27.5<br/>gini = 0.355<br/>samples = 7<br/>value = [3, 10]<br/>class = 1>, fillcolor="#74baed"] ;
69 -> 70 ;
71 [label=<Age &le; 24.5<br/>gini = 0.375<br/>samples = 3<br/>value = [3, 1]<br/>class = 0>, fillcolor="#eeab7b"] ;
70 -> 71 ;
72 [label=<gini = 0.0<br/>samples = 2<br/>value = [3, 0]<br/>class = 0>, fillcolor="#e58139"] ;
71 -> 72 ;
73 [label=<gini = 0.0<br/>samples = 1<br/>value = [0, 1]<br/>class = 1>, fillcolor="#399de5"] ;
71 -> 73 ;
74 [label=<gini = 0.0<br/>samples = 4<br/>value = [0, 9]<br/>class = 1>, fillcolor="#399de5"] ;
70 -> 74 ;
75 [label=<gini = 0.0<br/>samples = 2<br/>value = [4, 0]<br/>class = 0>, fillcolor="#e58139"] ;
69 -> 75 ;
76 [label=<gini = 0.0<br/>samples = 6<br/>value = [11, 0]<br/>class = 0>, fillcolor="#e58139"] ;
68 -> 76 ;
77 [label=<gini = 0.0<br/>samples = 3<br/>value = [0, 3]<br/>class = 1>, fillcolor="#399de5"] ;
45 -> 77 ;
78 [label=<BloodPressure &le; 66.0<br/>gini = 0.097<br/>samples = 35<br/>value = [56, 3]<br/>class = 0>, fillcolor="#e68844"] ;
44 -> 78 ;
79 [label=<Insulin &le; 154.0<br/>gini = 0.227<br/>samples = 15<br/>value = [20, 3]<br/>class = 0>, fillcolor="#e99457"] ;
78 -> 79 ;
80 [label=<gini = 0.0<br/>samples = 11<br/>value = [16, 0]<br/>class = 0>, fillcolor="#e58139"] ;
79 -> 80 ;
81 [label=<Glucose &le; 129.0<br/>gini = 0.49<br/>samples = 4<br/>value = [4, 3]<br/>class = 0>, fillcolor="#f8e0ce"] ;
79 -> 81 ;
82 [label=<gini = 0.0<br/>samples = 3<br/>value = [0, 3]<br/>class = 1>, fillcolor="#399de5"] ;
81 -> 82 ;
83 [label=<gini = 0.0<br/>samples = 1<br/>value = [4, 0]<br/>class = 0>, fillcolor="#e58139"] ;
81 -> 83 ;
84 [label=<gini = 0.0<br/>samples = 20<br/>value = [36, 0]<br/>class = 0>, fillcolor="#e58139"] ;
78 -> 84 ;
85 [label=<Age &le; 28.0<br/>gini = 0.5<br/>samples = 4<br/>value = [2, 2]<br/>class = 0>, fillcolor="#ffffff"] ;
43 -> 85 ;
86 [label=<SkinThickness &le; 20.5<br/>gini = 0.444<br/>samples = 3<br/>value = [2, 1]<br/>class = 0>, fillcolor="#f2c09c"] ;
85 -> 86 ;
87 [label=<gini = 0.0<br/>samples = 1<br/>value = [0, 1]<br/>class = 1>, fillcolor="#399de5"] ;
86 -> 87 ;
88 [label=<gini = 0.0<br/>samples = 2<br/>value = [2, 0]<br/>class = 0>, fillcolor="#e58139"] ;
86 -> 88 ;
89 [label=<gini = 0.0<br/>samples = 1<br/>value = [0, 1]<br/>class = 1>, fillcolor="#399de5"] ;
85 -> 89 ;
90 [label=<BloodPressure &le; 87.0<br/>gini = 0.358<br/>samples = 21<br/>value = [7, 23]<br/>class = 1>, fillcolor="#75bbed"] ;
22 -> 90 ;
91 [label=<Pregnancies &le; 3.5<br/>gini = 0.328<br/>samples = 20<br/>value = [6, 23]<br/>class = 1>, fillcolor="#6db7ec"] ;
90 -> 91 ;
92 [label=<Pregnancies &le; 2.5<br/>gini = 0.236<br/>samples = 16<br/>value = [3, 19]<br/>class = 1>, fillcolor="#58ace9"] ;
91 -> 92 ;
93 [label=<Age &le; 25.5<br/>gini = 0.142<br/>samples = 8<br/>value = [1, 12]<br/>class = 1>, fillcolor="#49a5e7"] ;
92 -> 93 ;
94 [label=<gini = 0.0<br/>samples = 5<br/>value = [0, 7]<br/>class = 1>, fillcolor="#399de5"] ;
93 -> 94 ;
95 [label=<Glucose &le; 163.5<br/>gini = 0.278<br/>samples = 3<br/>value = [1, 5]<br/>class = 1>, fillcolor="#61b1ea"] ;
93 -> 95 ;
96 [label=<gini = 0.0<br/>samples = 2<br/>value = [0, 5]<br/>class = 1>, fillcolor="#399de5"] ;
95 -> 96 ;
97 [label=<gini = 0.0<br/>samples = 1<br/>value = [1, 0]<br/>class = 0>, fillcolor="#e58139"] ;
95 -> 97 ;
98 [label=<Glucose &le; 160.5<br/>gini = 0.346<br/>samples = 8<br/>value = [2, 7]<br/>class = 1>, fillcolor="#72b9ec"] ;
92 -> 98 ;
99 [label=<gini = 0.0<br/>samples = 1<br/>value = [1, 0]<br/>class = 0>, fillcolor="#e58139"] ;
98 -> 99 ;
100 [label=<BloodPressure &le; 67.0<br/>gini = 0.219<br/>samples = 7<br/>value = [1, 7]<br/>class = 1>, fillcolor="#55abe9"] ;
98 -> 100 ;
101 [label=<SkinThickness &le; 31.0<br/>gini = 0.5<br/>samples = 2<br/>value = [1, 1]<br/>class = 0>, fillcolor="#ffffff"] ;
100 -> 101 ;
102 [label=<gini = 0.0<br/>samples = 1<br/>value = [1, 0]<br/>class = 0>, fillcolor="#e58139"] ;
101 -> 102 ;
103 [label=<gini = 0.0<br/>samples = 1<br/>value = [0, 1]<br/>class = 1>, fillcolor="#399de5"] ;
101 -> 103 ;
104 [label=<gini = 0.0<br/>samples = 5<br/>value = [0, 6]<br/>class = 1>, fillcolor="#399de5"] ;
100 -> 104 ;
105 [label=<BloodPressure &le; 71.0<br/>gini = 0.49<br/>samples = 4<br/>value = [3, 4]<br/>class = 1>, fillcolor="#cee6f8"] ;
91 -> 105 ;
106 [label=<Pregnancies &le; 5.0<br/>gini = 0.375<br/>samples = 2<br/>value = [3, 1]<br/>class = 0>, fillcolor="#eeab7b"] ;
105 -> 106 ;
107 [label=<gini = 0.0<br/>samples = 1<br/>value = [3, 0]<br/>class = 0>, fillcolor="#e58139"] ;
106 -> 107 ;
108 [label=<gini = 0.0<br/>samples = 1<br/>value = [0, 1]<br/>class = 1>, fillcolor="#399de5"] ;
106 -> 108 ;
109 [label=<gini = 0.0<br/>samples = 2<br/>value = [0, 3]<br/>class = 1>, fillcolor="#399de5"] ;
105 -> 109 ;
110 [label=<gini = 0.0<br/>samples = 1<br/>value = [1, 0]<br/>class = 0>, fillcolor="#e58139"] ;
90 -> 110 ;
111 [label=<DiabetesPedigreeFunction &le; 0.309<br/>gini = 0.461<br/>samples = 71<br/>value = [39, 69]<br/>class = 1>, fillcolor="#a9d4f4"] ;
21 -> 111 ;
112 [label=<BloodPressure &le; 59.0<br/>gini = 0.486<br/>samples = 35<br/>value = [31, 22]<br/>class = 0>, fillcolor="#f7dac6"] ;
111 -> 112 ;
113 [label=<gini = 0.0<br/>samples = 3<br/>value = [5, 0]<br/>class = 0>, fillcolor="#e58139"] ;
112 -> 113 ;
114 [label=<Age &le; 48.5<br/>gini = 0.497<br/>samples = 32<br/>value = [26, 22]<br/>class = 0>, fillcolor="#fbece1"] ;
112 -> 114 ;
115 [label=<Pregnancies &le; 1.5<br/>gini = 0.444<br/>samples = 22<br/>value = [22, 11]<br/>class = 0>, fillcolor="#f2c09c"] ;
114 -> 115 ;
116 [label=<Insulin &le; 82.5<br/>gini = 0.48<br/>samples = 8<br/>value = [4, 6]<br/>class = 1>, fillcolor="#bddef6"] ;
115 -> 116 ;
117 [label=<Glucose &le; 117.5<br/>gini = 0.5<br/>samples = 6<br/>value = [4, 4]<br/>class = 0>, fillcolor="#ffffff"] ;
116 -> 117 ;
118 [label=<BMI &le; 36.15<br/>gini = 0.32<br/>samples = 4<br/>value = [4, 1]<br/>class = 0>, fillcolor="#eca06a"] ;
117 -> 118 ;
119 [label=<gini = 0.0<br/>samples = 2<br/>value = [3, 0]<br/>class = 0>, fillcolor="#e58139"] ;
118 -> 119 ;
120 [label=<Pregnancies &le; 0.5<br/>gini = 0.5<br/>samples = 2<br/>value = [1, 1]<br/>class = 0>, fillcolor="#ffffff"] ;
118 -> 120 ;
121 [label=<gini = 0.0<br/>samples = 1<br/>value = [1, 0]<br/>class = 0>, fillcolor="#e58139"] ;
120 -> 121 ;
122 [label=<gini = 0.0<br/>samples = 1<br/>value = [0, 1]<br/>class = 1>, fillcolor="#399de5"] ;
120 -> 122 ;
123 [label=<gini = 0.0<br/>samples = 2<br/>value = [0, 3]<br/>class = 1>, fillcolor="#399de5"] ;
117 -> 123 ;
124 [label=<gini = 0.0<br/>samples = 2<br/>value = [0, 2]<br/>class = 1>, fillcolor="#399de5"] ;
116 -> 124 ;
125 [label=<Age &le; 39.5<br/>gini = 0.34<br/>samples = 14<br/>value = [18, 5]<br/>class = 0>, fillcolor="#eca470"] ;
115 -> 125 ;
126 [label=<BloodPressure &le; 80.0<br/>gini = 0.153<br/>samples = 8<br/>value = [11, 1]<br/>class = 0>, fillcolor="#e78c4b"] ;
125 -> 126 ;
127 [label=<gini = 0.0<br/>samples = 5<br/>value = [8, 0]<br/>class = 0>, fillcolor="#e58139"] ;
126 -> 127 ;
128 [label=<Age &le; 35.5<br/>gini = 0.375<br/>samples = 3<br/>value = [3, 1]<br/>class = 0>, fillcolor="#eeab7b"] ;
126 -> 128 ;
129 [label=<gini = 0.0<br/>samples = 2<br/>value = [3, 0]<br/>class = 0>, fillcolor="#e58139"] ;
128 -> 129 ;
130 [label=<gini = 0.0<br/>samples = 1<br/>value = [0, 1]<br/>class = 1>, fillcolor="#399de5"] ;
128 -> 130 ;
131 [label=<Glucose &le; 116.0<br/>gini = 0.463<br/>samples = 6<br/>value = [7, 4]<br/>class = 0>, fillcolor="#f4c9aa"] ;
125 -> 131 ;
132 [label=<Pregnancies &le; 3.5<br/>gini = 0.32<br/>samples = 3<br/>value = [1, 4]<br/>class = 1>, fillcolor="#6ab6ec"] ;
131 -> 132 ;
133 [label=<gini = 0.0<br/>samples = 1<br/>value = [1, 0]<br/>class = 0>, fillcolor="#e58139"] ;
132 -> 133 ;
134 [label=<gini = 0.0<br/>samples = 2<br/>value = [0, 4]<br/>class = 1>, fillcolor="#399de5"] ;
132 -> 134 ;
135 [label=<gini = 0.0<br/>samples = 3<br/>value = [6, 0]<br/>class = 0>, fillcolor="#e58139"] ;
131 -> 135 ;
136 [label=<BMI &le; 26.8<br/>gini = 0.391<br/>samples = 10<br/>value = [4, 11]<br/>class = 1>, fillcolor="#81c1ee"] ;
114 -> 136 ;
137 [label=<gini = 0.0<br/>samples = 1<br/>value = [1, 0]<br/>class = 0>, fillcolor="#e58139"] ;
136 -> 137 ;
138 [label=<Pregnancies &le; 1.0<br/>gini = 0.337<br/>samples = 9<br/>value = [3, 11]<br/>class = 1>, fillcolor="#6fb8ec"] ;
136 -> 138 ;
139 [label=<gini = 0.0<br/>samples = 1<br/>value = [1, 0]<br/>class = 0>, fillcolor="#e58139"] ;
138 -> 139 ;
140 [label=<BMI &le; 32.45<br/>gini = 0.26<br/>samples = 8<br/>value = [2, 11]<br/>class = 1>, fillcolor="#5dafea"] ;
138 -> 140 ;
141 [label=<DiabetesPedigreeFunction &le; 0.253<br/>gini = 0.375<br/>samples = 5<br/>value = [2, 6]<br/>class = 1>, fillcolor="#7bbeee"] ;
140 -> 141 ;
142 [label=<BMI &le; 28.65<br/>gini = 0.5<br/>samples = 4<br/>value = [2, 2]<br/>class = 0>, fillcolor="#ffffff"] ;
141 -> 142 ;
143 [label=<gini = 0.0<br/>samples = 1<br/>value = [1, 0]<br/>class = 0>, fillcolor="#e58139"] ;
142 -> 143 ;
144 [label=<DiabetesPedigreeFunction &le; 0.189<br/>gini = 0.444<br/>samples = 3<br/>value = [1, 2]<br/>class = 1>, fillcolor="#9ccef2"] ;
142 -> 144 ;
145 [label=<gini = 0.0<br/>samples = 2<br/>value = [0, 2]<br/>class = 1>, fillcolor="#399de5"] ;
144 -> 145 ;
146 [label=<gini = 0.0<br/>samples = 1<br/>value = [1, 0]<br/>class = 0>, fillcolor="#e58139"] ;
144 -> 146 ;
147 [label=<gini = 0.0<br/>samples = 1<br/>value = [0, 4]<br/>class = 1>, fillcolor="#399de5"] ;
141 -> 147 ;
148 [label=<gini = 0.0<br/>samples = 3<br/>value = [0, 5]<br/>class = 1>, fillcolor="#399de5"] ;
140 -> 148 ;
149 [label=<Glucose &le; 98.5<br/>gini = 0.249<br/>samples = 36<br/>value = [8, 47]<br/>class = 1>, fillcolor="#5baee9"] ;
111 -> 149 ;
150 [label=<gini = 0.0<br/>samples = 1<br/>value = [1, 0]<br/>class = 0>, fillcolor="#e58139"] ;
149 -> 150 ;
151 [label=<SkinThickness &le; 47.0<br/>gini = 0.226<br/>samples = 35<br/>value = [7, 47]<br/>class = 1>, fillcolor="#56ace9"] ;
149 -> 151 ;
152 [label=<DiabetesPedigreeFunction &le; 1.389<br/>gini = 0.201<br/>samples = 34<br/>value = [6, 47]<br/>class = 1>, fillcolor="#52aae8"] ;
151 -> 152 ;
153 [label=<Age &le; 39.5<br/>gini = 0.145<br/>samples = 32<br/>value = [4, 47]<br/>class = 1>, fillcolor="#4aa5e7"] ;
152 -> 153 ;
154 [label=<Glucose &le; 156.0<br/>gini = 0.287<br/>samples = 15<br/>value = [4, 19]<br/>class = 1>, fillcolor="#63b2ea"] ;
153 -> 154 ;
155 [label=<BMI &le; 35.3<br/>gini = 0.444<br/>samples = 9<br/>value = [4, 8]<br/>class = 1>, fillcolor="#9ccef2"] ;
154 -> 155 ;
156 [label=<Pregnancies &le; 3.5<br/>gini = 0.5<br/>samples = 6<br/>value = [4, 4]<br/>class = 0>, fillcolor="#ffffff"] ;
155 -> 156 ;
157 [label=<gini = 0.0<br/>samples = 1<br/>value = [0, 2]<br/>class = 1>, fillcolor="#399de5"] ;
156 -> 157 ;
158 [label=<BloodPressure &le; 62.0<br/>gini = 0.444<br/>samples = 5<br/>value = [4, 2]<br/>class = 0>, fillcolor="#f2c09c"] ;
156 -> 158 ;
159 [label=<gini = 0.0<br/>samples = 1<br/>value = [0, 1]<br/>class = 1>, fillcolor="#399de5"] ;
158 -> 159 ;
160 [label=<BMI &le; 32.15<br/>gini = 0.32<br/>samples = 4<br/>value = [4, 1]<br/>class = 0>, fillcolor="#eca06a"] ;
158 -> 160 ;
161 [label=<gini = 0.0<br/>samples = 2<br/>value = [3, 0]<br/>class = 0>, fillcolor="#e58139"] ;
160 -> 161 ;
162 [label=<DiabetesPedigreeFunction &le; 0.499<br/>gini = 0.5<br/>samples = 2<br/>value = [1, 1]<br/>class = 0>, fillcolor="#ffffff"] ;
160 -> 162 ;
163 [label=<gini = 0.0<br/>samples = 1<br/>value = [1, 0]<br/>class = 0>, fillcolor="#e58139"] ;
162 -> 163 ;
164 [label=<gini = 0.0<br/>samples = 1<br/>value = [0, 1]<br/>class = 1>, fillcolor="#399de5"] ;
162 -> 164 ;
165 [label=<gini = 0.0<br/>samples = 3<br/>value = [0, 4]<br/>class = 1>, fillcolor="#399de5"] ;
155 -> 165 ;
166 [label=<gini = 0.0<br/>samples = 6<br/>value = [0, 11]<br/>class = 1>, fillcolor="#399de5"] ;
154 -> 166 ;
167 [label=<gini = 0.0<br/>samples = 17<br/>value = [0, 28]<br/>class = 1>, fillcolor="#399de5"] ;
153 -> 167 ;
168 [label=<gini = 0.0<br/>samples = 2<br/>value = [2, 0]<br/>class = 0>, fillcolor="#e58139"] ;
152 -> 168 ;
169 [label=<gini = 0.0<br/>samples = 1<br/>value = [1, 0]<br/>class = 0>, fillcolor="#e58139"] ;
151 -> 169 ;
170 [label=<Insulin &le; 109.0<br/>gini = 0.457<br/>samples = 64<br/>value = [35, 64]<br/>class = 1>, fillcolor="#a5d3f3"] ;
20 -> 170 ;
171 [label=<DiabetesPedigreeFunction &le; 0.397<br/>gini = 0.498<br/>samples = 46<br/>value = [34, 38]<br/>class = 1>, fillcolor="#eaf5fc"] ;
170 -> 171 ;
172 [label=<BMI &le; 38.9<br/>gini = 0.471<br/>samples = 31<br/>value = [31, 19]<br/>class = 0>, fillcolor="#f5ceb2"] ;
171 -> 172 ;
173 [label=<Age &le; 47.5<br/>gini = 0.416<br/>samples = 26<br/>value = [31, 13]<br/>class = 0>, fillcolor="#f0b68c"] ;
172 -> 173 ;
174 [label=<Age &le; 44.0<br/>gini = 0.482<br/>samples = 19<br/>value = [19, 13]<br/>class = 0>, fillcolor="#f7d7c0"] ;
173 -> 174 ;
175 [label=<BMI &le; 35.0<br/>gini = 0.435<br/>samples = 16<br/>value = [17, 8]<br/>class = 0>, fillcolor="#f1bc96"] ;
174 -> 175 ;
176 [label=<Glucose &le; 91.0<br/>gini = 0.494<br/>samples = 13<br/>value = [10, 8]<br/>class = 0>, fillcolor="#fae6d7"] ;
175 -> 176 ;
177 [label=<gini = 0.0<br/>samples = 4<br/>value = [5, 0]<br/>class = 0>, fillcolor="#e58139"] ;
176 -> 177 ;
178 [label=<DiabetesPedigreeFunction &le; 0.283<br/>gini = 0.473<br/>samples = 9<br/>value = [5, 8]<br/>class = 1>, fillcolor="#b5daf5"] ;
176 -> 178 ;
179 [label=<Pregnancies &le; 9.0<br/>gini = 0.219<br/>samples = 6<br/>value = [1, 7]<br/>class = 1>, fillcolor="#55abe9"] ;
178 -> 179 ;
180 [label=<gini = 0.0<br/>samples = 3<br/>value = [0, 4]<br/>class = 1>, fillcolor="#399de5"] ;
179 -> 180 ;
181 [label=<BMI &le; 31.8<br/>gini = 0.375<br/>samples = 3<br/>value = [1, 3]<br/>class = 1>, fillcolor="#7bbeee"] ;
179 -> 181 ;
182 [label=<gini = 0.0<br/>samples = 1<br/>value = [1, 0]<br/>class = 0>, fillcolor="#e58139"] ;
181 -> 182 ;
183 [label=<gini = 0.0<br/>samples = 2<br/>value = [0, 3]<br/>class = 1>, fillcolor="#399de5"] ;
181 -> 183 ;
184 [label=<BMI &le; 26.95<br/>gini = 0.32<br/>samples = 3<br/>value = [4, 1]<br/>class = 0>, fillcolor="#eca06a"] ;
178 -> 184 ;
185 [label=<gini = 0.0<br/>samples = 1<br/>value = [0, 1]<br/>class = 1>, fillcolor="#399de5"] ;
184 -> 185 ;
186 [label=<gini = 0.0<br/>samples = 2<br/>value = [4, 0]<br/>class = 0>, fillcolor="#e58139"] ;
184 -> 186 ;
187 [label=<gini = 0.0<br/>samples = 3<br/>value = [7, 0]<br/>class = 0>, fillcolor="#e58139"] ;
175 -> 187 ;
188 [label=<Glucose &le; 76.0<br/>gini = 0.408<br/>samples = 3<br/>value = [2, 5]<br/>class = 1>, fillcolor="#88c4ef"] ;
174 -> 188 ;
189 [label=<gini = 0.0<br/>samples = 1<br/>value = [2, 0]<br/>class = 0>, fillcolor="#e58139"] ;
188 -> 189 ;
190 [label=<gini = 0.0<br/>samples = 2<br/>value = [0, 5]<br/>class = 1>, fillcolor="#399de5"] ;
188 -> 190 ;
191 [label=<gini = 0.0<br/>samples = 7<br/>value = [12, 0]<br/>class = 0>, fillcolor="#e58139"] ;
173 -> 191 ;
192 [label=<gini = 0.0<br/>samples = 5<br/>value = [0, 6]<br/>class = 1>, fillcolor="#399de5"] ;
172 -> 192 ;
193 [label=<SkinThickness &le; 7.5<br/>gini = 0.236<br/>samples = 15<br/>value = [3, 19]<br/>class = 1>, fillcolor="#58ace9"] ;
171 -> 193 ;
194 [label=<BloodPressure &le; 75.0<br/>gini = 0.346<br/>samples = 7<br/>value = [2, 7]<br/>class = 1>, fillcolor="#72b9ec"] ;
193 -> 194 ;
195 [label=<gini = 0.0<br/>samples = 3<br/>value = [0, 4]<br/>class = 1>, fillcolor="#399de5"] ;
194 -> 195 ;
196 [label=<BloodPressure &le; 87.0<br/>gini = 0.48<br/>samples = 4<br/>value = [2, 3]<br/>class = 1>, fillcolor="#bddef6"] ;
194 -> 196 ;
197 [label=<gini = 0.0<br/>samples = 2<br/>value = [2, 0]<br/>class = 0>, fillcolor="#e58139"] ;
196 -> 197 ;
198 [label=<gini = 0.0<br/>samples = 2<br/>value = [0, 3]<br/>class = 1>, fillcolor="#399de5"] ;
196 -> 198 ;
199 [label=<Pregnancies &le; 9.5<br/>gini = 0.142<br/>samples = 8<br/>value = [1, 12]<br/>class = 1>, fillcolor="#49a5e7"] ;
193 -> 199 ;
200 [label=<gini = 0.0<br/>samples = 5<br/>value = [0, 9]<br/>class = 1>, fillcolor="#399de5"] ;
199 -> 200 ;
201 [label=<DiabetesPedigreeFunction &le; 0.824<br/>gini = 0.375<br/>samples = 3<br/>value = [1, 3]<br/>class = 1>, fillcolor="#7bbeee"] ;
199 -> 201 ;
202 [label=<DiabetesPedigreeFunction &le; 0.477<br/>gini = 0.5<br/>samples = 2<br/>value = [1, 1]<br/>class = 0>, fillcolor="#ffffff"] ;
201 -> 202 ;
203 [label=<gini = 0.0<br/>samples = 1<br/>value = [0, 1]<br/>class = 1>, fillcolor="#399de5"] ;
202 -> 203 ;
204 [label=<gini = 0.0<br/>samples = 1<br/>value = [1, 0]<br/>class = 0>, fillcolor="#e58139"] ;
202 -> 204 ;
205 [label=<gini = 0.0<br/>samples = 1<br/>value = [0, 2]<br/>class = 1>, fillcolor="#399de5"] ;
201 -> 205 ;
206 [label=<Glucose &le; 142.5<br/>gini = 0.071<br/>samples = 18<br/>value = [1, 26]<br/>class = 1>, fillcolor="#41a1e6"] ;
170 -> 206 ;
207 [label=<DiabetesPedigreeFunction &le; 0.674<br/>gini = 0.153<br/>samples = 8<br/>value = [1, 11]<br/>class = 1>, fillcolor="#4ba6e7"] ;
206 -> 207 ;
208 [label=<gini = 0.0<br/>samples = 6<br/>value = [0, 10]<br/>class = 1>, fillcolor="#399de5"] ;
207 -> 208 ;
209 [label=<BloodPressure &le; 70.0<br/>gini = 0.5<br/>samples = 2<br/>value = [1, 1]<br/>class = 0>, fillcolor="#ffffff"] ;
207 -> 209 ;
210 [label=<gini = 0.0<br/>samples = 1<br/>value = [1, 0]<br/>class = 0>, fillcolor="#e58139"] ;
209 -> 210 ;
211 [label=<gini = 0.0<br/>samples = 1<br/>value = [0, 1]<br/>class = 1>, fillcolor="#399de5"] ;
209 -> 211 ;
212 [label=<gini = 0.0<br/>samples = 10<br/>value = [0, 15]<br/>class = 1>, fillcolor="#399de5"] ;
206 -> 212 ;
}